{"learner":{"attributes":{"feature_schema":"{\"feature_names\":[\"atr_1t\",\"cvd_divergence\",\"ema_21\",\"ema_50\",\"ema_8\",\"last_price\",\"last_zscore\",\"mean_drift_pct\",\"micro_imbalance\",\"micro_slope\",\"rv_10\",\"struct_fvg_down_present\",\"struct_fvg_up_present\",\"struct_ob_bear_present\",\"struct_ob_bull_present\",\"struct_pivot_swipe_down\",\"struct_pivot_swipe_up\",\"ta_bb_bw\",\"ta_bb_pctb\",\"ta_macd_hist\",\"ta_rsi14\",\"tod_cos\",\"tod_sin\",\"vwap_reversion_flag\",\"wick_extreme_down\",\"wick_extreme_up\"]}","scikit_learn":"{\"_estimator_type\": \"classifier\"}"},"feature_names":[],"feature_types":[],"gradient_booster":{"model":{"cats":{"enc":[],"feature_segments":[],"sorted_idx":[]},"gbtree_model_param":{"num_parallel_tree":"1","num_trees":"300"},"iteration_indptr":[0,1,2,3,4,5,6,7,8,9,10,11,12,13,14,15,16,17,18,19,20,21,22,23,24,25,26,27,28,29,30,31,32,33,34,35,36,37,38,39,40,41,42,43,44,45,46,47,48,49,50,51,52,53,54,55,56,57,58,59,60,61,62,63,64,65,66,67,68,69,70,71,72,73,74,75,76,77,78,79,80,81,82,83,84,85,86,87,88,89,90,91,92,93,94,95,96,97,98,99,100,101,102,103,104,105,106,107,108,109,110,111,112,113,114,115,116,117,118,119,120,121,122,123,124,125,126,127,128,129,130,131,132,133,134,135,136,137,138,139,140,141,142,143,144,145,146,147,148,149,150,151,152,153,154,155,156,157,158,159,160,161,162,163,164,165,166,167,168,169,170,171,172,173,174,175,176,177,178,179,180,181,182,183,184,185,186,187,188,189,190,191,192,193,194,195,196,197,198,199,200,201,202,203,204,205,206,207,208,209,210,211,212,213,214,215,216,217,218,219,220,221,222,223,224,225,226,227,228,229,230,231,232,233,234,235,236,237,238,239,240,241,242,243,244,245,246,247,248,249,250,251,252,253,254,255,256,257,258,259,260,261,262,263,264,265,266,267,268,269,270,271,272,273,274,275,276,277,278,279,280,281,282,283,284,285,286,287,288,289,290,291,292,293,294,295,296,297,298,299,300],"tree_info":[0,0,0,0,0,0,0,0,0,0,0,0,0,0,0,0,0,0,0,0,0,0,0,0,0,0,0,0,0,0,0,0,0,0,0,0,0,0,0,0,0,0,0,0,0,0,0,0,0,0,0,0,0,0,0,0,0,0,0,0,0,0,0,0,0,0,0,0,0,0,0,0,0,0,0,0,0,0,0,0,0,0,0,0,0,0,0,0,0,0,0,0,0,0,0,0,0,0,0,0,0,0,0,0,0,0,0,0,0,0,0,0,0,0,0,0,0,0,0,0,0,0,0,0,0,0,0,0,0,0,0,0,0,0,0,0,0,0,0,0,0,0,0,0,0,0,0,0,0,0,0,0,0,0,0,0,0,0,0,0,0,0,0,0,0,0,0,0,0,0,0,0,0,0,0,0,0,0,0,0,0,0,0,0,0,0,0,0,0,0,0,0,0,0,0,0,0,0,0,0,0,0,0,0,0,0,0,0,0,0,0,0,0,0,0,0,0,0,0,0,0,0,0,0,0,0,0,0,0,0,0,0,0,0,0,0,0,0,0,0,0,0,0,0,0,0,0,0,0,0,0,0,0,0,0,0,0,0,0,0,0,0,0,0,0,0,0,0,0,0,0,0,0,0,0,0,0,0,0,0,0,0,0,0,0,0,0,0,0,0,0,0,0,0,0,0,0,0,0,0],"trees":[{"base_weights":[-7.912367E-3,-3.219844E-2,2.3833565E-1,6.44472E-2,-1.0092916E-1,4.994608E-2,3.5816365E-1,5.937152E-1,4.654057E-2,-1.690915E-1,1.5861984E-2,-1.8433662E-2,7.4772274E-1,5.0410074E-1,-1.3564208E-1,4.9070634E-2,1.2300777E-2,1.7430102E-2,6.267132E-4,2.1707376E-2,-9.496826E-3,9.04183E-3,-3.766124E-3,2.9596245E-2,-5.4106247E-3,5.2307285E-2,-1.5735982E-2,1.5860206E-2,3.8955353E-2,-1.9297287E-2,5.073244E-2],"categories":[],"categories_nodes":[],"categories_segments":[],"categories_sizes":[],"default_left":[0,0,0,0,0,0,0,0,0,0,0,0,0,0,0,0,0,0,0,0,0,0,0,0,0,0,0,0,0,0,0],"id":0,"left_children":[1,3,5,7,9,11,13,15,17,19,21,23,25,27,29,-1,-1,-1,-1,-1,-1,-1,-1,-1,-1,-1,-1,-1,-1,-1,-1],"loss_changes":[1.9286196E1,1.9503069E1,6.517523E0,1.1539059E1,1.3660671E1,5.439578E0,1.2808714E1,5.1310883E0,1.21329565E1,1.3706486E1,9.538944E0,5.792684E0,3.55473E0,6.777569E0,1.2230132E1,0E0,0E0,0E0,0E0,0E0,0E0,0E0,0E0,0E0,0E0,0E0,0E0,0E0,0E0,0E0,0E0],"parents":[2147483647,0,0,1,1,2,2,3,3,4,4,5,5,6,6,7,7,8,8,9,9,10,10,11,11,12,12,13,13,14,14],"right_children":[2,4,6,8,10,12,14,16,18,20,22,24,26,28,30,-1,-1,-1,-1,-1,-1,-1,-1,-1,-1,-1,-1,-1,-1,-1,-1],"split_conditions":[2.3940092E-4,-1.1525569E0,6.37311E-4,1.5395509E1,-2.3768589E-1,8.786816E-3,1.015526E-2,5.6159036E-4,2.6525726E-4,-1.5192266E0,-6.5403126E-2,6.173225E1,-1.3052619E-1,2.3939295E4,2.30817E0,4.9070634E-2,1.2300777E-2,1.7430102E-2,6.267132E-4,2.1707376E-2,-9.496826E-3,9.04183E-3,-3.766124E-3,2.9596245E-2,-5.4106247E-3,5.2307285E-2,-1.5735982E-2,1.5860206E-2,3.8955353E-2,-1.9297287E-2,5.073244E-2],"split_indices":[7,19,10,20,21,17,17,10,10,6,21,20,21,2,6,0,0,0,0,0,0,0,0,0,0,0,0,0,0,0,0],"split_type":[0,0,0,0,0,0,0,0,0,0,0,0,0,0,0,0,0,0,0,0,0,0,0,0,0,0,0,0,0,0,0],"sum_hessian":[3.2226194E3,2.9341133E3,2.8850604E2,1.2194489E3,1.7146644E3,1.1271544E2,1.7579059E2,3.8854897E1,1.180594E3,1.0824631E3,6.322013E2,1.0354224E2,9.173204E0,1.3567345E2,4.011715E1,1.7509073E1,2.1345821E1,1.185268E2,1.0620671E3,3.5493053E1,1.0469701E3,2.2469353E2,4.0750775E2,1.2560041E1,9.098219E1,7.173596E0,1.9996086E0,8.205894E1,5.3614506E1,3.3493446E1,6.6237035E0],"tree_param":{"num_deleted":"0","num_feature":"26","num_nodes":"31","size_leaf_vector":"1"}},{"base_weights":[9.712194E-3,-1.978689E-2,2.2888392E-1,1.00072816E-1,-8.733168E-2,3.3493027E-2,3.896295E-1,-8.315858E-2,1.805179E-1,-7.895845E-2,-9.684495E-1,-1.0477522E-1,3.075831E-1,7.2202814E-1,1.8857224E-1,2.4660517E-2,-7.2291503E-3,-3.9599244E-3,1.2030568E-2,-5.9508164E-3,5.0430098E-3,-5.8449447E-2,1.7853629E-2,1.7644787E-3,-2.8482338E-2,2.4243364E-2,-3.3265837E-2,4.165516E-3,4.3014646E-2,1.9771121E-2,-8.48346E-3],"categories":[],"categories_nodes":[],"categories_segments":[],"categories_sizes":[],"default_left":[0,0,0,0,0,0,0,0,0,0,0,0,0,0,0,0,0,0,0,0,0,0,0,0,0,0,0,0,0,0,0],"id":1,"left_children":[1,3,5,7,9,11,13,15,17,19,21,23,25,27,29,-1,-1,-1,-1,-1,-1,-1,-1,-1,-1,-1,-1,-1,-1,-1,-1],"loss_changes":[2.0806799E1,2.2974638E1,1.1977398E1,1.5092447E1,1.3313093E1,6.6039457E0,1.3855326E1,1.1143908E1,1.1117847E1,1.2969387E1,4.935089E0,7.5735493E0,1.0395218E1,6.865402E0,9.834063E0,0E0,0E0,0E0,0E0,0E0,0E0,0E0,0E0,0E0,0E0,0E0,0E0,0E0,0E0,0E0,0E0],"parents":[2147483647,0,0,1,1,2,2,3,3,4,4,5,5,6,6,7,7,8,8,9,9,10,10,11,11,12,12,13,13,14,14],"right_children":[2,4,6,8,10,12,14,16,18,20,22,24,26,28,30,-1,-1,-1,-1,-1,-1,-1,-1,-1,-1,-1,-1,-1,-1,-1,-1],"split_conditions":[1.9915213E-4,-1.7759595E0,6.37311E-4,-5.8155217E0,2.61922E4,2.2725E1,6.551402E0,1.5395509E1,-9.784554E-1,2.51669E4,1E0,5.441944E-4,2.4796482E4,5.404614E1,8.786816E-3,2.4660517E-2,-7.2291503E-3,-3.9599244E-3,1.2030568E-2,-5.9508164E-3,5.0430098E-3,-5.8449447E-2,1.7853629E-2,1.7644787E-3,-2.8482338E-2,2.4243364E-2,-3.3265837E-2,4.165516E-3,4.3014646E-2,1.9771121E-2,-8.48346E-3],"split_indices":[7,19,10,19,5,0,19,20,6,5,16,10,3,20,17,0,0,0,0,0,0,0,0,0,0,0,0,0,0,0,0],"split_type":[0,0,0,0,0,0,0,0,0,0,0,0,0,0,0,0,0,0,0,0,0,0,0,0,0,0,0,0,0,0,0],"sum_hessian":[3.2164934E3,2.835732E3,3.807613E2,1.02188794E3,1.813844E3,1.7240564E2,2.0835565E2,3.1175757E2,7.101304E2,1.7978488E3,1.5995281E1,1.1500675E2,5.73989E1,7.755177E1,1.3080388E2,2.9347664E1,2.824099E2,1.333764E2,5.7675397E2,1.4705869E3,3.2726187E2,1.3995918E1,1.9993637E0,8.908862E1,2.5918125E1,4.8975998E1,8.4229E0,1.4085583E1,6.346619E1,8.28577E1,4.794619E1],"tree_param":{"num_deleted":"0","num_feature":"26","num_nodes":"31","size_leaf_vector":"1"}},{"base_weights":[-8.117875E-4,-2.859403E-2,1.9983058E-1,6.954506E-2,-8.602332E-2,-3.9778934E-3,3.8670936E-1,4.1718867E-1,3.9352518E-2,-1.5347232E-1,4.5015063E-2,6.97046E-2,-5.029599E-1,3.1959978E-1,9.8099655E-1,2.4712587E-2,-3.7377864E-2,2.521873E-2,1.0241924E-3,-1.937857E-2,-5.99747E-3,-1.5893169E-3,1.1059041E-2,3.91484E-2,-6.5736E-5,-3.2281575E-3,-4.9183793E-2,1.9698555E-2,-1.8673204E-2,3.5855845E-3,6.213063E-2],"categories":[],"categories_nodes":[],"categories_segments":[],"categories_sizes":[],"default_left":[0,0,0,0,0,0,0,0,0,0,0,0,0,0,0,0,0,0,0,0,0,0,0,0,0,0,0,0,0,0,0],"id":2,"left_children":[1,3,5,7,9,11,13,15,17,19,21,23,25,27,29,-1,-1,-1,-1,-1,-1,-1,-1,-1,-1,-1,-1,-1,-1,-1,-1],"loss_changes":[1.8003155E1,1.5994567E1,1.496272E1,1.0981485E1,1.5828044E1,6.979631E0,7.859434E0,7.8754873E0,8.4584055E0,9.229376E0,8.247436E0,8.382474E0,5.0838666E0,9.714569E0,4.7422924E0,0E0,0E0,0E0,0E0,0E0,0E0,0E0,0E0,0E0,0E0,0E0,0E0,0E0,0E0,0E0,0E0],"parents":[2147483647,0,0,1,1,2,2,3,3,4,4,5,5,6,6,7,7,8,8,9,9,10,10,11,11,12,12,13,13,14,14],"right_children":[2,4,6,8,10,12,14,16,18,20,22,24,26,28,30,-1,-1,-1,-1,-1,-1,-1,-1,-1,-1,-1,-1,-1,-1,-1,-1],"split_conditions":[1.9449997E-4,-1.7389262E0,6.4240483E-4,2.6525726E-4,9.713421E-1,6.0371653E-4,2.30817E0,9.99762E-1,1.5395509E1,1.183928E-3,3.62612E-3,5.856802E1,2.435415E4,1.2125725E-2,-7.7988446E-1,2.4712587E-2,-3.7377864E-2,2.521873E-2,1.0241924E-3,-1.937857E-2,-5.99747E-3,-1.5893169E-3,1.1059041E-2,3.91484E-2,-6.5736E-5,-3.2281575E-3,-4.9183793E-2,1.9698555E-2,-1.8673204E-2,3.5855845E-3,6.213063E-2],"split_indices":[7,19,10,10,22,10,6,22,20,17,17,20,5,17,21,0,0,0,0,0,0,0,0,0,0,0,0,0,0,0,0],"split_type":[0,0,0,0,0,0,0,0,0,0,0,0,0,0,0,0,0,0,0,0,0,0,0,0,0,0,0,0,0,0,0],"sum_hessian":[3.227649E3,2.835838E3,3.9181104E2,1.0467941E3,1.789044E3,1.8788449E2,2.0392656E2,8.262411E1,9.641699E2,1.1809869E3,6.08057E2,1.6445975E2,2.3424746E1,1.846166E2,1.9309956E1,7.803663E1,4.5874777E0,3.659317E1,9.275768E2,1.4661003E2,1.0343768E3,4.2402026E2,1.8403673E2,1.3984587E1,1.5047516E2,1.2844917E1,1.0579827E1,1.6711533E2,1.7501266E1,4.599127E0,1.471083E1],"tree_param":{"num_deleted":"0","num_feature":"26","num_nodes":"31","size_leaf_vector":"1"}},{"base_weights":[3.725885E-3,-3.460553E-2,1.1377445E-1,5.119992E-2,-1.0931988E-1,6.332319E-2,4.1288915E-1,7.84144E-2,-4.6657422E-1,-1.7868772E-1,2.6929177E-2,9.271175E-2,-3.4967318E-1,6.7858565E-1,1.11143954E-1,3.4025193E-3,3.698357E-2,-1.1761309E-2,-4.4229947E-2,2.16429E-2,-1.0012224E-2,-7.0640645E-3,7.810801E-3,1.6545929E-3,1.5044485E-2,-2.279231E-2,1.6432172E-2,-6.374111E-5,4.2464435E-2,9.929822E-3,-4.5973092E-2],"categories":[],"categories_nodes":[],"categories_segments":[],"categories_sizes":[],"default_left":[0,0,0,0,0,0,0,0,0,0,0,0,0,0,0,0,0,0,0,0,0,0,0,0,0,0,0,0,0,0,0],"id":3,"left_children":[1,3,5,7,9,11,13,15,17,19,21,23,25,27,29,-1,-1,-1,-1,-1,-1,-1,-1,-1,-1,-1,-1,-1,-1,-1,-1],"loss_changes":[1.3613694E1,1.5351E1,1.2555048E1,1.57453E1,1.2100917E1,8.705305E0,9.55681E0,7.214113E0,5.1895323E0,1.1268385E1,9.430861E0,8.279488E0,3.5836263E0,7.3928375E0,5.360643E0,0E0,0E0,0E0,0E0,0E0,0E0,0E0,0E0,0E0,0E0,0E0,0E0,0E0,0E0,0E0,0E0],"parents":[2147483647,0,0,1,1,2,2,3,3,4,4,5,5,6,6,7,7,8,8,9,9,10,10,11,11,12,12,13,13,14,14],"right_children":[2,4,6,8,10,12,14,16,18,20,22,24,26,28,30,-1,-1,-1,-1,-1,-1,-1,-1,-1,-1,-1,-1,-1,-1,-1,-1],"split_conditions":[2.405E1,-3.3210093E-1,8.6163396E-1,6.9969916E-4,9.713421E-1,8.564927E0,1.0013553E1,1.4310951E0,4.1057823E1,5.7357645E-1,6.515556E-1,8.342137E-5,2.4692959E4,2.0385705E-4,2.5190318E4,3.4025193E-3,3.698357E-2,-1.1761309E-2,-4.4229947E-2,2.16429E-2,-1.0012224E-2,-7.0640645E-3,7.810801E-3,1.6545929E-3,1.5044485E-2,-2.279231E-2,1.6432172E-2,-6.374111E-5,4.2464435E-2,9.929822E-3,-4.5973092E-2],"split_indices":[0,19,18,10,22,19,19,6,20,22,18,7,2,7,2,0,0,0,0,0,0,0,0,0,0,0,0,0,0,0,0],"split_type":[0,0,0,0,0,0,0,0,0,0,0,0,0,0,0,0,0,0,0,0,0,0,0,0,0,0,0,0,0,0,0],"sum_hessian":[3.2253477E3,2.392643E3,8.327046E2,1.1138083E3,1.2788347E3,7.13561E2,1.1914362E2,1.0589955E3,5.4812805E1,8.471949E2,4.316398E2,6.6688165E2,4.6679344E1,6.2692207E1,5.6451412E1,1.0437396E3,1.5255845E1,3.6290955E1,1.852185E1,2.8196829E1,8.189981E2,1.8754237E2,2.4409744E2,5.193146E2,1.4756705E2,4.0645336E1,6.0340075E0,1.2781148E1,4.9911057E1,5.278004E1,3.6713712E0],"tree_param":{"num_deleted":"0","num_feature":"26","num_nodes":"31","size_leaf_vector":"1"}},{"base_weights":[2.899938E-3,-3.6754984E-2,1.1677125E-1,-2.8482564E-2,-7.7599245E-1,2.5777647E-2,3.7326515E-1,-3.700497E-2,7.2900414E-1,3.7120056E-1,-1.1472051E0,8.161699E-1,7.9847695E-3,4.9500227E-1,1.1750058E-1,6.7477755E-4,-7.006053E-3,6.643445E-3,5.009489E-2,3.4478527E-2,-3.2138325E-2,-6.641472E-2,1.0700216E-2,-7.732682E-3,6.2451787E-2,2.957708E-2,-4.6544868E-4,-2.7308652E-2,2.7793398E-2,2.0693853E-2,-9.292811E-3],"categories":[],"categories_nodes":[],"categories_segments":[],"categories_sizes":[],"default_left":[0,0,0,0,0,0,0,0,0,0,0,0,0,0,0,0,0,0,0,0,0,0,0,0,0,0,0,0,0,0,0],"id":4,"left_children":[1,3,5,7,9,11,13,15,17,19,21,23,25,27,29,-1,-1,-1,-1,-1,-1,-1,-1,-1,-1,-1,-1,-1,-1,-1,-1],"loss_changes":[1.462575E1,1.4669361E1,1.9516045E1,1.5371116E1,1.1731626E1,8.693088E0,6.7606087E0,1.2246485E1,4.176752E0,2.782363E0,5.288851E0,5.912223E0,6.1211057E0,9.686741E0,6.544382E0,0E0,0E0,0E0,0E0,0E0,0E0,0E0,0E0,0E0,0E0,0E0,0E0,0E0,0E0,0E0,0E0],"parents":[2147483647,0,0,1,1,2,2,3,3,4,4,5,5,6,6,7,7,8,8,9,9,10,10,11,11,12,12,13,13,14,14],"right_children":[2,4,6,8,10,12,14,16,18,20,22,24,26,28,30,-1,-1,-1,-1,-1,-1,-1,-1,-1,-1,-1,-1,-1,-1,-1,-1],"split_conditions":[2.405E1,2.61922E4,7.029866E-1,2.6131533E4,3.8326138E1,4.2874386E-4,1.0590708E1,1.2831248E0,7.6604444E-1,1E0,1.7557536E0,2.5046457E1,5.8778524E-1,6.087614E-1,9.3200785E-1,6.7477755E-4,-7.006053E-3,6.643445E-3,5.009489E-2,3.4478527E-2,-3.2138325E-2,-6.641472E-2,1.0700216E-2,-7.732682E-3,6.2451787E-2,2.957708E-2,-4.6544868E-4,-2.7308652E-2,2.7793398E-2,2.0693853E-2,-9.292811E-3],"split_indices":[0,5,18,4,20,10,19,19,22,11,6,0,22,22,22,0,0,0,0,0,0,0,0,0,0,0,0,0,0,0,0],"split_type":[0,0,0,0,0,0,0,0,0,0,0,0,0,0,0,0,0,0,0,0,0,0,0,0,0,0,0,0,0,0,0],"sum_hessian":[3.2370176E3,2.4014175E3,8.356003E2,2.375869E3,2.5548576E1,6.176011E2,2.1799924E2,2.3503762E3,2.54927E1,6.2460036E0,1.9302572E1,1.2609144E1,6.0499194E2,1.4706488E2,7.093434E1,1.5782877E3,7.720884E2,8.472167E0,1.7020533E1,4.996963E0,1.2490407E0,1.70575E1,2.2450726E0,4.086573E0,8.522572E0,1.6457214E1,5.885347E2,7.682016E0,1.3938287E2,3.5695694E1,3.523865E1],"tree_param":{"num_deleted":"0","num_feature":"26","num_nodes":"31","size_leaf_vector":"1"}},{"base_weights":[1.8431843E-3,-2.0792693E-2,2.1012682E-1,-1.404385E-2,-7.974956E-1,1.6583137E-1,6.578782E-1,-1.7585921E-1,7.517837E-3,4.3995507E-2,-9.094044E-1,2.4351658E-1,-3.2536986E-1,-5.551499E-1,7.965519E-1,-7.022337E-3,-6.400748E-2,2.8964914E-3,-5.4166135E-3,-6.8983726E-2,-1.3438403E-2,1.0678797E-4,2.116705E-2,4.7087237E-2,-2.8993765E-2,1.1759221E-2,-5.4933663E-2,4.771503E-2,-5.357532E-3],"categories":[],"categories_nodes":[],"categories_segments":[],"categories_sizes":[],"default_left":[0,0,0,0,0,0,0,0,0,0,0,0,0,0,0,0,0,0,0,0,0,0,0,0,0,0,0,0,0],"id":5,"left_children":[1,3,5,7,9,11,13,15,17,-1,19,21,23,25,27,-1,-1,-1,-1,-1,-1,-1,-1,-1,-1,-1,-1,-1,-1],"loss_changes":[1.5327421E1,1.535995E1,6.2113543E0,1.0147894E1,5.5386086E0,1.1195995E1,5.211319E0,1.3193742E1,1.4999124E1,0E0,6.9065475E0,1.0942491E1,1.3513534E1,1.76097E0,3.7878551E0,0E0,0E0,0E0,0E0,0E0,0E0,0E0,0E0,0E0,0E0,0E0,0E0,0E0,0E0],"parents":[2147483647,0,0,1,1,2,2,3,3,4,4,5,5,6,6,7,7,8,8,10,10,11,11,12,12,13,13,14,14],"right_children":[2,4,6,8,10,12,14,16,18,-1,20,22,24,26,28,-1,-1,-1,-1,-1,-1,-1,-1,-1,-1,-1,-1,-1,-1],"split_conditions":[2.2481197E-4,2.61922E4,2.4399896E0,1.183928E-3,-6.691409E-2,1.015526E-2,4.0507643E-4,1.2514304E0,1.2831248E0,4.3995507E-2,2.606645E-3,2.3653572E1,4.9285855E0,3.365183E-4,2.5105445E4,-7.022337E-3,-6.400748E-2,2.8964914E-3,-5.4166135E-3,-6.8983726E-2,-1.3438403E-2,1.0678797E-4,2.116705E-2,4.7087237E-2,-2.8993765E-2,1.1759221E-2,-5.4933663E-2,4.771503E-2,-5.357532E-3],"split_indices":[7,5,6,17,18,17,10,6,19,0,17,0,19,10,3,0,0,0,0,0,0,0,0,0,0,0,0,0,0],"split_type":[0,0,0,0,0,0,0,0,0,0,0,0,0,0,0,0,0,0,0,0,0,0,0,0,0,0,0,0,0],"sum_hessian":[3.2490706E3,2.9313926E3,3.176781E2,2.9071501E3,2.4242409E1,2.9032684E2,2.7351276E1,3.4098465E2,2.5661655E3,1.0869732E0,2.3155436E1,2.5111617E2,3.9210667E1,2.4979072E0,2.485337E1,3.3148187E2,9.502806E0,1.788432E3,7.777334E2,1.2687994E1,1.04674425E1,1.0764057E2,1.4347559E2,6.1067076E0,3.3103962E1,1.249016E0,1.2488911E0,2.1112091E1,3.7412794E0],"tree_param":{"num_deleted":"0","num_feature":"26","num_nodes":"29","size_leaf_vector":"1"}},{"base_weights":[-5.9240274E-3,-2.84425E-2,1.8538591E-1,-2.1886993E-2,-7.5432026E-1,1.4419265E-1,6.693346E-1,-2.8112615E-2,7.205782E-1,4.9296856E-2,-8.8912195E-1,1.8929158E-1,-5.012087E-1,8.430663E-1,-3.0543044E-1,-3.8834698E-3,3.142108E-3,4.382657E-2,-3.3001836E-2,-6.884519E-2,-1.5193457E-2,-3.0188065E-3,1.6725061E-2,8.108556E-3,-4.1299276E-2,2.6005358E-2,6.04691E-2,-4.249842E-2,1.4781845E-2],"categories":[],"categories_nodes":[],"categories_segments":[],"categories_sizes":[],"default_left":[0,0,0,0,0,0,0,0,0,0,0,0,0,0,0,0,0,0,0,0,0,0,0,0,0,0,0,0,0],"id":6,"left_children":[1,3,5,7,9,11,13,15,17,-1,19,21,23,25,27,-1,-1,-1,-1,-1,-1,-1,-1,-1,-1,-1,-1,-1,-1],"loss_changes":[1.3956761E1,1.3775131E1,6.7051077E0,1.3302032E1,6.9550657E0,9.283756E0,4.743265E0,1.2853193E1,5.731142E0,0E0,6.59688E0,1.0744207E1,4.635399E0,2.0621414E0,1.8030127E0,0E0,0E0,0E0,0E0,0E0,0E0,0E0,0E0,0E0,0E0,0E0,0E0,0E0,0E0],"parents":[2147483647,0,0,1,1,2,2,3,3,4,4,5,5,6,6,7,7,8,8,10,10,11,11,12,12,13,13,14,14],"right_children":[2,4,6,8,10,12,14,16,18,-1,20,22,24,26,28,-1,-1,-1,-1,-1,-1,-1,-1,-1,-1,-1,-1,-1,-1],"split_conditions":[2.1413612E-4,2.61922E4,2.4399896E0,2.61278E4,-5.252629E-3,1.2125725E-2,2.5105445E4,9.713421E-1,-4.3619387E-2,4.9296856E-2,2.606645E-3,2.2914257E1,5.163451E-4,2.4034736E4,6.239251E-4,-3.8834698E-3,3.142108E-3,4.382657E-2,-3.3001836E-2,-6.884519E-2,-1.5193457E-2,-3.0188065E-3,1.6725061E-2,8.108556E-3,-4.1299276E-2,2.6005358E-2,6.04691E-2,-4.249842E-2,1.4781845E-2],"split_indices":[7,5,6,5,18,17,3,22,21,0,17,0,7,4,10,0,0,0,0,0,0,0,0,0,0,0,0,0,0],"split_type":[0,0,0,0,0,0,0,0,0,0,0,0,0,0,0,0,0,0,0,0,0,0,0,0,0,0,0,0,0],"sum_hessian":[3.2375015E3,2.8973186E3,3.4018268E2,2.8724077E3,2.4910978E1,3.1469415E2,2.548852E1,2.8494768E3,2.2930923E1,1.3369741E0,2.3574003E1,2.9480093E2,1.9893198E1,2.1747572E1,3.7409468E0,1.8445942E3,1.0048825E3,2.093162E1,1.9993045E0,1.2119926E1,1.1454078E1,1.0862302E2,1.8617793E2,6.7028384E0,1.3190359E1,1.2843786E1,8.903787E0,1.745505E0,1.9954417E0],"tree_param":{"num_deleted":"0","num_feature":"26","num_nodes":"29","size_leaf_vector":"1"}},{"base_weights":[9.372802E-3,-8.292695E-2,4.6999212E-2,-2.6531708E-1,3.591409E-2,2.3978982E-2,2.5338727E-1,-1.3137473E-1,-5.225186E-1,-7.3635234E-3,2.9473206E-1,8.526476E-2,-3.9744847E-2,4.8144117E-1,8.910279E-2,-3.0971963E-2,-9.866897E-4,-8.110467E-3,-3.757448E-2,1.5350214E-2,-2.2159226E-3,-1.024308E-2,2.0298729E-2,5.7869847E-3,-9.785018E-3,-1.0615701E-2,2.831505E-3,-3.0002607E-2,2.7067302E-2,9.995071E-4,3.3534255E-2],"categories":[],"categories_nodes":[],"categories_segments":[],"categories_sizes":[],"default_left":[0,0,0,0,0,0,0,0,0,0,0,0,0,0,0,0,0,0,0,0,0,0,0,0,0,0,0,0,0,0,0],"id":7,"left_children":[1,3,5,7,9,11,13,15,17,19,21,23,25,27,29,-1,-1,-1,-1,-1,-1,-1,-1,-1,-1,-1,-1,-1,-1,-1,-1],"loss_changes":[1.1221278E1,2.0292429E1,1.089871E1,1.26535015E1,6.358348E0,8.071877E0,8.582126E0,1.3291992E1,1.0283318E1,5.6729927E0,4.602509E0,9.04283E0,1.6868492E1,6.55534E0,5.414545E0,0E0,0E0,0E0,0E0,0E0,0E0,0E0,0E0,0E0,0E0,0E0,0E0,0E0,0E0,0E0,0E0],"parents":[2147483647,0,0,1,1,2,2,3,3,4,4,5,5,6,6,7,7,8,8,9,9,10,10,11,11,12,12,13,13,14,14],"right_children":[2,4,6,8,10,12,14,16,18,20,22,24,26,28,30,-1,-1,-1,-1,-1,-1,-1,-1,-1,-1,-1,-1,-1,-1,-1,-1],"split_conditions":[-5.9130967E-1,1.697857E1,2.2481197E-4,5.350507E-1,7.72365E-3,1.7867857E1,6.194292E0,1.183928E-3,-7.2236395E-1,-8.09017E-1,-7.933533E-1,1E0,2.1553572E1,2.994754E-4,4.5030966E-1,-3.0971963E-2,-9.866897E-4,-8.110467E-3,-3.757448E-2,1.5350214E-2,-2.2159226E-3,-1.024308E-2,2.0298729E-2,5.7869847E-3,-9.785018E-3,-1.0615701E-2,2.831505E-3,-3.0002607E-2,2.7067302E-2,9.995071E-4,3.3534255E-2],"split_indices":[21,0,7,19,17,0,19,17,21,21,21,16,0,10,6,0,0,0,0,0,0,0,0,0,0,0,0,0,0,0,0],"split_type":[0,0,0,0,0,0,0,0,0,0,0,0,0,0,0,0,0,0,0,0,0,0,0,0,0,0,0,0,0,0,0],"sum_hessian":[3.2289675E3,9.347551E2,2.2942124E3,3.682912E2,5.664639E2,2.0650012E3,2.2921109E2,2.4316788E2,1.2512333E2,4.8614578E2,8.031813E1,1.0524651E3,1.01253613E3,9.516956E1,1.3404153E2,4.4421295E1,1.9874658E2,4.9281807E1,7.584152E1,5.0368034E1,4.3577774E2,1.4473885E1,6.5844246E1,9.5001013E2,1.0245496E2,3.624068E2,6.5012933E2,4.52162E0,9.064794E1,1.20729004E2,1.3312526E1],"tree_param":{"num_deleted":"0","num_feature":"26","num_nodes":"31","size_leaf_vector":"1"}},{"base_weights":[1.6344453E-3,6.94709E-3,-6.2874126E-1,-1.4340551E-2,1.5850802E-1,3.8093475E-1,-9.5046085E-1,4.6350208E-1,-2.1782132E-2,1.356096E-1,1.1418638E0,6.8913746E-1,-3.0566016E-2,-1.2234011E0,3.1056932E-1,4.0110804E-2,3.1279274E-3,-1.372016E-3,3.0936597E-2,-2.8117138E-3,1.1896111E-2,6.824498E-2,3.6555887E-3,4.6914656E-2,-7.269708E-3,-6.5160684E-2,-5.202292E-3,5.796952E-2,-1.8697426E-2],"categories":[],"categories_nodes":[],"categories_segments":[],"categories_sizes":[],"default_left":[0,0,0,0,0,0,0,0,0,0,0,0,0,0,0,0,0,0,0,0,0,0,0,0,0,0,0,0,0],"id":8,"left_children":[1,3,5,7,9,11,13,15,17,19,21,23,-1,25,27,-1,-1,-1,-1,-1,-1,-1,-1,-1,-1,-1,-1,-1,-1],"loss_changes":[1.0806695E1,1.03254E1,9.122163E0,9.989624E0,8.7201E0,2.6324735E0,7.517536E0,5.8003845E0,1.0035528E1,7.5957913E0,2.0060434E0,1.38128E0,0E0,1.4055138E0,3.040875E0,0E0,0E0,0E0,0E0,0E0,0E0,0E0,0E0,0E0,0E0,0E0,0E0,0E0,0E0],"parents":[2147483647,0,0,1,1,2,2,3,3,4,4,5,5,6,6,7,7,8,8,9,9,10,10,11,11,13,13,14,14],"right_children":[2,4,6,8,10,12,14,16,18,20,22,24,-1,26,28,-1,-1,-1,-1,-1,-1,-1,-1,-1,-1,-1,-1,-1,-1],"split_conditions":[2.61922E4,1.9449997E-4,3.8326138E1,1.5395509E1,1E0,1.3052619E-1,1.7557536E0,-1.5212339E-1,2.61278E4,2.2042856E1,4.2312997E-4,-1.4778342E0,-3.0566016E-2,1.9439285E1,7.7261696E1,4.0110804E-2,3.1279274E-3,-1.372016E-3,3.0936597E-2,-2.8117138E-3,1.1896111E-2,6.824498E-2,3.6555887E-3,4.6914656E-2,-7.269708E-3,-6.5160684E-2,-5.202292E-3,5.796952E-2,-1.8697426E-2],"split_indices":[5,7,20,20,11,21,6,21,5,0,7,19,0,0,20,0,0,0,0,0,0,0,0,0,0,0,0,0,0],"split_type":[0,0,0,0,0,0,0,0,0,0,0,0,0,0,0,0,0,0,0,0,0,0,0,0,0,0,0,0,0],"sum_hessian":[3.2245742E3,3.1986062E3,2.596805E1,2.8054668E3,3.9313925E2,6.2304654E0,1.9737585E1,4.20806E1,2.7633862E3,3.8530493E2,7.8343034E0,4.986958E0,1.2435071E0,1.6250195E1,3.4873896E0,2.226797E1,1.981263E1,2.7401375E3,2.3248735E1,1.3417224E2,2.511327E2,6.252405E0,1.5818982E0,3.7446346E0,1.2423234E0,1.5015316E1,1.2348791E0,1.2471527E0,2.2402368E0],"tree_param":{"num_deleted":"0","num_feature":"26","num_nodes":"29","size_leaf_vector":"1"}},{"base_weights":[-1.9617793E-3,-7.77441E-2,3.4549937E-2,-1.072878E-1,3.3901897E-1,3.9512604E-1,1.9997641E-2,-1.866654E-1,-3.2845258E-3,4.141215E-1,-6.2561804E-1,5.082019E-1,-4.05204E-1,-4.3745738E-1,2.8106462E-2,-7.674689E-3,-4.477907E-2,1.3602161E-3,-3.0331329E-2,-3.790711E-2,2.3416774E-2,-6.865665E-2,3.6241196E-2,1.1091896E-2,4.4723406E-2,1.4959134E-2,-3.533217E-2,1.9599851E-3,-3.4517195E-2,3.5240665E-2,9.905742E-4],"categories":[],"categories_nodes":[],"categories_segments":[],"categories_sizes":[],"default_left":[0,0,0,0,0,0,0,0,0,0,0,0,0,0,0,0,0,0,0,0,0,0,0,0,0,0,0,0,0,0,0],"id":9,"left_children":[1,3,5,7,9,11,13,15,17,19,21,23,25,27,29,-1,-1,-1,-1,-1,-1,-1,-1,-1,-1,-1,-1,-1,-1,-1,-1],"loss_changes":[8.913479E0,1.2932922E1,1.1399694E1,8.080239E0,5.2995715E0,7.833418E0,7.7677565E0,1.2916811E1,7.8292327E0,4.4956284E0,6.470525E0,8.019348E0,2.5449915E0,4.4238043E0,1.1522831E1,0E0,0E0,0E0,0E0,0E0,0E0,0E0,0E0,0E0,0E0,0E0,0E0,0E0,0E0,0E0,0E0],"parents":[2147483647,0,0,1,1,2,2,3,3,4,4,5,5,6,6,7,7,8,8,9,9,10,10,11,11,12,12,13,13,14,14],"right_children":[2,4,6,8,10,12,14,16,18,20,22,24,26,28,30,-1,-1,-1,-1,-1,-1,-1,-1,-1,-1,-1,-1,-1,-1,-1,-1],"split_conditions":[2.0533667E-3,5.6640353E-2,1.2910714E1,3.5654407E-4,9.9405634E-1,3.5540648E0,-2.643998E0,1.7546429E1,9.227012E-1,-6.4629765E0,7.240736E-1,2.5145666E4,2.3859027E-3,5.557298E-4,1.5395509E1,-7.674689E-3,-4.477907E-2,1.3602161E-3,-3.0331329E-2,-3.790711E-2,2.3416774E-2,-6.865665E-2,3.6241196E-2,1.1091896E-2,4.4723406E-2,1.4959134E-2,-3.533217E-2,1.9599851E-3,-3.4517195E-2,3.5240665E-2,9.905742E-4],"split_indices":[17,25,0,10,22,19,6,0,18,19,18,4,17,10,20,0,0,0,0,0,0,0,0,0,0,0,0,0,0,0,0],"split_type":[0,0,0,0,0,0,0,0,0,0,0,0,0,0,0,0,0,0,0,0,0,0,0,0,0,0,0,0,0,0,0],"sum_hessian":[3.219447E3,1.0464164E3,2.1730308E3,9.778412E2,6.8575134E1,8.328352E1,2.0897473E3,5.5412555E2,4.2371567E2,6.415128E1,4.4238505E0,7.329319E1,9.990332E0,3.5475346E1,2.054272E3,5.3051807E2,2.360751E1,4.0424286E2,1.9472803E1,2.2617347E0,6.1889545E1,2.8367894E0,1.587061E0,4.299359E1,3.0299599E1,2.99628E0,6.994052E0,1.2589955E1,2.288539E1,2.3859241E1,2.0304127E3],"tree_param":{"num_deleted":"0","num_feature":"26","num_nodes":"31","size_leaf_vector":"1"}},{"base_weights":[-5.250501E-3,-3.335382E-2,1.2821883E-1,-1.4618579E-1,1.3058461E-2,-1.7152737E-1,1.6262473E-1,1.3011192E-1,-1.827164E-1,1.8545266E-2,-8.0464315E-1,-6.071443E-2,-9.320338E-2,2.5726575E-1,5.921529E-4,-2.1494048E-2,1.2806951E-2,-3.2427482E-2,-7.4642436E-3,3.6894758E-3,-3.5163953E-3,-5.187257E-2,2.8769094E-2,1.11721745E-2,-2.0274466E-2,7.0408243E-3,2.3137463E-2,1.5699537E-2,-9.935869E-3],"categories":[],"categories_nodes":[],"categories_segments":[],"categories_sizes":[],"default_left":[0,0,0,0,0,0,0,0,0,0,0,0,0,0,0,0,0,0,0,0,0,0,0,0,0,0,0,0,0],"id":10,"left_children":[1,3,5,7,9,11,13,15,17,19,21,-1,23,25,27,-1,-1,-1,-1,-1,-1,-1,-1,-1,-1,-1,-1,-1,-1],"loss_changes":[1.213122E1,1.3991983E1,5.8294983E0,7.883436E0,8.511582E0,4.657321E0,7.7461414E0,6.5688496E0,1.0620607E1,9.246059E0,4.659623E0,0E0,5.5699797E0,7.5651875E0,1.175918E1,0E0,0E0,0E0,0E0,0E0,0E0,0E0,0E0,0E0,0E0,0E0,0E0,0E0,0E0],"parents":[2147483647,0,0,1,1,2,2,3,3,4,4,5,5,6,6,7,7,8,8,9,9,10,10,12,12,13,13,14,14],"right_children":[2,4,6,8,10,12,14,16,18,20,22,-1,24,26,28,-1,-1,-1,-1,-1,-1,-1,-1,-1,-1,-1,-1,-1,-1],"split_conditions":[5.586949E-3,-5.9130967E-1,2.1160715E1,4.1667864E-2,2.62223E4,2.994754E-4,8.786816E-3,-2.643998E0,1.183928E-3,1.8775E1,1.7678572E1,-6.071443E-2,5.1912427E-4,-1.8738131E-1,-5E-1,-2.1494048E-2,1.2806951E-2,-3.2427482E-2,-7.4642436E-3,3.6894758E-3,-3.5163953E-3,-5.187257E-2,2.8769094E-2,1.11721745E-2,-2.0274466E-2,7.0408243E-3,2.3137463E-2,1.5699537E-2,-9.935869E-3],"split_indices":[17,21,0,18,5,10,17,6,17,0,0,0,10,21,21,0,0,0,0,0,0,0,0,0,0,0,0,0,0],"split_type":[0,0,0,0,0,0,0,0,0,0,0,0,0,0,0,0,0,0,0,0,0,0,0,0,0,0,0,0,0],"sum_hessian":[3.2320488E3,2.6704983E3,5.6155035E2,7.7769934E2,1.8927991E3,5.740956E1,5.0414078E2,9.0516914E1,6.8718243E2,1.8811538E3,1.1645284E1,2.9976144E0,5.441195E1,3.1788235E2,1.8625844E2,1.6185726E1,7.433119E1,4.4782734E1,6.4239966E2,1.1601594E3,7.2099426E2,1.0176723E1,1.468561E0,2.7158592E1,2.7253357E1,2.0397389E2,1.1390844E2,7.21822E1,1.1407624E2],"tree_param":{"num_deleted":"0","num_feature":"26","num_nodes":"29","size_leaf_vector":"1"}},{"base_weights":[-1.3946956E-3,-3.4803018E-2,9.4781384E-2,-2.7955242E-2,-7.177505E-1,3.0972246E-2,2.7572465E-1,-2.1285592E-1,-6.659642E-3,2.0182703E-1,-1.0053864E0,7.5184983E-1,8.025524E-3,4.053598E-1,-8.479081E-2,-1.8409701E-2,9.814738E-3,1.4018595E-2,-1.1891711E-3,4.650426E-2,-1.3158341E-2,-5.9341352E-2,5.239676E-3,6.331512E-3,6.629049E-2,3.726089E-2,-6.008331E-4,-1.4773935E-2,2.4506338E-2,-3.3219147E-2,4.840591E-3],"categories":[],"categories_nodes":[],"categories_segments":[],"categories_sizes":[],"default_left":[0,0,0,0,0,0,0,0,0,0,0,0,0,0,0,0,0,0,0,0,0,0,0,0,0,0,0,0,0,0,0],"id":11,"left_children":[1,3,5,7,9,11,13,15,17,19,21,23,25,27,29,-1,-1,-1,-1,-1,-1,-1,-1,-1,-1,-1,-1,-1,-1,-1,-1],"loss_changes":[1.033461E1,1.1143887E1,9.5656395E0,9.30897E0,6.4603806E0,1.015344E1,1.0132122E1,1.5590864E1,1.0433148E1,2.4355805E0,3.7879887E0,6.6273737E0,8.818287E0,9.596071E0,6.166092E0,0E0,0E0,0E0,0E0,0E0,0E0,0E0,0E0,0E0,0E0,0E0,0E0,0E0,0E0,0E0,0E0],"parents":[2147483647,0,0,1,1,2,2,3,3,4,4,5,5,6,6,7,7,8,8,9,9,10,10,11,11,12,12,13,13,14,14],"right_children":[2,4,6,8,10,12,14,16,18,20,22,24,26,28,30,-1,-1,-1,-1,-1,-1,-1,-1,-1,-1,-1,-1,-1,-1,-1,-1],"split_conditions":[2.405E1,2.61922E4,7.029866E-1,1.183928E-3,3.8326138E1,4.433108E-4,7.7261696E1,2.5191307E4,1.1382143E1,-1.9509032E-1,1E0,2.59E1,5.8778524E-1,-7.569951E-1,2.7078571E1,-1.8409701E-2,9.814738E-3,1.4018595E-2,-1.1891711E-3,4.650426E-2,-1.3158341E-2,-5.9341352E-2,5.239676E-3,6.331512E-3,6.629049E-2,3.726089E-2,-6.008331E-4,-1.4773935E-2,2.4506338E-2,-3.3219147E-2,4.840591E-3],"split_indices":[0,5,18,17,20,10,20,3,0,21,16,0,22,21,0,0,0,0,0,0,0,0,0,0,0,0,0,0,0,0,0],"split_type":[0,0,0,0,0,0,0,0,0,0,0,0,0,0,0,0,0,0,0,0,0,0,0,0,0,0,0,0,0,0,0],"sum_hessian":[3.2143901E3,2.3861577E3,8.282325E2,2.3635002E3,2.2657404E1,6.131707E2,2.1506178E2,2.4316927E2,2.120331E3,5.46953E0,1.7187874E1,1.7936163E1,5.9523456E2,1.580907E2,5.6971085E1,1.763256E2,6.684365E1,1.1850798E2,2.0018231E3,1.7416326E0,3.7278974E0,1.4714061E1,2.4738128E0,9.168962E0,8.767202E0,1.4796771E1,5.8043774E2,1.6789795E1,1.413009E2,1.2957681E1,4.4013405E1],"tree_param":{"num_deleted":"0","num_feature":"26","num_nodes":"31","size_leaf_vector":"1"}},{"base_weights":[-6.89082E-3,-2.8762873E-2,1.5086034E-1,6.0887326E-2,-8.541748E-2,2.8079462E-1,1.930252E-2,4.0185642E-1,2.9943991E-2,-1.3883607E-1,1.929348E-2,-8.8760056E-2,4.1235623E-1,-2.606177E-1,1.763983E-1,2.4228023E-2,-4.162315E-2,4.519626E-3,-4.81378E-3,1.7327145E-2,-7.963068E-3,7.164286E-3,-3.7737736E-3,3.7684627E-2,-9.774772E-3,2.548998E-2,3.494889E-3,-4.8726443E-3,-3.3812713E-2,2.5027262E-3,2.2129562E-2],"categories":[],"categories_nodes":[],"categories_segments":[],"categories_sizes":[],"default_left":[0,0,0,0,0,0,0,0,0,0,0,0,0,0,0,0,0,0,0,0,0,0,0,0,0,0,0,0,0,0,0],"id":12,"left_children":[1,3,5,7,9,11,13,15,17,19,21,23,25,27,29,-1,-1,-1,-1,-1,-1,-1,-1,-1,-1,-1,-1,-1,-1,-1,-1],"loss_changes":[1.1108148E1,1.43645735E1,6.695816E0,1.1544811E1,9.695063E0,9.622163E0,8.659199E0,9.69848E0,7.678979E0,1.1431999E1,6.8995085E0,4.875636E0,4.822159E0,4.7364836E0,4.217339E0,0E0,0E0,0E0,0E0,0E0,0E0,0E0,0E0,0E0,0E0,0E0,0E0,0E0,0E0,0E0,0E0],"parents":[2147483647,0,0,1,1,2,2,3,3,4,4,5,5,6,6,7,7,8,8,9,9,10,10,11,11,12,12,13,13,14,14],"right_children":[2,4,6,8,10,12,14,16,18,20,22,24,26,28,30,-1,-1,-1,-1,-1,-1,-1,-1,-1,-1,-1,-1,-1,-1,-1,-1],"split_conditions":[1.9449997E-4,-1.5633256E0,6.551402E0,2.6525726E-4,9.713421E-1,4.433108E-4,8.650503E-1,9.99762E-1,2.4705902E4,-1.5192266E0,-4.3619387E-2,5.7123383E1,1.6719888E0,9.628342E-3,9.0564403E-4,2.4228023E-2,-4.162315E-2,4.519626E-3,-4.81378E-3,1.7327145E-2,-7.963068E-3,7.164286E-3,-3.7737736E-3,3.7684627E-2,-9.774772E-3,2.548998E-2,3.494889E-3,-4.8726443E-3,-3.3812713E-2,2.5027262E-3,2.2129562E-2],"split_indices":[7,19,19,10,22,10,18,22,3,6,21,20,6,17,10,0,0,0,0,0,0,0,0,0,0,0,0,0,0,0,0],"split_type":[0,0,0,0,0,0,0,0,0,0,0,0,0,0,0,0,0,0,0,0,0,0,0,0,0,0,0,0,0,0,0],"sum_hessian":[3.2171765E3,2.826151E3,3.9102557E2,1.0943607E3,1.7317903E3,1.9615594E2,1.9486961E2,9.005415E1,1.0043066E3,1.1465491E3,5.852412E2,5.1583614E1,1.4457234E2,6.981363E1,1.25055984E2,8.4968376E1,5.0857744E0,6.79275E2,3.2503152E2,4.5654964E1,1.100894E3,2.5330898E2,3.319322E2,5.1189437E0,4.646467E1,1.1216748E2,3.2404858E1,5.1019547E1,1.879408E1,8.5610504E1,3.944548E1],"tree_param":{"num_deleted":"0","num_feature":"26","num_nodes":"31","size_leaf_vector":"1"}},{"base_weights":[1.4464679E-3,-9.841644E-2,3.851914E-2,-2.5994062E-1,3.685538E-3,-1.5842482E-1,6.1033364E-2,3.340474E-1,-3.0362388E-1,1.1679142E-1,-1.0566283E-1,4.003451E-1,-2.1919414E-1,1.9709413E-1,1.8173425E-2,-3.8845193E-2,2.7369013E-2,-6.4711752E-3,-2.5167046E-2,3.7814658E-2,2.7594604E-3,-1.26584545E-2,5.753129E-3,3.5923153E-2,2.0122086E-4,1.2876418E-3,-1.6106889E-2,1.362063E-2,-6.006509E-3,-1.9467501E-3,6.8020276E-3],"categories":[],"categories_nodes":[],"categories_segments":[],"categories_sizes":[],"default_left":[0,0,0,0,0,0,0,0,0,0,0,0,0,0,0,0,0,0,0,0,0,0,0,0,0,0,0,0,0,0,0],"id":13,"left_children":[1,3,5,7,9,11,13,15,17,19,21,23,25,27,29,-1,-1,-1,-1,-1,-1,-1,-1,-1,-1,-1,-1,-1,-1,-1,-1],"loss_changes":[1.2013847E1,1.4489853E1,1.0502833E1,8.930595E0,6.682019E0,8.341035E0,1.2385233E1,6.062675E0,1.0980457E1,1.0419777E1,8.973413E0,3.0475128E0,5.5522995E0,1.2189476E1,1.088724E1,0E0,0E0,0E0,0E0,0E0,0E0,0E0,0E0,0E0,0E0,0E0,0E0,0E0,0E0,0E0,0E0],"parents":[2147483647,0,0,1,1,2,2,3,3,4,4,5,5,6,6,7,7,8,8,9,9,10,10,11,11,12,12,13,13,14,14],"right_children":[2,4,6,8,10,12,14,16,18,20,22,24,26,28,30,-1,-1,-1,-1,-1,-1,-1,-1,-1,-1,-1,-1,-1,-1,-1,-1],"split_conditions":[-6.087614E-1,1.697857E1,-5.675328E0,2.2086756E4,5.889539E-4,1.5395509E1,-1.7759595E0,2.161707E4,-8.519284E-2,-2.3360971E-4,2.849654E1,2.4230986E4,3.5303805E-3,2.5113418E4,3.62612E-3,-3.8845193E-2,2.7369013E-2,-6.4711752E-3,-2.5167046E-2,3.7814658E-2,2.7594604E-3,-1.26584545E-2,5.753129E-3,3.5923153E-2,2.0122086E-4,1.2876418E-3,-1.6106889E-2,1.362063E-2,-6.006509E-3,-1.9467501E-3,6.8020276E-3],"split_indices":[21,0,19,4,10,20,19,3,19,7,0,3,17,2,17,0,0,0,0,0,0,0,0,0,0,0,0,0,0,0,0],"split_type":[0,0,0,0,0,0,0,0,0,0,0,0,0,0,0,0,0,0,0,0,0,0,0,0,0,0,0,0,0,0,0],"sum_hessian":[3.243046E3,8.775442E2,2.3655015E3,3.3927274E2,5.382715E2,2.420576E2,2.123444E3,2.2786314E1,3.1648642E2,2.6455627E2,2.7371524E2,2.3194822E1,2.1886278E2,5.078029E2,1.6156411E3,3.2451482E0,1.9541166E1,1.699222E2,1.4656421E2,2.2254274E1,2.4230199E2,1.6398225E2,1.0973297E2,1.2415965E1,1.0778858E1,6.498514E1,1.5387764E2,4.1048322E2,9.731966E1,1.0887802E3,5.2686096E2],"tree_param":{"num_deleted":"0","num_feature":"26","num_nodes":"31","size_leaf_vector":"1"}},{"base_weights":[-6.8971976E-3,-1.2409094E-2,4.4397402E-1,-9.6075214E-2,2.0571642E-2,-1.834287E-1,8.1155246E-1,-2.6276529E-2,-2.4589264E-1,2.4904791E-2,-7.9171497E-1,7.261579E-1,-6.111122E-1,-1.5392864E-2,9.236078E-1,-1.7404994E-2,7.7645225E-4,4.4724056E-3,-1.5756799E-2,-7.6304427E-3,2.2883315E-3,8.172506E-3,-5.7817906E-2,5.9942164E-2,-5.7065724E-3,5.7019807E-2,-4.780106E-2,2.2129174E-2,6.3412E-2],"categories":[],"categories_nodes":[],"categories_segments":[],"categories_sizes":[],"default_left":[0,0,0,0,0,0,0,0,0,0,0,0,0,0,0,0,0,0,0,0,0,0,0,0,0,0,0,0,0],"id":14,"left_children":[1,3,5,7,9,11,13,15,17,19,21,23,25,-1,27,-1,-1,-1,-1,-1,-1,-1,-1,-1,-1,-1,-1,-1,-1],"loss_changes":[8.022067E0,8.798272E0,9.139806E0,9.420497E0,8.070457E0,6.363933E0,3.3910923E0,8.294403E0,6.6782894E0,8.436093E0,4.42683E0,2.2515147E0,7.6715827E0,0E0,3.2124271E0,0E0,0E0,0E0,0E0,0E0,0E0,0E0,0E0,0E0,0E0,0E0,0E0,0E0,0E0],"parents":[2147483647,0,0,1,1,2,2,3,3,4,4,5,5,6,6,7,7,8,8,9,9,10,10,11,11,12,12,14,14],"right_children":[2,4,6,8,10,12,14,16,18,20,22,24,26,-1,28,-1,-1,-1,-1,-1,-1,-1,-1,-1,-1,-1,-1,-1,-1],"split_conditions":[2.4399896E0,-5.9130967E-1,4.9789384E-4,5.6109867E1,2.62223E4,-7.933533E-1,-8.1915206E-1,1.3135715E1,-2.6910657E-1,-5.675328E0,3.5448666E1,1.491437E1,2.181885E4,-1.5392864E-2,2.3747398E4,-1.7404994E-2,7.7645225E-4,4.4724056E-3,-1.5756799E-2,-7.6304427E-3,2.2883315E-3,8.172506E-3,-5.7817906E-2,5.9942164E-2,-5.7065724E-3,5.7019807E-2,-4.780106E-2,2.2129174E-2,6.3412E-2],"split_indices":[6,21,10,20,5,21,21,0,19,19,20,0,5,0,2,0,0,0,0,0,0,0,0,0,0,0,0,0,0],"split_type":[0,0,0,0,0,0,0,0,0,0,0,0,0,0,0,0,0,0,0,0,0,0,0,0,0,0,0,0,0],"sum_hessian":[3.2247773E3,3.1867913E3,3.7986015E1,9.0049255E2,2.2862986E3,1.4218349E1,2.3767664E1,6.1509863E2,2.8539392E2,2.2751313E3,1.1167363E1,4.324092E0,9.894258E0,2.003704E0,2.176396E1,6.987414E1,5.4522455E2,4.8794353E1,2.3659955E2,2.385964E2,2.0365349E3,3.2378154E0,7.929548E0,2.4942863E0,1.8298057E0,1.2483826E0,8.645875E0,1.0037802E1,1.1726158E1],"tree_param":{"num_deleted":"0","num_feature":"26","num_nodes":"29","size_leaf_vector":"1"}},{"base_weights":[1.0181126E-2,1.4889692E-2,-5.74982E-1,1.0110939E-2,6.030627E-1,2.973982E-1,-8.9222956E-1,-6.78273E-2,4.2043395E-2,7.5277025E-1,-2.8687302E-2,5.9508707E-2,-3.5673687E-1,3.4925297E-2,-1.0408874E0,-9.039858E-3,6.838093E-4,1.0201051E-3,9.484501E-3,5.0887717E-3,4.895431E-2,1.3694227E-2,-3.7506934E-2,-6.0516864E-2,2.5377749E-2],"categories":[],"categories_nodes":[],"categories_segments":[],"categories_sizes":[],"default_left":[0,0,0,0,0,0,0,0,0,0,0,0,0,0,0,0,0,0,0,0,0,0,0,0,0],"id":15,"left_children":[1,3,5,7,9,11,13,15,17,19,-1,-1,21,-1,23,-1,-1,-1,-1,-1,-1,-1,-1,-1,-1],"loss_changes":[8.9587345E0,9.0540695E0,7.44864E0,7.9630404E0,5.0056896E0,4.90477E0,5.2870884E0,8.565126E0,7.247732E0,3.3572998E0,0E0,0E0,1.4947476E0,0E0,5.346874E0,0E0,0E0,0E0,0E0,0E0,0E0,0E0,0E0,0E0,0E0],"parents":[2147483647,0,0,1,1,2,2,3,3,4,4,5,5,6,6,7,7,8,8,9,9,12,12,14,14],"right_children":[2,4,6,8,10,12,14,16,18,20,-1,-1,22,-1,24,-1,-1,-1,-1,-1,-1,-1,-1,-1,-1],"split_conditions":[2.61922E4,2.61278E4,4.032738E1,-5.9130967E-1,-4.3619387E-2,-1.9509032E-1,1.1589286E1,4.2083155E-4,1.9449997E-4,-6.4278764E-1,-2.8687302E-2,5.9508707E-2,1.491437E1,3.4925297E-2,2.3332087E1,-9.039858E-3,6.838093E-4,1.0201051E-3,9.484501E-3,5.0887717E-3,4.895431E-2,1.3694227E-2,-3.7506934E-2,-6.0516864E-2,2.5377749E-2],"split_indices":[5,5,20,21,21,21,0,10,7,21,0,0,0,0,0,0,0,0,0,0,0,0,0,0,0],"split_type":[0,0,0,0,0,0,0,0,0,0,0,0,0,0,0,0,0,0,0,0,0,0,0,0,0],"sum_hessian":[3.2473726E3,3.2224177E3,2.495491E1,3.1974563E3,2.4961313E1,6.671612E0,1.8283298E1,9.2897144E2,2.2684849E3,2.24639E1,2.497413E0,2.4746711E0,4.1969404E0,1.2464731E0,1.7036825E1,3.8881998E2,5.401515E2,1.9794807E3,2.890041E2,6.1688867E0,1.6295013E1,1.7290634E0,2.4678771E0,1.5553156E1,1.4836688E0],"tree_param":{"num_deleted":"0","num_feature":"26","num_nodes":"25","size_leaf_vector":"1"}},{"base_weights":[-1.7147231E-3,3.9658725E-1,-7.218016E-3,8.023102E-2,9.6217036E-1,-8.480745E-2,2.149524E-2,-1.12207234E-1,7.0758246E-2,1.1378586E0,3.572607E-1,-2.9187122E-1,-1.6320717E-2,-2.2598773E-1,4.60238E-2,1.7968152E-2,-3.4859493E-2,1.18952E-2,6.4871505E-2,-1.7822973E-2,4.941361E-2,1.4621946E-2,-1.88616E-2,1.508586E-2,-2.8019077E-3,-2.9806897E-2,-4.9005672E-3,8.437219E-3,3.3551833E-4],"categories":[],"categories_nodes":[],"categories_segments":[],"categories_sizes":[],"default_left":[0,0,0,0,0,0,0,0,0,0,0,0,0,0,0,0,0,0,0,0,0,0,0,0,0,0,0,0,0],"id":16,"left_children":[1,3,5,7,9,11,13,15,-1,17,19,21,23,25,27,-1,-1,-1,-1,-1,-1,-1,-1,-1,-1,-1,-1,-1,-1],"loss_changes":[7.0845213E0,7.8041363E0,7.103472E0,7.6956954E0,1.2630024E0,1.2208312E1,1.41389885E1,7.57983E0,0E0,1.3738279E0,2.6011117E0,1.0783672E1,8.205093E0,9.891592E0,1.02192745E1,0E0,0E0,0E0,0E0,0E0,0E0,0E0,0E0,0E0,0E0,0E0,0E0,0E0,0E0],"parents":[2147483647,0,0,1,1,2,2,3,3,4,4,5,5,6,6,7,7,9,9,10,10,11,11,12,12,13,13,14,14],"right_children":[2,4,6,8,10,12,14,16,-1,18,20,22,24,26,28,-1,-1,-1,-1,-1,-1,-1,-1,-1,-1,-1,-1,-1,-1],"split_conditions":[1.5395509E1,2.8529666E-2,-6.087614E-1,1.0715217E-3,1E0,3.3930986E-4,-5.8155217E0,-1.3052619E-1,7.0758246E-2,1.8467886E1,6.903342E-2,3.5187637E1,5.8778524E-1,-4.0274668E-1,-1.7759595E0,1.7968152E-2,-3.4859493E-2,1.18952E-2,6.4871505E-2,-1.7822973E-2,4.941361E-2,1.4621946E-2,-1.88616E-2,1.508586E-2,-2.8019077E-3,-2.9806897E-2,-4.9005672E-3,8.437219E-3,3.3551833E-4],"split_indices":[20,18,21,10,15,10,19,21,0,0,18,20,22,21,19,0,0,0,0,0,0,0,0,0,0,0,0,0,0],"split_type":[0,0,0,0,0,0,0,0,0,0,0,0,0,0,0,0,0,0,0,0,0,0,0,0,0,0,0,0,0],"sum_hessian":[3.2297244E3,4.304806E1,3.1866763E3,2.8338764E1,1.4709299E1,8.602206E2,2.3264558E3,2.556882E1,2.769944E0,1.071595E1,3.993349E0,2.1299292E2,6.4722766E2,2.0904683E2,2.117409E3,1.4370256E1,1.1198564E1,1.9890358E0,8.726914E0,2.0780363E0,1.9153128E0,2.684028E1,1.8615265E2,7.112185E1,5.761058E2,5.27675E1,1.5627933E2,5.1293665E2,1.6044723E3],"tree_param":{"num_deleted":"0","num_feature":"26","num_nodes":"29","size_leaf_vector":"1"}},{"base_weights":[-4.5238505E-4,4.6869552E-1,-6.9689825E-3,7.6928526E-1,1.3651244E-1,8.1300855E-1,-9.984588E-3,4.6285412E-1,7.6106705E-2,-5.8153857E-2,3.4790307E-1,1.1186458E0,-2.1817526E-2,-2.5890382E-2,1.4943649E-1,3.761279E-2,-4.0798434E-3,-3.1692866E-2,3.4228247E-2,6.792327E-2,2.3093611E-2,-3.111721E-3,2.0242846E-3,1.3681988E-2,-2.8184985E-3],"categories":[],"categories_nodes":[],"categories_segments":[],"categories_sizes":[],"default_left":[0,0,0,0,0,0,0,0,0,0,0,0,0,0,0,0,0,0,0,0,0,0,0,0,0],"id":17,"left_children":[1,3,5,7,9,11,13,15,-1,-1,17,19,-1,21,23,-1,-1,-1,-1,-1,-1,-1,-1,-1,-1],"loss_changes":[9.843669E0,4.2994995E0,7.86052E0,4.587866E0,6.495212E0,4.935977E0,8.029303E0,2.8568177E0,0E0,0E0,6.990839E0,8.9082146E-1,0E0,6.9469714E0,7.3586965E0,0E0,0E0,0E0,0E0,0E0,0E0,0E0,0E0,0E0,0E0],"parents":[2147483647,0,0,1,1,2,2,3,3,4,4,5,5,6,6,7,7,10,10,11,11,13,13,14,14],"right_children":[2,4,6,8,10,12,14,16,-1,-1,18,20,-1,22,24,-1,-1,-1,-1,-1,-1,-1,-1,-1,-1],"split_conditions":[1.5395509E1,5.6159036E-4,2.1283338E4,6.288737E-3,2.1725E1,1.6040224E-1,2.3940092E-4,2.4385275E4,7.6106705E-2,-5.8153857E-2,6.4240483E-4,-6.803967E-5,-2.1817526E-2,9.713421E-1,8.970535E0,3.761279E-2,-4.0798434E-3,-3.1692866E-2,3.4228247E-2,6.792327E-2,2.3093611E-2,-3.111721E-3,2.0242846E-3,1.3681988E-2,-2.8184985E-3],"split_indices":[20,10,4,17,0,24,7,4,0,0,10,7,0,22,19,0,0,0,0,0,0,0,0,0,0],"split_type":[0,0,0,0,0,0,0,0,0,0,0,0,0,0,0,0,0,0,0,0,0,0,0,0,0],"sum_hessian":[3.217713E3,4.3110973E1,3.1746018E3,2.1940945E1,2.117003E1,1.0648151E1,3.1639536E3,1.6741482E1,5.199462E0,2.331903E0,1.8838127E1,8.639298E0,2.008853E0,2.877679E3,2.8627478E2,1.0681878E1,6.0596037E0,4.5849376E0,1.425319E1,5.5458503E0,3.0934482E0,1.8595498E3,1.018129E3,1.7832616E2,1.0794863E2],"tree_param":{"num_deleted":"0","num_feature":"26","num_nodes":"25","size_leaf_vector":"1"}},{"base_weights":[-3.3287967E-3,-1.5628305E-1,1.617824E-2,-2.013563E-1,4.626764E-1,2.1098005E-2,-5.363896E-1,-2.9505548E-1,9.309159E-2,5.1041912E-2,1.1802351E0,9.4373196E-1,1.8342767E-2,6.3931406E-1,-8.021711E-1,-7.665423E-3,-2.9514043E-2,-1.3663943E-2,1.888984E-2,2.0954017E-2,-3.947269E-2,6.6446975E-2,2.0587514E-3,5.517558E-2,-3.6158324E-3,-2.0531224E-2,1.2051873E-3,-1.547589E-3,5.3031053E-2,-5.214267E-2,1.6474474E-2],"categories":[],"categories_nodes":[],"categories_segments":[],"categories_sizes":[],"default_left":[0,0,0,0,0,0,0,0,0,0,0,0,0,0,0,0,0,0,0,0,0,0,0,0,0,0,0,0,0,0,0],"id":18,"left_children":[1,3,5,7,9,11,13,15,17,19,21,23,25,27,29,-1,-1,-1,-1,-1,-1,-1,-1,-1,-1,-1,-1,-1,-1,-1,-1],"loss_changes":[9.654019E0,1.030335E1,7.812825E0,9.458422E0,7.366879E0,7.215958E0,8.438379E0,1.0771072E1,8.78983E0,5.5969167E0,1.490242E0,1.4519448E0,7.02328E0,1.5105598E0,6.098894E0,0E0,0E0,0E0,0E0,0E0,0E0,0E0,0E0,0E0,0E0,0E0,0E0,0E0,0E0,0E0,0E0],"parents":[2147483647,0,0,1,1,2,2,3,3,4,4,5,5,6,6,7,7,8,8,9,9,10,10,11,11,12,12,13,13,14,14],"right_children":[2,4,6,8,10,12,14,16,18,20,22,24,26,28,30,-1,-1,-1,-1,-1,-1,-1,-1,-1,-1,-1,-1,-1,-1,-1,-1],"split_conditions":[1.183928E-3,4.055357E1,2.61922E4,2.51408E4,2.4216713E4,2.1283338E4,3.5448666E1,2.4634562E4,-9.196398E-6,2.373855E4,6.742786E1,3.4842857E1,-2.643998E0,2.7318548E1,1.7557536E0,-7.665423E-3,-2.9514043E-2,-1.3663943E-2,1.888984E-2,2.0954017E-2,-3.947269E-2,6.6446975E-2,2.0587514E-3,5.517558E-2,-3.6158324E-3,-2.0531224E-2,1.2051873E-3,-1.547589E-3,5.3031053E-2,-5.214267E-2,1.6474474E-2],"split_indices":[17,0,5,5,3,4,20,4,7,5,20,0,6,20,6,0,0,0,0,0,0,0,0,0,0,0,0,0,0,0,0],"split_type":[0,0,0,0,0,0,0,0,0,0,0,0,0,0,0,0,0,0,0,0,0,0,0,0,0,0,0,0,0,0,0],"sum_hessian":[3.233756E3,3.6497595E2,2.8687803E3,3.40831E2,2.4144978E1,2.8444167E3,2.436333E1,2.585524E2,8.227857E1,1.6023865E1,8.121112E0,7.4520764E0,2.8369648E3,4.2329893E0,2.0130342E1,1.757085E2,8.284391E1,3.5996685E1,4.6281887E1,1.149277E1,4.5310946E0,7.0358796E0,1.0852323E0,6.365053E0,1.0870231E0,3.6663902E1,2.8003008E3,1.9913862E0,2.241603E0,1.6664583E1,3.4657578E0],"tree_param":{"num_deleted":"0","num_feature":"26","num_nodes":"31","size_leaf_vector":"1"}},{"base_weights":[8.964918E-3,3.4633372E-3,3.634526E-1,6.330189E-3,-6.775244E-1,-1.5618291E-1,6.690516E-1,1.6688138E-2,-1.766419E-1,-1.1175208E0,3.1795904E-2,6.4133394E-1,-4.7915444E-1,-4.1523302E-1,7.679474E-1,-1.2816567E-3,4.329327E-3,-2.1970434E-2,2.326556E-3,-7.347148E-2,-2.1053301E-2,4.012678E-2,-3.8428854E-2,6.908361E-2,-4.455566E-3,8.048999E-3,-4.909024E-2,-4.6759572E-2,1.6320309E-2,5.4838788E-2,2.2347217E-2],"categories":[],"categories_nodes":[],"categories_segments":[],"categories_sizes":[],"default_left":[0,0,0,0,0,0,0,0,0,0,0,0,0,0,0,0,0,0,0,0,0,0,0,0,0,0,0,0,0,0,0],"id":19,"left_children":[1,3,5,7,9,11,13,15,17,19,21,23,25,27,29,-1,-1,-1,-1,-1,-1,-1,-1,-1,-1,-1,-1,-1,-1,-1,-1],"loss_changes":[6.2752748E0,6.193363E0,7.9134855E0,5.987774E0,4.1861854E0,5.2066646E0,3.659543E0,8.845984E0,9.947058E0,1.3996954E0,4.357382E0,3.3192782E0,4.6983957E0,1.559695E0,2.5604286E0,0E0,0E0,0E0,0E0,0E0,0E0,0E0,0E0,0E0,0E0,0E0,0E0,0E0,0E0,0E0,0E0],"parents":[2147483647,0,0,1,1,2,2,3,3,4,4,5,5,6,6,7,7,8,8,9,9,10,10,11,11,12,12,13,13,14,14],"right_children":[2,4,6,8,10,12,14,16,18,20,22,24,26,28,30,-1,-1,-1,-1,-1,-1,-1,-1,-1,-1,-1,-1,-1,-1,-1,-1],"split_conditions":[2.30817E0,2.1749673E0,4.7758533E-4,2.1643962E-1,2.4366918E4,2.24565E4,-8.1915206E-1,-2.6891983E-1,2.5325E1,2.56E1,2.5058973E4,1.3964286E1,6.534206E-1,7.5729645E-4,3.8533486E-4,-1.2816567E-3,4.329327E-3,-2.1970434E-2,2.326556E-3,-7.347148E-2,-2.1053301E-2,4.012678E-2,-3.8428854E-2,6.908361E-2,-4.455566E-3,8.048999E-3,-4.909024E-2,-4.6759572E-2,1.6320309E-2,5.4838788E-2,2.2347217E-2],"split_indices":[6,6,10,21,2,5,21,21,0,0,4,0,22,10,7,0,0,0,0,0,0,0,0,0,0,0,0,0,0,0,0],"split_type":[0,0,0,0,0,0,0,0,0,0,0,0,0,0,0,0,0,0,0,0,0,0,0,0,0,0,0,0,0,0,0],"sum_hessian":[3.2173347E3,3.16916E3,4.817498E1,3.1568606E3,1.2299184E1,1.8021109E1,3.0153873E1,2.9885872E3,1.6827348E2,7.235482E0,5.0637016E0,4.910308E0,1.3110802E1,2.253041E0,2.7900831E1,1.8618993E3,1.1266879E3,7.68364E1,9.143708E1,4.069401E0,3.1660814E0,2.5782287E0,2.4854732E0,1.9958643E0,2.9144437E0,6.065726E0,7.045076E0,1.1710479E0,1.0819931E0,1.2588616E1,1.5312215E1],"tree_param":{"num_deleted":"0","num_feature":"26","num_nodes":"31","size_leaf_vector":"1"}},{"base_weights":[-5.014421E-3,-2.3057763E-2,1.2580335E-1,2.8115809E-2,-6.9958255E-2,-3.315952E-2,2.6577845E-1,2.7158925E-1,-3.7813664E-3,-3.436957E-2,-2.0011204E-1,4.6515264E-2,-4.4678274E-1,4.9746823E-1,1.1120464E-1,1.7692242E-2,-1.0843354E-2,-5.288884E-2,6.790161E-5,-8.588634E-3,1.0513715E-3,1.5538901E-2,-1.167131E-2,4.2282414E-2,-9.646035E-4,-3.0196924E-2,2.6723662E-2,-4.2267935E-3,3.0924385E-2,-8.728696E-3,1.4525959E-2],"categories":[],"categories_nodes":[],"categories_segments":[],"categories_sizes":[],"default_left":[0,0,0,0,0,0,0,0,0,0,0,0,0,0,0,0,0,0,0,0,0,0,0,0,0,0,0,0,0,0,0],"id":20,"left_children":[1,3,5,7,9,11,13,15,17,19,21,23,25,27,29,-1,-1,-1,-1,-1,-1,-1,-1,-1,-1,-1,-1,-1,-1,-1,-1],"loss_changes":[7.6250806E0,6.814889E0,8.721448E0,1.0548914E1,6.8551846E0,6.092331E0,7.405588E0,6.3983154E0,6.5117702E0,8.8678665E0,5.483041E0,8.187807E0,4.926114E0,5.9039593E0,6.520212E0,0E0,0E0,0E0,0E0,0E0,0E0,0E0,0E0,0E0,0E0,0E0,0E0,0E0,0E0,0E0,0E0],"parents":[2147483647,0,0,1,1,2,2,3,3,4,4,5,5,6,6,7,7,8,8,9,9,10,10,11,11,12,12,13,13,14,14],"right_children":[2,4,6,8,10,12,14,16,18,20,22,24,26,28,30,-1,-1,-1,-1,-1,-1,-1,-1,-1,-1,-1,-1,-1,-1,-1,-1],"split_conditions":[1.9449997E-4,-7.5123084E-1,6.37311E-4,2.6525726E-4,1.9761713E-1,5.8315246E-4,6.753625E0,9.945219E-1,2.67415E-4,4.6191303E1,2.1878422E4,5.679596E1,2.9846428E1,5.404614E1,8.6163396E-1,1.7692242E-2,-1.0843354E-2,-5.288884E-2,6.790161E-5,-8.588634E-3,1.0513715E-3,1.5538901E-2,-1.167131E-2,4.2282414E-2,-9.646035E-4,-3.0196924E-2,2.6723662E-2,-4.2267935E-3,3.0924385E-2,-8.728696E-3,1.4525959E-2],"split_indices":[7,19,10,10,6,10,19,22,10,20,3,20,0,20,18,0,0,0,0,0,0,0,0,0,0,0,0,0,0,0,0],"split_type":[0,0,0,0,0,0,0,0,0,0,0,0,0,0,0,0,0,0,0,0,0,0,0,0,0,0,0,0,0,0,0],"sum_hessian":[3.228204E3,2.83764E3,3.9056427E2,1.3571936E3,1.4804463E3,1.8323564E2,2.0732864E2,1.5633821E2,1.2008553E3,1.1635533E3,3.1689288E2,1.5438461E2,2.8851023E1,8.208043E1,1.25248215E2,1.3404135E2,2.2296852E1,4.833225E0,1.1960221E3,3.3371863E2,8.298347E2,1.8889153E1,2.9800372E2,1.0844445E1,1.4354016E2,2.5199633E1,3.6513906E0,1.418134E1,6.7899086E1,4.8299076E1,7.6949135E1],"tree_param":{"num_deleted":"0","num_feature":"26","num_nodes":"31","size_leaf_vector":"1"}},{"base_weights":[2.797801E-3,4.7158334E-1,-3.5845467E-3,7.21424E-1,1.345545E-1,-2.7600875E-2,8.329933E-2,7.045662E-2,1.0820726E0,7.186222E-1,-3.3179367E-1,3.619771E-1,-3.599019E-2,7.6242167E-1,6.7297414E-2,-3.7521414E-2,3.272907E-2,5.9289552E-2,-5.8677993E-3,1.3398932E-2,5.83977E-2,-4.9395926E-2,2.1565955E-2,1.1445756E-2,4.4129666E-2,-1.0628547E-2,-7.944655E-4,-4.251109E-2,6.229333E-2,-7.2167406E-4,8.210682E-3],"categories":[],"categories_nodes":[],"categories_segments":[],"categories_sizes":[],"default_left":[0,0,0,0,0,0,0,0,0,0,0,0,0,0,0,0,0,0,0,0,0,0,0,0,0,0,0,0,0,0,0],"id":21,"left_children":[1,3,5,7,9,11,13,15,17,19,21,23,25,27,29,-1,-1,-1,-1,-1,-1,-1,-1,-1,-1,-1,-1,-1,-1,-1,-1],"loss_changes":[9.680437E0,3.562275E0,6.663805E0,5.729189E0,5.6125402E0,8.189852E0,7.464525E0,5.2312574E0,2.110033E0,1.5246806E0,6.2616534E0,3.4577718E0,8.6928425E0,1.339608E1,5.363174E0,0E0,0E0,0E0,0E0,0E0,0E0,0E0,0E0,0E0,0E0,0E0,0E0,0E0,0E0,0E0,0E0],"parents":[2147483647,0,0,1,1,2,2,3,3,4,4,5,5,6,6,7,7,8,8,9,9,10,10,11,11,12,12,13,13,14,14],"right_children":[2,4,6,8,10,12,14,16,18,20,22,24,26,28,30,-1,-1,-1,-1,-1,-1,-1,-1,-1,-1,-1,-1,-1,-1,-1,-1],"split_conditions":[1.5395509E1,-1.3052619E-1,2.5485714E1,-2.4859648E0,-1.01007595E1,2.1641076E4,4.5510445E-4,2.1725E1,1.2125725E-2,1.0347291E-3,-4.7863894E0,6.37311E-4,1.183928E-3,2.352555E4,5.042373E1,-3.7521414E-2,3.272907E-2,5.9289552E-2,-5.8677993E-3,1.3398932E-2,5.83977E-2,-4.9395926E-2,2.1565955E-2,1.1445756E-2,4.4129666E-2,-1.0628547E-2,-7.944655E-4,-4.251109E-2,6.229333E-2,-7.2167406E-4,8.210682E-3],"split_indices":[20,21,0,6,19,2,10,0,17,10,19,10,17,5,20,0,0,0,0,0,0,0,0,0,0,0,0,0,0,0,0],"split_type":[0,0,0,0,0,0,0,0,0,0,0,0,0,0,0,0,0,0,0,0,0,0,0,0,0,0,0,0,0,0,0],"sum_hessian":[3.2339268E3,4.245835E1,3.1914685E3,2.3728092E1,1.8730257E1,2.5008647E3,6.906035E2,8.885397E0,1.4842695E1,8.075418E0,1.06548395E1,5.1830772E1,2.4490342E3,1.4824056E1,6.757795E2,3.5756888E0,5.309708E0,1.3671821E1,1.1708747E0,4.828857E0,3.2465613E0,5.570624E0,5.084216E0,4.24268E1,9.403975E0,2.4931293E2,2.1997212E3,3.2440605E0,1.1579995E1,3.670727E2,3.087068E2],"tree_param":{"num_deleted":"0","num_feature":"26","num_nodes":"31","size_leaf_vector":"1"}},{"base_weights":[5.644591E-3,2.5965068E-3,6.8873864E-1,6.30757E-1,-5.2656E-4,8.3102685E-1,-2.7336428E-2,-5.1524203E-2,1.0021526E0,-6.719944E-2,2.6620729E-2,9.604151E-1,-3.8852475E-3,1.41727505E-2,-4.4949368E-2,5.680973E-2,-3.5837789E-3,1.1472306E-2,-5.0624902E-3,5.8328634E-4,1.123303E-2,8.497329E-3,6.0586065E-2],"categories":[],"categories_nodes":[],"categories_segments":[],"categories_sizes":[],"default_left":[0,0,0,0,0,0,0,0,0,0,0,0,0,0,0,0,0,0,0,0,0,0,0],"id":22,"left_children":[1,3,5,7,9,11,-1,13,15,17,19,21,-1,-1,-1,-1,-1,-1,-1,-1,-1,-1,-1],"loss_changes":[6.7080274E0,6.296224E0,2.9702926E0,4.07496E0,5.78359E0,1.6302929E0,0E0,2.113564E0,1.5683241E0,9.3624525E0,6.7227545E0,2.1096478E0,0E0,0E0,0E0,0E0,0E0,0E0,0E0,0E0,0E0,0E0,0E0],"parents":[2147483647,0,0,1,1,2,2,3,3,4,4,5,5,7,7,8,8,9,9,10,10,11,11],"right_children":[2,4,6,8,10,12,-1,14,16,18,20,22,-1,-1,-1,-1,-1,-1,-1,-1,-1,-1,-1],"split_conditions":[1.259315E0,2.1283338E4,8.502252E1,5.533916E-1,-5.9130967E-1,2.5430598E4,-2.7336428E-2,2.795139E-1,3.4842857E1,-8.09017E-1,1.9750634E-2,2.2915209E4,-3.8852475E-3,1.41727505E-2,-4.4949368E-2,5.680973E-2,-3.5837789E-3,1.1472306E-2,-5.0624902E-3,5.8328634E-4,1.123303E-2,8.497329E-3,6.0586065E-2],"split_indices":[18,4,20,22,21,4,0,6,0,21,25,2,0,0,0,0,0,0,0,0,0,0,0],"split_type":[0,0,0,0,0,0,0,0,0,0,0,0,0,0,0,0,0,0,0,0,0,0,0],"sum_hessian":[3.221576E3,3.208264E3,1.331203E1,1.4877607E1,3.1933862E3,1.2230775E1,1.0812545E0,5.5475726E0,9.330034E0,9.235938E2,2.2697925E3,1.0656581E1,1.5741938E0,4.4529624E0,1.0946101E0,8.2430105E0,1.0870242E0,9.4507706E1,8.2908606E2,2.1114082E3,1.5838431E2,2.9750361E0,7.6815453E0],"tree_param":{"num_deleted":"0","num_feature":"26","num_nodes":"23","size_leaf_vector":"1"}},{"base_weights":[8.150596E-3,1.20086605E-2,-4.6018293E-1,6.683264E-3,6.6184604E-1,4.129789E-1,-6.69192E-1,-2.6166545E-2,5.8836456E-2,-3.0089512E-2,9.918947E-1,-1.5312207E-1,4.9129225E-2,-8.3603656E-1,2.211053E-1,-2.4284655E-3,7.821194E-3,3.9202347E-3,-1.3844358E-2,-2.6431054E-2,4.9671434E-2,6.0564525E-2,-1.6071623E-2,2.9904593E-2,-3.8394373E-2,1.6112056E-2,-4.9320307E-2,5.624903E-2,-2.6771931E-2],"categories":[],"categories_nodes":[],"categories_segments":[],"categories_sizes":[],"default_left":[0,0,0,0,0,0,0,0,0,0,0,0,0,0,0,0,0,0,0,0,0,0,0,0,0,0,0,0,0],"id":23,"left_children":[1,3,5,7,9,11,13,15,17,19,21,23,-1,25,27,-1,-1,-1,-1,-1,-1,-1,-1,-1,-1,-1,-1,-1,-1],"loss_changes":[5.840495E0,1.108323E1,5.096321E0,5.447697E0,5.974946E0,1.9946842E0,3.4069433E0,7.9885883E0,8.094385E0,5.310185E0,5.476364E0,2.1835537E0,0E0,3.5360336E0,3.4842136E0,0E0,0E0,0E0,0E0,0E0,0E0,0E0,0E0,0E0,0E0,0E0,0E0,0E0,0E0],"parents":[2147483647,0,0,1,1,2,2,3,3,4,4,5,5,6,6,7,7,8,8,9,9,10,10,11,11,13,13,14,14],"right_children":[2,4,6,8,10,12,14,16,18,20,22,24,-1,26,28,-1,-1,-1,-1,-1,-1,-1,-1,-1,-1,-1,-1,-1,-1],"split_conditions":[2.61922E4,2.6131533E4,3.5448666E1,9.659258E-1,7.6604444E-1,2.9613916E1,1.7557536E0,6.558653E-3,9.628342E-3,2.356403E-3,1E0,-1.8738131E-1,4.9129225E-2,-1.0085906E0,7.7261696E1,-2.4284655E-3,7.821194E-3,3.9202347E-3,-1.3844358E-2,-2.6431054E-2,4.9671434E-2,6.0564525E-2,-1.6071623E-2,2.9904593E-2,-3.8394373E-2,1.6112056E-2,-4.9320307E-2,5.624903E-2,-2.6771931E-2],"split_indices":[5,4,20,22,22,20,6,17,17,17,15,21,0,6,20,0,0,0,0,0,0,0,0,0,0,0,0,0,0],"split_type":[0,0,0,0,0,0,0,0,0,0,0,0,0,0,0,0,0,0,0,0,0,0,0,0,0,0,0,0,0],"sum_hessian":[3.2283406E3,3.2029297E3,2.5410915E1,3.1778972E3,2.503248E1,4.7193494E0,2.0691566E1,1.9500896E3,1.2278076E3,8.377718E0,1.6654762E1,2.7336738E0,1.9856755E0,1.7477226E1,3.21434E0,1.7376271E3,2.1246257E2,1.1609084E3,6.689913E1,5.958835E0,2.4188826E0,1.4337352E1,2.317411E0,1.2425091E0,1.4911647E0,1.8768778E0,1.5600348E1,1.2426696E0,1.9716703E0],"tree_param":{"num_deleted":"0","num_feature":"26","num_nodes":"29","size_leaf_vector":"1"}},{"base_weights":[1.5305581E-2,-1.2031191E-2,9.195855E-2,5.9949283E-2,-6.760396E-2,5.1673986E-2,3.3028683E-1,8.25852E-2,-3.1799406E-1,-7.3489554E-2,9.049743E-1,3.2596233E-1,1.9201407E-2,5.0921047E-1,-9.775417E-2,-6.9192806E-3,5.443236E-3,4.4405714E-2,-1.8907322E-2,-3.3286058E-3,-3.6359657E-2,-1.6517706E-2,5.7035007E-2,4.362997E-2,8.50537E-3,7.0834905E-3,-2.2804714E-3,3.3271838E-2,1.1806655E-3,-4.6399634E-2,4.209393E-3],"categories":[],"categories_nodes":[],"categories_segments":[],"categories_sizes":[],"default_left":[0,0,0,0,0,0,0,0,0,0,0,0,0,0,0,0,0,0,0,0,0,0,0,0,0,0,0,0,0,0,0],"id":24,"left_children":[1,3,5,7,9,11,13,15,17,19,21,23,25,27,29,-1,-1,-1,-1,-1,-1,-1,-1,-1,-1,-1,-1,-1,-1,-1,-1],"loss_changes":[6.7458324E0,9.498401E0,8.1078415E0,8.877543E0,7.736212E0,6.45197E0,9.40676E0,5.6882257E0,4.592397E0,5.978173E0,2.7456288E0,6.3854456E0,5.1608763E0,6.532854E0,5.645156E0,0E0,0E0,0E0,0E0,0E0,0E0,0E0,0E0,0E0,0E0,0E0,0E0,0E0,0E0,0E0,0E0],"parents":[2147483647,0,0,1,1,2,2,3,3,4,4,5,5,6,6,7,7,8,8,9,9,10,10,11,11,12,12,13,13,14,14],"right_children":[2,4,6,8,10,12,14,16,18,20,22,24,26,28,30,-1,-1,-1,-1,-1,-1,-1,-1,-1,-1,-1,-1,-1,-1,-1,-1],"split_conditions":[2.3921345E1,-5.6879246E-1,8.6163396E-1,6.9031713E-4,1.259315E0,-1.5192266E0,7.82461E1,-1.608293E0,2.15919E4,2.61922E4,1.2673621E-4,6.199329E-4,2.7432087E1,2.4428268E4,7.1119103E-3,-6.9192806E-3,5.443236E-3,4.4405714E-2,-1.8907322E-2,-3.3286058E-3,-3.6359657E-2,-1.6517706E-2,5.7035007E-2,4.362997E-2,8.50537E-3,7.0834905E-3,-2.2804714E-3,3.3271838E-2,1.1806655E-3,-4.6399634E-2,4.209393E-3],"split_indices":[0,19,18,10,18,6,20,6,5,5,7,10,0,2,17,0,0,0,0,0,0,0,0,0,0,0,0,0,0,0,0],"split_type":[0,0,0,0,0,0,0,0,0,0,0,0,0,0,0,0,0,0,0,0,0,0,0,0,0,0,0,0,0,0,0],"sum_hessian":[3.2177559E3,2.3724954E3,8.452606E2,1.0336213E3,1.3388739E3,7.2408545E2,1.21175156E2,9.7595087E2,5.7670506E1,1.3317394E3,7.1346316E0,7.5692276E1,6.483932E2,8.53209E1,3.585426E1,1.0327758E2,8.726733E2,2.0857115E0,5.5584793E1,1.3188849E3,1.2854486E1,1.0789461E0,6.0556855E0,1.5772809E1,5.991947E1,2.2397594E2,4.2441727E2,6.427273E1,2.1048168E1,5.7078214E0,3.0146437E1],"tree_param":{"num_deleted":"0","num_feature":"26","num_nodes":"31","size_leaf_vector":"1"}},{"base_weights":[1.406416E-2,4.3425965E-1,8.342737E-3,1.6950628E-1,8.771634E-1,8.5835063E-1,5.526404E-3,5.4987687E-1,-2.1659233E-1,1.0950831E0,2.6740253E-1,1.0865712E0,-2.6175825E-2,9.42168E-3,-4.9407327E-1,-6.431909E-3,4.8963048E-2,1.1551839E-2,-4.172403E-2,1.8092293E-2,6.990737E-2,3.450251E-2,-1.9362314E-2,1.8272705E-2,6.1716195E-2,2.5336596E-4,2.688079E-2,1.6036982E-2,-4.070304E-2],"categories":[],"categories_nodes":[],"categories_segments":[],"categories_sizes":[],"default_left":[0,0,0,0,0,0,0,0,0,0,0,0,0,0,0,0,0,0,0,0,0,0,0,0,0,0,0,0,0],"id":25,"left_children":[1,3,5,7,9,11,13,15,17,19,21,23,-1,25,27,-1,-1,-1,-1,-1,-1,-1,-1,-1,-1,-1,-1,-1,-1],"loss_changes":[7.7650657E0,4.9390717E0,7.6294756E0,4.2892475E0,1.8323421E0,3.8880572E0,6.1922092E0,4.375603E0,4.288728E0,2.0405598E0,1.7983822E0,5.459919E-1,0E0,7.2556376E0,6.6794453E0,0E0,0E0,0E0,0E0,0E0,0E0,0E0,0E0,0E0,0E0,0E0,0E0,0E0,0E0],"parents":[2147483647,0,0,1,1,2,2,3,3,4,4,5,5,6,6,7,7,8,8,9,9,10,10,11,11,13,13,14,14],"right_children":[2,4,6,8,10,12,14,16,18,20,22,24,-1,26,28,-1,-1,-1,-1,-1,-1,-1,-1,-1,-1,-1,-1,-1,-1],"split_conditions":[1.5395509E1,2.8529666E-2,2.1283338E4,2.3531658E4,3.0675083E1,4.5454547E-2,2.61922E4,6.2592345E-1,8.7155744E-2,1.9439285E1,1.0543629E-1,-7.372773E-1,-2.6175825E-2,2.6131533E4,1.7572775E-1,-6.431909E-3,4.8963048E-2,1.1551839E-2,-4.172403E-2,1.8092293E-2,6.990737E-2,3.450251E-2,-1.9362314E-2,1.8272705E-2,6.1716195E-2,2.5336596E-4,2.688079E-2,1.6036982E-2,-4.070304E-2],"split_indices":[20,18,4,2,0,8,5,22,21,0,18,21,0,4,18,0,0,0,0,0,0,0,0,0,0,0,0,0,0],"split_type":[0,0,0,0,0,0,0,0,0,0,0,0,0,0,0,0,0,0,0,0,0,0,0,0,0,0,0,0,0],"sum_hessian":[3.2304114E3,4.238858E1,3.188023E3,2.7395288E1,1.499329E1,9.524823E0,3.178498E3,1.3586331E1,1.3808957E1,1.0459349E1,4.5339413E0,8.358138E0,1.1666852E0,3.154881E3,2.3616823E1,5.5370564E0,8.049275E0,8.3708105E0,5.4381466E0,3.7004337E0,6.7589154E0,2.7223127E0,1.8116286E0,2.011974E0,6.346164E0,3.130087E3,2.4794422E1,6.658736E0,1.6958086E1],"tree_param":{"num_deleted":"0","num_feature":"26","num_nodes":"29","size_leaf_vector":"1"}},{"base_weights":[-1.5230057E-3,-2.6149603E-2,7.802023E-2,-2.6040828E-1,-9.075857E-3,3.214933E-2,3.5155472E-1,-4.224796E-1,1.7689045E-1,3.5714474E-2,-9.8698E-2,7.9399353E-1,1.41966995E-2,6.6139984E-1,1.458208E-1,-1.0143945E-2,-3.529855E-2,1.5379878E-3,5.511892E-2,8.490384E-3,-2.5455044E-3,-1.196837E-2,3.0582625E-4,-4.089074E-2,5.7735004E-2,9.138423E-3,-2.0308464E-3,3.650174E-2,-3.1027311E-2,-1.0776717E-2,2.5788693E-2],"categories":[],"categories_nodes":[],"categories_segments":[],"categories_sizes":[],"default_left":[0,0,0,0,0,0,0,0,0,0,0,0,0,0,0,0,0,0,0,0,0,0,0,0,0,0,0,0,0,0,0],"id":26,"left_children":[1,3,5,7,9,11,13,15,17,19,21,23,25,27,29,-1,-1,-1,-1,-1,-1,-1,-1,-1,-1,-1,-1,-1,-1,-1,-1],"loss_changes":[6.307883E0,9.832167E0,9.540614E0,1.1910595E1,9.20743E0,8.920506E0,6.866399E0,7.460436E0,6.1685734E0,1.7775259E1,1.1270567E1,9.674675E0,5.9120736E0,4.2631073E0,9.058052E0,0E0,0E0,0E0,0E0,0E0,0E0,0E0,0E0,0E0,0E0,0E0,0E0,0E0,0E0,0E0,0E0],"parents":[2147483647,0,0,1,1,2,2,3,3,4,4,5,5,6,6,7,7,8,8,9,9,10,10,11,11,12,12,13,13,14,14],"right_children":[2,4,6,8,10,12,14,16,18,20,22,24,26,28,30,-1,-1,-1,-1,-1,-1,-1,-1,-1,-1,-1,-1,-1,-1,-1,-1],"split_conditions":[2.4885714E1,9.77831E-4,8.6163396E-1,2.52381E4,1.8642914E1,4.433108E-4,6.3623637E-3,2.46249E4,6.47609E-1,4.295265E-1,4.5650684E1,2.2395605E4,2.7257198E1,7.82461E1,9.3099446E-4,-1.0143945E-2,-3.529855E-2,1.5379878E-3,5.511892E-2,8.490384E-3,-2.5455044E-3,-1.196837E-2,3.0582625E-4,-4.089074E-2,5.7735004E-2,9.138423E-3,-2.0308464E-3,3.650174E-2,-3.1027311E-2,-1.0776717E-2,2.5788693E-2],"split_indices":[0,17,18,5,0,10,17,5,18,18,20,2,0,20,10,0,0,0,0,0,0,0,0,0,0,0,0,0,0,0,0],"split_type":[0,0,0,0,0,0,0,0,0,0,0,0,0,0,0,0,0,0,0,0,0,0,0,0,0,0,0,0,0,0,0],"sum_hessian":[3.2181077E3,2.4578333E3,7.6027435E2,1.6599963E2,2.2918337E3,6.520458E2,1.0822855E2,1.2113759E2,4.4862038E1,1.528526E3,7.633078E2,1.4016338E1,6.380294E2,4.230315E1,6.59254E1,6.922755E1,5.191005E1,3.9636787E1,5.225248E0,5.9951996E2,9.29006E2,3.253622E2,4.3794556E2,2.3313775E0,1.1684961E1,1.5598494E2,4.820445E2,4.0562E1,1.7411497E0,3.3561394E1,3.2364006E1],"tree_param":{"num_deleted":"0","num_feature":"26","num_nodes":"31","size_leaf_vector":"1"}},{"base_weights":[-6.094808E-4,3.0515234E-3,-4.6585682E-1,1.377634E-1,-1.0222748E-2,-7.1323574E-1,3.5143387E-1,-1.4079545E-1,3.0898622E-1,-4.7044627E-2,4.824985E-2,-8.904925E-1,2.2991018E-2,8.915534E-1,-3.2538408E-1,2.9136656E-2,-1.0002291E-2,4.2420026E-2,1.0264873E-2,-3.4446307E-3,7.169008E-3,3.6147349E-3,-1.464964E-2,-5.1655203E-2,5.5307182E-3,5.9651226E-2,5.0303796E-3,-4.801248E-2,2.0828303E-2],"categories":[],"categories_nodes":[],"categories_segments":[],"categories_sizes":[],"default_left":[0,0,0,0,0,0,0,0,0,0,0,0,0,0,0,0,0,0,0,0,0,0,0,0,0,0,0,0,0],"id":27,"left_children":[1,3,5,7,9,11,13,15,17,19,21,23,-1,25,27,-1,-1,-1,-1,-1,-1,-1,-1,-1,-1,-1,-1,-1,-1],"loss_changes":[5.510537E0,5.7418423E0,5.3576016E0,1.3780781E1,6.2960215E0,4.5099583E0,2.680507E0,4.8463554E0,9.820137E0,7.4742527E0,9.292996E0,2.6087675E0,0E0,8.1090355E-1,2.1121633E0,0E0,0E0,0E0,0E0,0E0,0E0,0E0,0E0,0E0,0E0,0E0,0E0,0E0,0E0],"parents":[2147483647,0,0,1,1,2,2,3,3,4,4,5,5,6,6,7,7,8,8,9,9,10,10,11,11,13,13,14,14],"right_children":[2,4,6,8,10,12,14,16,18,20,22,24,-1,26,28,-1,-1,-1,-1,-1,-1,-1,-1,-1,-1,-1,-1,-1,-1],"split_conditions":[8.779577E1,2.2027828E4,2.8875084E1,4.598707E1,9.659258E-1,1.3052619E-1,7.171299E-4,2.1283338E4,4.9659863E1,6.558653E-3,8.786816E-3,1.0896292E0,2.2991018E-2,9.0951744E1,2.4399896E0,2.9136656E-2,-1.0002291E-2,4.2420026E-2,1.0264873E-2,-3.4446307E-3,7.169008E-3,3.6147349E-3,-1.464964E-2,-5.1655203E-2,5.5307182E-3,5.9651226E-2,5.0303796E-3,-4.801248E-2,2.0828303E-2],"split_indices":[20,3,0,20,22,21,10,4,20,17,17,18,0,20,6,0,0,0,0,0,0,0,0,0,0,0,0,0,0],"split_type":[0,0,0,0,0,0,0,0,0,0,0,0,0,0,0,0,0,0,0,0,0,0,0,0,0,0,0,0,0],"sum_hessian":[3.2334302E3,3.209171E3,2.4259336E1,2.8701956E2,2.9221514E3,1.8720346E1,5.538989E0,1.09330215E2,1.7768935E2,1.7931492E3,1.1290022E3,1.647217E1,2.2481782E0,2.904136E0,2.6348534E0,7.6067095E0,1.0172351E2,2.7491203E1,1.5019815E2,1.6091633E3,1.8398573E2,1.0554226E3,7.357969E1,1.4390259E1,2.0819104E0,1.7346265E0,1.1695094E0,1.2613382E0,1.373515E0],"tree_param":{"num_deleted":"0","num_feature":"26","num_nodes":"29","size_leaf_vector":"1"}},{"base_weights":[-8.472339E-3,3.5569105E-1,-1.355338E-2,6.322686E-2,8.604911E-1,-6.8188615E-2,2.0599158E-2,4.5345974E-1,-3.3120215E-1,1.1184727E0,1.6528934E-1,-1.2820925E-2,-2.7539265E-1,2.283124E-1,4.858767E-4,5.5006262E-2,9.311131E-3,3.1073478E-3,-3.5932656E-2,2.0847308E-2,6.6799745E-2,3.3607543E-2,-2.155509E-2,4.9305498E-3,-5.1467954E-3,-7.970706E-3,-2.6234949E-2,1.3158283E-2,-4.752655E-2,4.5416947E-2,-1.9804637E-4],"categories":[],"categories_nodes":[],"categories_segments":[],"categories_sizes":[],"default_left":[0,0,0,0,0,0,0,0,0,0,0,0,0,0,0,0,0,0,0,0,0,0,0,0,0,0,0,0,0,0,0],"id":28,"left_children":[1,3,5,7,9,11,13,15,17,19,21,23,25,27,29,-1,-1,-1,-1,-1,-1,-1,-1,-1,-1,-1,-1,-1,-1,-1,-1],"loss_changes":[5.949712E0,6.4781947E0,5.9157276E0,4.628561E0,2.7120514E0,1.39864235E1,8.1515665E0,2.395571E0,2.3380182E0,1.2142086E0,1.965981E0,9.683826E0,7.349945E0,7.327524E0,7.189278E0,0E0,0E0,0E0,0E0,0E0,0E0,0E0,0E0,0E0,0E0,0E0,0E0,0E0,0E0,0E0,0E0],"parents":[2147483647,0,0,1,1,2,2,3,3,4,4,5,5,6,6,7,7,8,8,9,9,10,10,11,11,12,12,13,13,14,14],"right_children":[2,4,6,8,10,12,14,16,18,20,22,24,26,28,30,-1,-1,-1,-1,-1,-1,-1,-1,-1,-1,-1,-1,-1,-1,-1,-1],"split_conditions":[1.5395509E1,2.8529666E-2,4.5650684E1,2.3531658E4,1.1231347E-2,4.203767E1,2.2011533E4,-1.1932663E1,0E0,1.9074972E1,9.8836154E-1,1.8910686E1,4.288566E-1,8.641771E1,-8.587328E0,5.5006262E-2,9.311131E-3,3.1073478E-3,-3.5932656E-2,2.0847308E-2,6.6799745E-2,3.3607543E-2,-2.155509E-2,4.9305498E-3,-5.1467954E-3,-7.970706E-3,-2.6234949E-2,1.3158283E-2,-4.752655E-2,4.5416947E-2,-1.9804637E-4],"split_indices":[20,18,20,2,17,20,3,19,18,0,22,0,19,20,19,0,0,0,0,0,0,0,0,0,0,0,0,0,0,0,0],"split_type":[0,0,0,0,0,0,0,0,0,0,0,0,0,0,0,0,0,0,0,0,0,0,0,0,0,0,0,0,0,0,0],"sum_hessian":[3.2118826E3,4.324804E1,3.1686345E3,2.8095627E1,1.5152411E1,1.2184434E3,1.9501912E3,1.4047707E1,1.4047921E1,1.0607311E1,4.5451E0,9.62352E2,2.5609146E2,1.7125551E2,1.7789357E3,3.1963806E0,1.0851326E1,7.387531E0,6.66039E0,3.2009122E0,7.4063993E0,2.3882997E0,2.1568005E0,4.3024146E2,5.3211053E2,1.7590091E2,8.0190544E1,1.6709209E2,4.163421E0,7.680245E0,1.7712555E3],"tree_param":{"num_deleted":"0","num_feature":"26","num_nodes":"31","size_leaf_vector":"1"}},{"base_weights":[1.1892503E-3,6.920521E-2,-3.1089932E-2,9.1812335E-2,-2.7623078E-1,-8.037768E-2,4.8820037E-2,1.3670549E-1,-8.867724E-2,9.03552E-2,-5.087769E-1,-9.426456E-2,3.781198E-1,1.94638E-1,-4.797028E-3,6.352176E-3,6.488302E-2,-1.48156285E-2,4.279192E-3,-7.586144E-3,3.1350814E-2,-5.5972714E-2,-1.5401061E-2,9.388006E-3,-5.9795952E-3,2.3873881E-3,3.882831E-2,6.6179136E-4,1.7745072E-2,-7.644471E-3,4.076695E-3],"categories":[],"categories_nodes":[],"categories_segments":[],"categories_sizes":[],"default_left":[0,0,0,0,0,0,0,0,0,0,0,0,0,0,0,0,0,0,0,0,0,0,0,0,0,0,0,0,0,0,0],"id":29,"left_children":[1,3,5,7,9,11,13,15,17,19,21,23,25,27,29,-1,-1,-1,-1,-1,-1,-1,-1,-1,-1,-1,-1,-1,-1,-1,-1],"loss_changes":[7.0725145E0,8.121798E0,8.608242E0,7.9028454E0,5.496146E0,8.641328E0,6.521702E0,8.58732E0,7.0658283E0,3.42925E0,4.4694443E0,9.398665E0,5.2194834E0,6.514736E0,7.821331E0,0E0,0E0,0E0,0E0,0E0,0E0,0E0,0E0,0E0,0E0,0E0,0E0,0E0,0E0,0E0,0E0],"parents":[2147483647,0,0,1,1,2,2,3,3,4,4,5,5,6,6,7,7,8,8,9,9,10,10,11,11,12,12,13,13,14,14],"right_children":[2,4,6,8,10,12,14,16,18,20,22,24,26,28,30,-1,-1,-1,-1,-1,-1,-1,-1,-1,-1,-1,-1,-1,-1,-1,-1],"split_conditions":[-1.7759595E0,2.1643962E-1,-2.3768589E-1,2.504325E4,-2.766244E-4,4.489435E-4,-1.0886688E-1,2.5070607E4,-1.2634222E-4,-3.4258422E-4,-2.108666E-4,-1.2351203E0,2.401265E4,2.418955E4,2.0533667E-3,6.352176E-3,6.488302E-2,-1.48156285E-2,4.279192E-3,-7.586144E-3,3.1350814E-2,-5.5972714E-2,-1.5401061E-2,9.388006E-3,-5.9795952E-3,2.3873881E-3,3.882831E-2,6.6179136E-4,1.7745072E-2,-7.644471E-3,4.076695E-3],"split_indices":[19,21,21,5,7,7,21,3,7,7,7,6,5,5,17,0,0,0,0,0,0,0,0,0,0,0,0,0,0,0,0],"split_type":[0,0,0,0,0,0,0,0,0,0,0,0,0,0,0,0,0,0,0,0,0,0,0,0,0,0,0,0,0,0,0],"sum_hessian":[3.2193894E3,1.0357664E3,2.183623E3,9.728333E2,6.293306E1,1.3505872E3,8.330358E2,7.792525E2,1.9358078E2,2.466406E1,3.8269E1,1.3116544E3,3.8932697E1,2.2325023E2,6.097856E2,7.73921E2,5.3314757E0,8.80122E1,1.0556858E2,1.7491323E1,7.1727357E0,8.3358965E0,2.9933104E1,1.07558426E2,1.204096E3,2.1896793E1,1.7035904E1,1.05226715E2,1.1802352E2,2.2428145E2,3.8550415E2],"tree_param":{"num_deleted":"0","num_feature":"26","num_nodes":"31","size_leaf_vector":"1"}},{"base_weights":[-6.2710578E-3,-1.949362E-2,1.775772E-1,-1.620585E-2,-8.741002E-1,3.3298108E-1,-1.6282688E-1,-7.7175684E-2,1.3749545E-2,-1.1151779E0,5.736152E-3,6.464745E-1,1.4026022E-1,-6.827744E-1,2.2275787E-2,3.151983E-3,-6.421047E-3,1.727149E-2,3.4424094E-5,-4.9881297E-3,-6.6435434E-2,1.3837002E-2,4.0523756E-2,1.2577911E-2,-2.0692501E-2,2.4475317E-2,-5.1265012E-2,4.9696425E-3,-5.6112368E-2],"categories":[],"categories_nodes":[],"categories_segments":[],"categories_sizes":[],"default_left":[0,0,0,0,0,0,0,0,0,0,0,0,0,0,0,0,0,0,0,0,0,0,0,0,0,0,0,0,0],"id":30,"left_children":[1,3,5,7,9,11,13,15,17,19,-1,21,23,25,27,-1,-1,-1,-1,-1,-1,-1,-1,-1,-1,-1,-1,-1,-1],"loss_changes":[7.7928395E0,8.387465E0,1.1432516E1,5.4431624E0,2.8551722E0,8.851101E0,6.5683002E0,7.062874E0,8.659202E0,1.8820124E0,0E0,3.1755257E0,5.835414E0,7.692382E0,4.628903E0,0E0,0E0,0E0,0E0,0E0,0E0,0E0,0E0,0E0,0E0,0E0,0E0,0E0,0E0],"parents":[2147483647,0,0,1,1,2,2,3,3,4,4,5,5,6,6,7,7,8,8,9,9,11,11,12,12,13,13,14,14],"right_children":[2,4,6,8,10,12,14,16,18,20,-1,22,24,26,28,-1,-1,-1,-1,-1,-1,-1,-1,-1,-1,-1,-1,-1,-1],"split_conditions":[1.15339674E-1,2.62223E4,1.3668656E0,2.0533667E-3,8.766447E-5,1.5642858E1,-5.9130967E-1,-1.6596917E0,1.2910714E1,-4.186858E0,5.736152E-3,-4.959246E-5,2.4975104E4,2.2364162E4,9.628342E-3,3.151983E-3,-6.421047E-3,1.727149E-2,3.4424094E-5,-4.9881297E-3,-6.6435434E-2,1.3837002E-2,4.0523756E-2,1.2577911E-2,-2.0692501E-2,2.4475317E-2,-5.1265012E-2,4.9696425E-3,-5.6112368E-2],"split_indices":[25,5,19,17,7,0,21,19,0,19,0,7,3,3,17,0,0,0,0,0,0,0,0,0,0,0,0,0,0],"split_type":[0,0,0,0,0,0,0,0,0,0,0,0,0,0,0,0,0,0,0,0,0,0,0,0,0,0,0,0,0],"sum_hessian":[3.2032585E3,2.9891685E3,2.1409024E2,2.9787278E3,1.0440553E1,1.470017E2,6.708854E1,9.808252E2,1.9979027E3,8.291324E0,2.149229E0,5.506866E1,9.193304E1,1.6907442E1,5.01811E1,2.624605E2,7.183647E2,7.472955E1,1.9231731E3,1.6955553E0,6.595768E0,1.77467E1,3.732196E1,7.701075E1,1.4922284E1,3.7260568E0,1.3181385E1,4.786889E1,2.3122098E0],"tree_param":{"num_deleted":"0","num_feature":"26","num_nodes":"29","size_leaf_vector":"1"}},{"base_weights":[-7.0133567E-4,9.041444E-3,-1.8612105E-1,4.5690943E-2,-5.769931E-2,-4.5748845E-1,1.2796523E-1,-1.3574474E-1,7.462265E-2,-1.4127891E-1,9.584542E-2,-3.3374417E-1,-1.0993757E0,5.5062366E-1,-1.388452E-1,-1.0346945E-2,1.052159E-2,-1.7481325E-2,4.213025E-3,-1.1678322E-2,-8.050265E-4,8.620574E-3,-4.346538E-3,-1.9913523E-2,5.4471888E-2,-7.50568E-2,-3.2691028E-2,2.469783E-3,4.122213E-2,-7.601458E-4,-5.7992786E-2],"categories":[],"categories_nodes":[],"categories_segments":[],"categories_sizes":[],"default_left":[0,0,0,0,0,0,0,0,0,0,0,0,0,0,0,0,0,0,0,0,0,0,0,0,0,0,0,0,0,0,0],"id":31,"left_children":[1,3,5,7,9,11,13,15,17,19,21,23,25,27,29,-1,-1,-1,-1,-1,-1,-1,-1,-1,-1,-1,-1,-1,-1,-1,-1],"loss_changes":[5.8451877E0,7.52212E0,1.3825954E1,1.0429929E1,1.4003893E1,6.5335827E0,8.607697E0,6.7805104E0,7.032254E0,8.155918E0,5.4007406E0,7.254307E0,1.4539452E0,4.0048866E0,5.937717E0,0E0,0E0,0E0,0E0,0E0,0E0,0E0,0E0,0E0,0E0,0E0,0E0,0E0,0E0,0E0,0E0],"parents":[2147483647,0,0,1,1,2,2,3,3,4,4,5,5,6,6,7,7,8,8,9,9,10,10,11,11,12,12,13,13,14,14],"right_children":[2,4,6,8,10,12,14,16,18,20,22,24,26,28,30,-1,-1,-1,-1,-1,-1,-1,-1,-1,-1,-1,-1,-1,-1,-1,-1],"split_conditions":[9.99762E-1,1.2831248E0,6.08257E-1,1.183928E-3,2.310357E1,2.5342574E4,2.353919E4,9.8078525E-1,-2.643998E0,2.4684367E4,8.564927E0,1.21729674E-4,2.0648527E-3,2.2155602E4,9.452171E0,-1.0346945E-2,1.052159E-2,-1.7481325E-2,4.213025E-3,-1.1678322E-2,-8.050265E-4,8.620574E-3,-4.346538E-3,-1.9913523E-2,5.4471888E-2,-7.50568E-2,-3.2691028E-2,2.469783E-3,4.122213E-2,-7.601458E-4,-5.7992786E-2],"split_indices":[22,19,19,17,0,4,4,22,6,3,19,7,17,3,19,0,0,0,0,0,0,0,0,0,0,0,0,0,0,0,0],"split_type":[0,0,0,0,0,0,0,0,0,0,0,0,0,0,0,0,0,0,0,0,0,0,0,0,0,0,0,0,0,0,0],"sum_hessian":[3.2337046E3,3.0731772E3,1.6052724E2,1.9840093E3,1.089168E3,8.587528E1,7.4651955E1,2.7235196E2,1.7116573E3,7.053189E2,3.838491E2,7.327008E1,1.2605204E1,2.8477148E1,4.6174805E1,2.2622838E2,4.6123585E1,3.723711E1,1.6744203E3,4.054994E2,2.9981952E2,2.705646E2,1.1328447E2,7.078106E1,2.4890184E0,5.38257E0,7.222634E0,1.0477813E1,1.7999336E1,4.2092392E1,4.0824127E0],"tree_param":{"num_deleted":"0","num_feature":"26","num_nodes":"31","size_leaf_vector":"1"}},{"base_weights":[-3.2063762E-3,2.125267E-1,-1.0353067E-2,-3.0658394E-1,3.4366858E-1,-6.7589927E-1,-4.2420614E-4,4.0341014E-1,-8.593084E-1,5.2228224E-1,-1.13400996E-1,3.9963016E-1,-7.6930904E-1,3.9865753E-1,-5.2645965E-3,-2.114429E-3,5.082918E-2,1.0832209E-2,-7.14314E-2,1.27739385E-2,4.476769E-2,5.7889827E-2,-1.5628316E-2,4.649343E-2,-1.5912427E-2,-4.2372704E-2,2.638916E-3,2.7400847E-3,4.0698797E-2,-2.922705E-3,1.4053261E-3],"categories":[],"categories_nodes":[],"categories_segments":[],"categories_sizes":[],"default_left":[0,0,0,0,0,0,0,0,0,0,0,0,0,0,0,0,0,0,0,0,0,0,0,0,0,0,0,0,0,0,0],"id":32,"left_children":[1,3,5,7,9,11,13,15,17,19,21,23,25,27,29,-1,-1,-1,-1,-1,-1,-1,-1,-1,-1,-1,-1,-1,-1,-1,-1],"loss_changes":[4.981993E0,7.159112E0,2.0665205E1,8.7545805E0,6.850671E0,4.9255753E0,5.9562545E0,2.7919927E0,7.884637E0,5.742758E0,6.4877744E0,1.9446609E0,2.7837696E0,5.232204E0,5.4089317E0,0E0,0E0,0E0,0E0,0E0,0E0,0E0,0E0,0E0,0E0,0E0,0E0,0E0,0E0,0E0,0E0],"parents":[2147483647,0,0,1,1,2,2,3,3,4,4,5,5,6,6,7,7,8,8,9,9,10,10,11,11,12,12,13,13,14,14],"right_children":[2,4,6,8,10,12,14,16,18,20,22,24,26,28,30,-1,-1,-1,-1,-1,-1,-1,-1,-1,-1,-1,-1,-1,-1,-1,-1],"split_conditions":[5.8778524E-1,1.4135715E1,-7.933533E-1,2.3549324E4,9.576947E-5,-2.2058024E0,1.5395509E1,2.2935736E4,1.2466996E-3,3.728793E-1,1.5257143E1,6.4642593E-4,7.5526505E1,2.8529666E-2,4.5650684E1,-2.114429E-3,5.082918E-2,1.0832209E-2,-7.14314E-2,1.27739385E-2,4.476769E-2,5.7889827E-2,-1.5628316E-2,4.649343E-2,-1.5912427E-2,-4.2372704E-2,2.638916E-3,2.7400847E-3,4.0698797E-2,-2.922705E-3,1.4053261E-3],"split_indices":[22,0,21,2,7,6,20,3,17,18,0,10,20,18,20,0,0,0,0,0,0,0,0,0,0,0,0,0,0,0,0],"split_type":[0,0,0,0,0,0,0,0,0,0,0,0,0,0,0,0,0,0,0,0,0,0,0,0,0,0,0,0,0,0,0],"sum_hessian":[3.2289036E3,1.0261405E2,3.1262896E3,2.0425232E1,8.218882E1,4.4967648E1,3.0813218E3,9.058899E0,1.1366333E1,5.8992897E1,2.3195923E1,3.3313944E0,4.1636253E1,3.594996E1,3.0453718E3,5.784986E0,3.2739127E0,4.147491E0,7.2188416E0,3.5377407E1,2.3615486E1,2.4899921E0,2.070593E1,1.746268E0,1.5851263E0,3.799382E1,3.6424298E0,2.0286251E1,1.5663707E1,1.1737715E3,1.8716005E3],"tree_param":{"num_deleted":"0","num_feature":"26","num_nodes":"31","size_leaf_vector":"1"}},{"base_weights":[-7.1130027E-3,-9.824417E-3,6.3817704E-1,-2.809187E-1,-4.2861863E-3,7.8776944E-1,-2.801059E-2,-1.5794764E-1,-1.115965E0,3.955768E-1,-8.540863E-3,-1.5357137E-2,9.3646985E-1,-1.3736263E-2,5.242787E-2,5.776041E-3,-7.165175E-2,4.37613E-2,1.389227E-3,1.0015897E-2,-7.533258E-4,5.8221377E-2,-4.0914514E-4],"categories":[],"categories_nodes":[],"categories_segments":[],"categories_sizes":[],"default_left":[0,0,0,0,0,0,0,0,0,0,0,0,0,0,0,0,0,0,0,0,0,0,0],"id":33,"left_children":[1,3,5,7,9,11,-1,13,15,17,19,-1,21,-1,-1,-1,-1,-1,-1,-1,-1,-1,-1],"loss_changes":[5.641937E0,4.8160353E0,2.8601727E0,6.418256E0,5.3544664E0,2.308321E0,0E0,8.338895E0,3.3198938E0,5.821246E0,4.246094E0,0E0,2.4157505E0,0E0,0E0,0E0,0E0,0E0,0E0,0E0,0E0,0E0,0E0],"parents":[2147483647,0,0,1,1,2,2,3,3,4,4,5,5,7,7,8,8,9,9,10,10,12,12],"right_children":[2,4,6,8,10,12,-1,14,16,18,20,-1,22,-1,-1,-1,-1,-1,-1,-1,-1,-1,-1],"split_conditions":[1.259315E0,-2.306713E0,8.502252E1,3.257965E1,1.5395509E1,6.583748E1,-2.801059E-2,3.0319534E1,1.8813023E-3,-1.3052619E-1,-6.691409E-2,-1.5357137E-2,2.5030457E4,-1.3736263E-2,5.242787E-2,5.776041E-3,-7.165175E-2,4.37613E-2,1.389227E-3,1.0015897E-2,-7.533258E-4,5.8221377E-2,-4.0914514E-4],"split_indices":[18,6,20,20,20,20,0,20,17,21,18,0,2,0,0,0,0,0,0,0,0,0,0],"split_type":[0,0,0,0,0,0,0,0,0,0,0,0,0,0,0,0,0,0,0,0,0,0,0],"sum_hessian":[3.220028E3,3.2075354E3,1.2492817E1,6.3219936E1,3.1443154E3,1.1411043E1,1.0817738E0,5.6141537E1,7.0783973E0,3.2135998E1,3.1121794E3,1.2370286E0,1.0174014E1,5.1891277E1,4.250259E0,1.5794692E0,5.4989285E0,1.3348342E1,1.8787657E1,9.33921E1,3.0187874E3,8.008742E0,2.1652718E0],"tree_param":{"num_deleted":"0","num_feature":"26","num_nodes":"23","size_leaf_vector":"1"}},{"base_weights":[2.6623484E-5,-1.8861227E-2,8.956321E-2,-2.423745E-2,3.9040753E-1,-1.0382801E0,9.844035E-2,1.6497426E-1,-3.4388624E-2,1.11156836E-1,8.8810337E-1,-1.72763E-2,-6.34083E-2,1.3841172E-1,-1.0557816E-1,1.1804721E-2,-5.5003174E-2,-5.1342174E-3,4.21627E-5,-3.387757E-3,4.7342032E-2,2.4436603E-3,6.0790855E-2,-2.8016733E-3,1.1066443E-2,8.916455E-3,-1.9408965E-2],"categories":[],"categories_nodes":[],"categories_segments":[],"categories_sizes":[],"default_left":[0,0,0,0,0,0,0,0,0,0,0,0,0,0,0,0,0,0,0,0,0,0,0,0,0,0,0],"id":34,"left_children":[1,3,5,7,9,11,13,15,17,19,21,-1,-1,23,25,-1,-1,-1,-1,-1,-1,-1,-1,-1,-1,-1,-1],"loss_changes":[5.468852E0,5.885338E0,5.742352E0,5.0701923E0,4.721629E0,2.7622128E-1,4.5801435E0,1.23545475E1,6.0236096E0,3.556865E0,3.329689E0,0E0,0E0,7.567033E0,7.4734235E0,0E0,0E0,0E0,0E0,0E0,0E0,0E0,0E0,0E0,0E0,0E0,0E0],"parents":[2147483647,0,0,1,1,2,2,3,3,4,4,5,5,6,6,7,7,8,8,9,9,10,10,13,13,14,14],"right_children":[2,4,6,8,10,12,14,16,18,20,22,-1,-1,24,26,-1,-1,-1,-1,-1,-1,-1,-1,-1,-1,-1,-1],"split_conditions":[5.586949E-3,1.2023506E-3,2.994754E-4,2.6511776E1,2.4333682E4,9.8927236E-1,8.970535E0,9.99762E-1,4.5650684E1,9.8836154E-1,-5.5185823E0,-1.72763E-2,-6.34083E-2,-5.982956E0,-3.2143947E-1,1.1804721E-2,-5.5003174E-2,-5.1342174E-3,4.21627E-5,-3.387757E-3,4.7342032E-2,2.4436603E-3,6.0790855E-2,-2.8016733E-3,1.1066443E-2,8.916455E-3,-1.9408965E-2],"split_indices":[17,10,10,20,3,22,19,22,20,22,19,0,0,19,21,0,0,0,0,0,0,0,0,0,0,0,0],"split_type":[0,0,0,0,0,0,0,0,0,0,0,0,0,0,0,0,0,0,0,0,0,0,0,0,0,0,0],"sum_hessian":[3.2318008E3,2.6694636E3,5.623372E2,2.6357803E3,3.3683273E1,3.4859414E0,5.5885126E2,1.3343227E2,2.5023481E3,2.2360455E1,1.132282E1,1.4922183E0,1.9937232E0,4.67567E2,9.128429E1,1.271001E2,6.332172E0,8.509322E2,1.6514159E3,1.9174335E1,3.1861207E0,3.5025074E0,7.8203115E0,1.3987555E2,3.2769144E2,4.5720974E1,4.5563316E1],"tree_param":{"num_deleted":"0","num_feature":"26","num_nodes":"27","size_leaf_vector":"1"}},{"base_weights":[6.4589847E-3,4.749821E-1,2.4227733E-3,1.2078629E0,2.0271806E-1,3.2360777E-1,-1.6105642E-3,9.925719E-3,7.1023606E-2,-2.5868756E-1,5.67054E-1,1.6378582E-1,9.5994496E-1,-1.5274522E-1,1.0541766E-2,7.918254E-3,-6.4545885E-2,6.2329937E-2,-5.571114E-3,1.5257478E-3,6.275906E-2,6.1131753E-2,-1.1526078E-2,-2.4064404E-3,-2.0208104E-2,4.533534E-3,-8.7363675E-4],"categories":[],"categories_nodes":[],"categories_segments":[],"categories_sizes":[],"default_left":[0,0,0,0,0,0,0,0,0,0,0,0,0,0,0,0,0,0,0,0,0,0,0,0,0,0,0],"id":35,"left_children":[1,3,5,7,9,11,13,-1,-1,15,17,19,21,23,25,-1,-1,-1,-1,-1,-1,-1,-1,-1,-1,-1,-1],"loss_changes":[6.069445E0,5.225132E0,4.1248956E0,1.26822E0,3.7088013E0,3.8588881E0,5.7783055E0,0E0,0E0,4.5248985E0,5.7423496E0,4.7278557E0,2.6965284E0,6.1390896E0,6.5386076E0,0E0,0E0,0E0,0E0,0E0,0E0,0E0,0E0,0E0,0E0,0E0,0E0],"parents":[2147483647,0,0,1,1,2,2,3,3,4,4,5,5,6,6,9,9,10,10,11,11,12,12,13,13,14,14],"right_children":[2,4,6,8,10,12,14,-1,-1,16,18,20,22,24,26,-1,-1,-1,-1,-1,-1,-1,-1,-1,-1,-1,-1],"split_conditions":[2.152536E4,-6.755902E-1,1.5395509E1,1.9439285E1,4.1254124E1,8.830721E-2,-6.4629765E0,9.925719E-3,7.1023606E-2,2.3469832E-2,4.1728032E-1,3.964272E1,7.902336E-4,1E0,-1.7759595E0,7.918254E-3,-6.4545885E-2,6.2329937E-2,-5.571114E-3,1.5257478E-3,6.275906E-2,6.1131753E-2,-1.1526078E-2,-2.4064404E-3,-2.0208104E-2,4.533534E-3,-8.7363675E-4],"split_indices":[3,21,20,0,20,18,19,0,0,19,18,0,10,11,19,0,0,0,0,0,0,0,0,0,0,0,0],"split_type":[0,0,0,0,0,0,0,0,0,0,0,0,0,0,0,0,0,0,0,0,0,0,0,0,0,0,0],"sum_hessian":[3.209158E3,2.641339E1,3.1827446E3,6.223798E0,2.0189592E1,3.848955E1,3.1442551E3,1.419329E0,4.8044686E0,9.03605E0,1.1153542E1,3.1768091E1,6.7214613E0,2.3314432E2,2.9111108E3,7.0387564E0,1.997294E0,5.154037E0,5.9995046E0,2.9227114E1,2.540979E0,5.484272E0,1.2371893E0,1.6547879E2,6.766553E1,7.5354254E2,2.157568E3],"tree_param":{"num_deleted":"0","num_feature":"26","num_nodes":"27","size_leaf_vector":"1"}},{"base_weights":[5.980565E-4,3.283207E-1,-3.8674E-3,-2.1536627E-1,4.7973654E-1,-1.4019145E-2,1.207394E-1,4.550493E-1,-7.2071767E-1,8.7702006E-1,1.4789456E-1,6.913226E-1,-1.6359614E-2,6.1942514E-2,5.5126315E-1,-1.4143057E-2,4.7009397E-2,8.5802255E-3,-4.9100805E-2,1.7753033E-2,5.737245E-2,-1.0021112E-2,3.575433E-2,4.9142152E-2,-5.841646E-3,-4.8624028E-5,-5.789609E-3,6.8262615E-3,-1.4837572E-2,1.2327894E-2,4.657015E-2],"categories":[],"categories_nodes":[],"categories_segments":[],"categories_sizes":[],"default_left":[0,0,0,0,0,0,0,0,0,0,0,0,0,0,0,0,0,0,0,0,0,0,0,0,0,0,0,0,0,0,0],"id":36,"left_children":[1,3,5,7,9,11,13,15,17,19,21,23,25,27,29,-1,-1,-1,-1,-1,-1,-1,-1,-1,-1,-1,-1,-1,-1,-1,-1],"loss_changes":[4.69585E0,3.654261E0,4.0063453E0,3.7451289E0,4.359043E0,4.8452706E0,6.0054464E0,2.0373054E0,1.5996993E0,1.7512741E0,4.046143E0,2.4018207E0,4.4666586E0,5.686587E0,3.0764732E0,0E0,0E0,0E0,0E0,0E0,0E0,0E0,0E0,0E0,0E0,0E0,0E0,0E0,0E0,0E0,0E0],"parents":[2147483647,0,0,1,1,2,2,3,3,4,4,5,5,6,6,7,7,8,8,9,9,10,10,11,11,12,12,13,13,14,14],"right_children":[2,4,6,8,10,12,14,16,18,20,22,24,26,28,30,-1,-1,-1,-1,-1,-1,-1,-1,-1,-1,-1,-1,-1,-1,-1,-1],"split_conditions":[1.5395509E1,-2.4859648E0,2.674573E-4,5.0577126E-4,-1.3052619E-1,2.1283338E4,2.30817E0,4.0681445E-4,2.256724E4,2.2572443E4,6.4240483E-4,1E0,6.695652E1,1.015526E-2,2.8678598E1,-1.4143057E-2,4.7009397E-2,8.5802255E-3,-4.9100805E-2,1.7753033E-2,5.737245E-2,-1.0021112E-2,3.575433E-2,4.9142152E-2,-5.841646E-3,-4.8624028E-5,-5.789609E-3,6.8262615E-3,-1.4837572E-2,1.2327894E-2,4.657015E-2],"split_indices":[20,6,7,10,21,4,6,10,3,4,10,25,20,17,0,0,0,0,0,0,0,0,0,0,0,0,0,0,0,0,0],"split_type":[0,0,0,0,0,0,0,0,0,0,0,0,0,0,0,0,0,0,0,0,0,0,0,0,0,0,0,0,0,0,0],"sum_hessian":[3.2069265E3,4.2134365E1,3.164792E3,9.086223E0,3.3048145E1,2.9272E3,2.3759215E2,3.9480932E0,5.1381297E0,1.4293263E1,1.8754879E1,8.707352E0,2.9184927E3,2.1004944E2,2.7542704E1,1.7314514E0,2.2166417E0,1.2415513E0,3.8965788E0,5.667425E0,8.625839E0,1.2019969E1,6.7349105E0,6.240208E0,2.4671435E0,2.528256E3,3.9023642E2,1.7440504E2,3.5644405E1,1.6203335E1,1.1339368E1],"tree_param":{"num_deleted":"0","num_feature":"26","num_nodes":"31","size_leaf_vector":"1"}},{"base_weights":[1.1411414E-3,-6.2394705E-2,2.7164742E-2,-8.7996796E-2,2.0635083E-1,8.49209E-2,-2.3978047E-2,-5.4731637E-2,-2.887362E-1,5.164936E-1,-1.923654E-2,5.238294E-2,3.639275E-1,-1.7082024E-1,4.8585683E-2,-3.4364003E-3,4.0579297E-2,2.0069472E-2,-1.8873496E-2,-2.9035062E-2,3.378406E-2,2.5653198E-2,-1.7004725E-2,3.7616529E-3,-1.8009633E-2,-4.6977117E-3,2.7047414E-2,-1.4285885E-2,-9.0773E-4,-1.3785377E-4,1.06530525E-2],"categories":[],"categories_nodes":[],"categories_segments":[],"categories_sizes":[],"default_left":[0,0,0,0,0,0,0,0,0,0,0,0,0,0,0,0,0,0,0,0,0,0,0,0,0,0,0,0,0,0,0],"id":37,"left_children":[1,3,5,7,9,11,13,15,17,19,21,23,25,27,29,-1,-1,-1,-1,-1,-1,-1,-1,-1,-1,-1,-1,-1,-1,-1,-1],"loss_changes":[5.3292637E0,6.462167E0,6.7561016E0,5.6989613E0,5.730274E0,9.731668E0,1.2938546E1,8.972523E0,7.587221E0,6.4118576E0,8.423228E0,9.10626E0,9.129626E0,7.0384808E0,6.8655014E0,0E0,0E0,0E0,0E0,0E0,0E0,0E0,0E0,0E0,0E0,0E0,0E0,0E0,0E0,0E0,0E0],"parents":[2147483647,0,0,1,1,2,2,3,3,4,4,5,5,6,6,7,7,8,8,9,9,10,10,11,11,12,12,13,13,14,14],"right_children":[2,4,6,8,10,12,14,16,18,20,22,24,26,28,30,-1,-1,-1,-1,-1,-1,-1,-1,-1,-1,-1,-1,-1,-1,-1,-1],"split_conditions":[-5.9130967E-1,7.72365E-3,1.7867857E1,6.639574E1,3.2603573E1,3.62612E-3,2.1553572E1,6.557692E1,-1.5571602E-1,-1.1932663E1,-1.09932174E-4,4.1672854E0,1.5310715E1,5.085593E-4,7.029866E-1,-3.4364003E-3,4.0579297E-2,2.0069472E-2,-1.8873496E-2,-2.9035062E-2,3.378406E-2,2.5653198E-2,-1.7004725E-2,3.7616529E-3,-1.8009633E-2,-4.6977117E-3,2.7047414E-2,-1.4285885E-2,-9.0773E-4,-1.3785377E-4,1.06530525E-2],"split_indices":[21,17,0,20,0,17,0,20,19,19,7,19,0,10,18,0,0,0,0,0,0,0,0,0,0,0,0,0,0,0,0],"split_type":[0,0,0,0,0,0,0,0,0,0,0,0,0,0,0,0,0,0,0,0,0,0,0,0,0,0,0,0,0,0,0],"sum_hessian":[3.2211282E3,9.3556836E2,2.2855598E3,8.5480756E2,8.076082E1,1.0730695E3,1.2124904E3,7.3438324E2,1.2042431E2,3.3464077E1,4.729674E1,9.620609E2,1.1100851E2,4.0055698E2,8.119335E2,7.236131E2,1.0770148E1,1.3318244E1,1.07106064E2,3.904505E0,2.955957E1,1.756219E1,2.9734554E1,9.12349E2,4.9711956E1,3.1081745E1,7.992676E1,2.2805176E2,1.725052E2,6.195252E2,1.9240822E2],"tree_param":{"num_deleted":"0","num_feature":"26","num_nodes":"31","size_leaf_vector":"1"}},{"base_weights":[-1.1162283E-3,1.411371E-3,-5.914119E-1,-2.9518614E-3,3.446823E-1,-8.459503E-1,1.3863143E-1,6.0294284E-3,-2.1926859E-1,-3.4983358E-1,6.1342585E-1,-1.0703562E0,2.397835E-2,3.423351E-2,-2.3136472E-2,-7.992488E-5,2.2819133E-2,-1.5439043E-2,3.1003391E-2,3.7405852E-2,-3.8022753E-2,5.4745454E-2,1.7985284E-2,-8.596567E-3,-5.976304E-2],"categories":[],"categories_nodes":[],"categories_segments":[],"categories_sizes":[],"default_left":[0,0,0,0,0,0,0,0,0,0,0,0,0,0,0,0,0,0,0,0,0,0,0,0,0],"id":38,"left_children":[1,3,5,7,9,11,13,15,17,19,21,23,-1,-1,-1,-1,-1,-1,-1,-1,-1,-1,-1,-1,-1],"loss_changes":[4.798523E0,4.7981224E0,2.6653652E0,6.1476173E0,7.7192698E0,3.5795183E0,1.763002E0,1.04387045E1,9.668591E0,5.9134564E0,3.1920147E0,8.1849575E-1,0E0,0E0,0E0,0E0,0E0,0E0,0E0,0E0,0E0,0E0,0E0,0E0,0E0],"parents":[2147483647,0,0,1,1,2,2,3,3,4,4,5,5,6,6,7,7,8,8,9,9,10,10,11,11],"right_children":[2,4,6,8,10,12,14,16,18,20,22,24,-1,-1,-1,-1,-1,-1,-1,-1,-1,-1,-1,-1,-1],"split_conditions":[2.62223E4,2.4399896E0,3.036816E-3,1.6719888E0,4.329839E-4,1.7678572E1,3.3595331E-3,1.5141226E0,2.5360348E4,2.24565E4,4.477514E-3,5.246267E-3,2.397835E-2,3.423351E-2,-2.3136472E-2,-7.992488E-5,2.2819133E-2,-1.5439043E-2,3.1003391E-2,3.7405852E-2,-3.8022753E-2,5.4745454E-2,1.7985284E-2,-8.596567E-3,-5.976304E-2],"split_indices":[5,6,17,6,10,0,17,6,3,5,17,18,0,0,0,0,0,0,0,0,0,0,0,0,0],"split_type":[0,0,0,0,0,0,0,0,0,0,0,0,0,0,0,0,0,0,0,0,0,0,0,0,0],"sum_hessian":[3.2145422E3,3.2018298E3,1.2712374E1,3.162622E3,3.920791E1,9.308192E0,3.404181E0,3.0374805E3,1.25141525E2,1.0854587E1,2.8353323E1,8.125133E0,1.18306E0,1.71155E0,1.6926309E0,2.9878694E3,4.961104E1,1.13652954E2,1.1488572E1,2.7308147E0,8.123772E0,8.640632E0,1.9712692E1,1.2817982E0,6.843334E0],"tree_param":{"num_deleted":"0","num_feature":"26","num_nodes":"25","size_leaf_vector":"1"}},{"base_weights":[-5.4157344E-3,-9.897097E-3,3.6824048E-1,-7.4879214E-2,1.5554979E-2,-1.8083589E-1,5.461795E-1,-3.9677516E-2,-2.9506338E-1,-1.437507E-1,3.3874437E-2,5.485812E-2,-4.8461616E-1,1.077099E0,2.8757143E-1,-2.4494976E-3,4.175445E-2,-2.8173838E-2,-7.541711E-3,3.6210963E-3,-1.43007655E-2,8.390606E-4,1.3271387E-2,4.484173E-2,-4.7374185E-2,6.159669E-2,1.6815218E-3,-3.8838618E-2,2.3354864E-2],"categories":[],"categories_nodes":[],"categories_segments":[],"categories_sizes":[],"default_left":[0,0,0,0,0,0,0,0,0,0,0,0,0,0,0,0,0,0,0,0,0,0,0,0,0,0,0,0,0],"id":39,"left_children":[1,3,5,7,9,11,13,15,17,19,21,-1,23,25,27,-1,-1,-1,-1,-1,-1,-1,-1,-1,-1,-1,-1,-1,-1],"loss_changes":[5.397404E0,5.2671723E0,3.8310204E0,6.935145E0,6.684104E0,4.453181E0,3.6856117E0,6.3451395E0,4.691575E0,7.2857747E0,8.123025E0,0E0,6.511651E0,1.4396744E0,4.3624964E0,0E0,0E0,0E0,0E0,0E0,0E0,0E0,0E0,0E0,0E0,0E0,0E0,0E0,0E0],"parents":[2147483647,0,0,1,1,2,2,3,3,4,4,5,5,6,6,7,7,8,8,9,9,10,10,12,12,13,13,14,14],"right_children":[2,4,6,8,10,12,14,16,18,20,22,-1,24,26,28,-1,-1,-1,-1,-1,-1,-1,-1,-1,-1,-1,-1,-1,-1],"split_conditions":[2.4399896E0,-5.9130967E-1,4.244254E-4,6.639574E1,-5.675328E0,2.2083861E4,7.208939E1,6.583748E1,1.4310951E0,2.3588758E4,1.15339674E-1,5.485812E-2,-7.933533E-1,8.219864E0,2.2086756E4,-2.4494976E-3,4.175445E-2,-2.8173838E-2,-7.541711E-3,3.6210963E-3,-1.43007655E-2,8.390606E-4,1.3271387E-2,4.484173E-2,-4.7374185E-2,6.159669E-2,1.6815218E-3,-3.8838618E-2,2.3354864E-2],"split_indices":[6,21,10,20,19,2,20,20,6,3,25,0,21,19,4,0,0,0,0,0,0,0,0,0,0,0,0,0,0],"split_type":[0,0,0,0,0,0,0,0,0,0,0,0,0,0,0,0,0,0,0,0,0,0,0,0,0,0,0,0,0],"sum_hessian":[3.2201375E3,3.182937E3,3.7200333E1,8.9526904E2,2.287668E3,9.100898E0,2.8099436E1,7.7288513E2,1.2238393E2,2.3523363E2,2.0524343E3,1.2462497E0,7.8546476E0,8.167224E0,1.993221E1,7.65678E2,7.207124E0,4.1760323E1,8.0623604E1,9.355965E1,1.4167398E2,1.9123384E3,1.4009604E2,1.7359772E0,6.1186705E0,6.954646E0,1.212578E0,2.3966336E0,1.7535578E1],"tree_param":{"num_deleted":"0","num_feature":"26","num_nodes":"29","size_leaf_vector":"1"}},{"base_weights":[-6.7871404E-3,1.1456958E-1,-1.8977808E-2,-1.3318287E-1,2.611535E-1,-3.18712E-1,-1.1696399E-2,7.578457E-2,-4.856511E-1,8.0497193E-1,1.8974952E-1,2.0624584E-1,-5.935313E-1,-4.873243E-2,4.3362718E-2,7.995187E-3,-5.1304527E-2,-5.063208E-2,-1.1936055E-2,2.098877E-2,6.780071E-2,7.4030063E-3,6.301826E-2,-1.0528875E-2,3.5562377E-2,-3.8034193E-2,-5.1721586E-3,-6.643063E-4,-8.160516E-3,1.9128783E-2,1.1926332E-3],"categories":[],"categories_nodes":[],"categories_segments":[],"categories_sizes":[],"default_left":[0,0,0,0,0,0,0,0,0,0,0,0,0,0,0,0,0,0,0,0,0,0,0,0,0,0,0,0,0,0,0],"id":40,"left_children":[1,3,5,7,9,11,13,15,17,19,21,23,25,27,29,-1,-1,-1,-1,-1,-1,-1,-1,-1,-1,-1,-1,-1,-1,-1,-1],"loss_changes":[4.7626266E0,1.07072115E1,6.379854E0,8.131531E0,7.029832E0,1.0124736E1,5.8271694E0,6.639404E0,5.098855E0,3.9221277E0,7.1694684E0,5.320771E0,3.6704006E0,6.929715E0,7.597028E0,0E0,0E0,0E0,0E0,0E0,0E0,0E0,0E0,0E0,0E0,0E0,0E0,0E0,0E0,0E0,0E0],"parents":[2147483647,0,0,1,1,2,2,3,3,4,4,5,5,6,6,7,7,8,8,9,9,10,10,11,11,12,12,13,13,14,14],"right_children":[2,4,6,8,10,12,14,16,18,20,22,24,26,28,30,-1,-1,-1,-1,-1,-1,-1,-1,-1,-1,-1,-1,-1,-1,-1,-1],"split_conditions":[2.2027828E4,4.598707E1,2.209365E4,-1.346207E0,-5.255509E-5,3.5448666E1,-2.6891983E-1,1.2471316E-3,3.3379616E1,2.1867648E4,1.3517073E-3,-2.766244E-4,2.9909959E-2,2.505265E4,1.1382143E1,7.995187E-3,-5.1304527E-2,-5.063208E-2,-1.1936055E-2,2.098877E-2,6.780071E-2,7.4030063E-3,6.301826E-2,-1.0528875E-2,3.5562377E-2,-3.8034193E-2,-5.1721586E-3,-6.643063E-4,-8.160516E-3,1.9128783E-2,1.1926332E-3],"split_indices":[3,20,5,19,7,20,21,24,20,4,10,7,6,5,0,0,0,0,0,0,0,0,0,0,0,0,0,0,0,0,0],"split_type":[0,0,0,0,0,0,0,0,0,0,0,0,0,0,0,0,0,0,0,0,0,0,0,0,0,0,0,0,0,0,0],"sum_hessian":[3.2167842E3,2.9287256E2,2.9239116E3,1.0890147E2,1.839711E2,6.833127E1,2.8555803E3,6.886095E1,4.004052E1,2.0159702E1,1.638114E2,2.3565725E1,4.4765545E1,1.7072784E3,1.148302E3,6.477109E1,4.089864E0,1.1786087E1,2.8254433E1,1.2902333E1,7.2573686E0,1.5876735E2,5.0440493E0,1.322936E1,1.0336365E1,3.296885E1,1.1796696E1,1.3044818E3,4.0279657E2,6.1441185E1,1.0868608E3],"tree_param":{"num_deleted":"0","num_feature":"26","num_nodes":"31","size_leaf_vector":"1"}},{"base_weights":[4.9771895E-3,-1.0201525E-2,1.1784398E-1,-1.2406777E-1,5.029179E-3,-4.261026E-3,2.2742872E-1,-2.2260086E-1,1.981741E-1,2.5896016E-1,-5.402293E-3,6.670901E-2,-5.755184E-1,3.447106E-1,-1.2925658E-1,-9.1073355E-3,-5.2044522E-2,-2.7619554E-3,2.202729E-2,-1.2951744E-3,3.208461E-2,1.2524287E-3,-4.5532486E-3,-1.3056169E-2,9.156797E-3,-8.673134E-3,-5.798747E-2,1.1980207E-2,2.7253965E-2,4.8956852E-3,-4.310396E-2],"categories":[],"categories_nodes":[],"categories_segments":[],"categories_sizes":[],"default_left":[0,0,0,0,0,0,0,0,0,0,0,0,0,0,0,0,0,0,0,0,0,0,0,0,0,0,0,0,0,0,0],"id":41,"left_children":[1,3,5,7,9,11,13,15,17,19,21,23,25,27,29,-1,-1,-1,-1,-1,-1,-1,-1,-1,-1,-1,-1,-1,-1,-1,-1],"loss_changes":[5.514415E0,4.9217134E0,5.10659E0,1.0674889E1,6.6335335E0,7.394886E0,8.457488E0,8.313951E0,4.8723593E0,1.079019E1,6.2781825E0,6.2424726E0,4.5332265E0,3.0624733E0,8.489946E0,0E0,0E0,0E0,0E0,0E0,0E0,0E0,0E0,0E0,0E0,0E0,0E0,0E0,0E0,0E0,0E0],"parents":[2147483647,0,0,1,1,2,2,3,3,4,4,5,5,6,6,7,7,8,8,9,9,10,10,11,11,12,12,13,13,14,14],"right_children":[2,4,6,8,10,12,14,16,18,20,22,24,26,28,30,-1,-1,-1,-1,-1,-1,-1,-1,-1,-1,-1,-1,-1,-1,-1,-1],"split_conditions":[1.9449997E-4,1.183928E-3,6.37311E-4,2.51408E4,1.1200027E1,6.0371653E-4,9.358021E-3,6.998672E1,9.659258E-1,2.2787102E-4,5.7799272E-5,2.266385E4,2.4577104E4,2.42024E4,9.9405634E-1,-9.1073355E-3,-5.2044522E-2,-2.7619554E-3,2.202729E-2,-1.2951744E-3,3.208461E-2,1.2524287E-3,-4.5532486E-3,-1.3056169E-2,9.156797E-3,-8.673134E-3,-5.798747E-2,1.1980207E-2,2.7253965E-2,4.8956852E-3,-4.310396E-2],"split_indices":[7,17,10,5,0,10,17,20,22,10,7,2,3,5,22,0,0,0,0,0,0,0,0,0,0,0,0,0,0,0,0],"split_type":[0,0,0,0,0,0,0,0,0,0,0,0,0,0,0,0,0,0,0,0,0,0,0,0,0,0,0,0,0,0,0],"sum_hessian":[3.21713E3,2.836568E3,3.8056183E2,3.3381186E2,2.502756E3,1.8045293E2,2.001089E2,2.5587976E2,7.793209E1,9.781609E1,2.4049402E3,1.6129741E2,1.9155525E1,1.5061777E2,4.949113E1,2.4499065E2,1.088912E1,3.847569E1,3.9456406E1,5.6612377E1,4.1203716E1,1.7747648E3,6.301754E2,4.1945465E1,1.19351944E2,1.2115082E1,7.0404425E0,1.0023421E2,5.0383564E1,3.8441044E1,1.1050087E1],"tree_param":{"num_deleted":"0","num_feature":"26","num_nodes":"31","size_leaf_vector":"1"}},{"base_weights":[-5.526171E-3,2.2987954E-1,-1.0725734E-2,-2.5168148E-1,3.8167617E-1,-8.477123E-3,-6.229481E-1,-6.3044834E-1,2.7334103E-1,6.2229645E-1,6.252011E-2,9.413883E-1,-1.0335197E-2,8.250003E-1,-1.0560386E0,1.0782261E-2,-4.4817112E-2,5.6421872E-2,-3.54743E-3,4.24654E-2,-7.331781E-3,-3.5983507E-2,1.2525712E-2,6.097529E-2,-8.688971E-3,-7.1388385E-3,7.928924E-5,5.2009195E-2,1.2549723E-2,-2.1970822E-2,-6.5849E-2],"categories":[],"categories_nodes":[],"categories_segments":[],"categories_sizes":[],"default_left":[0,0,0,0,0,0,0,0,0,0,0,0,0,0,0,0,0,0,0,0,0,0,0,0,0,0,0,0,0,0,0],"id":42,"left_children":[1,3,5,7,9,11,13,15,17,19,21,23,25,27,29,-1,-1,-1,-1,-1,-1,-1,-1,-1,-1,-1,-1,-1,-1,-1,-1],"loss_changes":[3.924878E0,5.1615806E0,4.312266E0,3.5949001E0,4.037819E0,5.5265274E0,8.05969E0,2.5105948E0,2.4088955E0,5.3882866E0,3.6992059E0,2.107997E0,4.927284E0,1.342578E-1,9.1164875E-1,0E0,0E0,0E0,0E0,0E0,0E0,0E0,0E0,0E0,0E0,0E0,0E0,0E0,0E0,0E0,0E0],"parents":[2147483647,0,0,1,1,2,2,3,3,4,4,5,5,6,6,7,7,8,8,9,9,10,10,11,11,12,12,13,13,14,14],"right_children":[2,4,6,8,10,12,14,16,18,20,22,24,26,28,30,-1,-1,-1,-1,-1,-1,-1,-1,-1,-1,-1,-1,-1,-1,-1,-1],"split_conditions":[1.7871803E1,-5.419497E-2,2.0320613E-2,2.3902812E4,-1.04528464E-1,-2.0361E1,2.1986281E4,5.6159036E-4,-6.593458E-1,1.2865551E-1,-2.094242E-2,2.5190318E4,-5.8155217E0,5.0936836E-1,2.2364162E4,1.0782261E-2,-4.4817112E-2,5.6421872E-2,-3.54743E-3,4.24654E-2,-7.331781E-3,-3.5983507E-2,1.2525712E-2,6.097529E-2,-8.688971E-3,-7.1388385E-3,7.928924E-5,5.2009195E-2,1.2549723E-2,-2.1970822E-2,-6.5849E-2],"split_indices":[20,18,17,2,21,19,2,10,21,18,21,2,19,18,3,0,0,0,0,0,0,0,0,0,0,0,0,0,0,0,0],"split_type":[0,0,0,0,0,0,0,0,0,0,0,0,0,0,0,0,0,0,0,0,0,0,0,0,0,0,0,0,0,0,0],"sum_hessian":[3.2035674E3,6.829639E1,3.135271E3,1.6210869E1,5.208552E1,3.1248076E3,1.0463153E1,9.3004465E0,6.9104214E0,2.9154982E1,2.293054E1,5.1134496E0,3.1196943E3,2.2006893E0,8.262464E0,2.2690728E0,7.031374E0,1.3298795E0,5.580542E0,2.2428804E1,6.726176E0,3.8952708E0,1.9035269E1,4.0178537E0,1.0955961E0,2.5670755E2,2.8629868E3,1.0099357E0,1.1907536E0,3.2548945E0,5.0075693E0],"tree_param":{"num_deleted":"0","num_feature":"26","num_nodes":"31","size_leaf_vector":"1"}},{"base_weights":[-2.174002E-3,5.0177134E-4,-6.577698E-1,-2.166991E-2,6.3774146E-2,2.7290702E-1,-9.8834467E-1,2.0168956E-2,-1.0787238E-1,7.3661424E-2,-9.1509545E-1,-2.3836827E-2,3.3929203E-2,-1.0996003E0,-1.8572325E-2,1.8008853E-3,-1.4291515E-2,-3.0175224E-2,-4.3951184E-3,9.889706E-3,1.7457944E-4,-6.7327216E-2,3.539091E-2,-6.2340435E-2,-1.3627516E-2],"categories":[],"categories_nodes":[],"categories_segments":[],"categories_sizes":[],"default_left":[0,0,0,0,0,0,0,0,0,0,0,0,0,0,0,0,0,0,0,0,0,0,0,0,0],"id":43,"left_children":[1,3,5,7,9,11,13,15,17,19,21,-1,-1,23,-1,-1,-1,-1,-1,-1,-1,-1,-1,-1,-1],"loss_changes":[5.6375804E0,4.4925704E0,4.2887464E0,8.555149E0,8.110056E0,1.6030648E0,2.679901E-1,7.7572575E0,7.618325E0,7.1732554E0,6.8237524E0,0E0,0E0,6.146612E-1,0E0,0E0,0E0,0E0,0E0,0E0,0E0,0E0,0E0,0E0,0E0],"parents":[2147483647,0,0,1,1,2,2,3,3,4,4,5,5,6,6,7,7,8,8,9,9,10,10,13,13],"right_children":[2,4,6,8,10,12,14,16,18,20,22,-1,-1,24,-1,-1,-1,-1,-1,-1,-1,-1,-1,-1,-1],"split_conditions":[2.62223E4,2.405E1,4.847272E-2,1.2831248E0,2.58844E4,3.2960007E-4,1.5596429E1,6.9031713E-4,1.4013153E0,7.171299E-4,9.172538E-4,-2.3836827E-2,3.3929203E-2,3.176857E-3,-1.8572325E-2,1.8008853E-3,-1.4291515E-2,-3.0175224E-2,-4.3951184E-3,9.889706E-3,1.7457944E-4,-6.7327216E-2,3.539091E-2,-6.2340435E-2,-1.3627516E-2],"split_indices":[5,0,18,19,5,10,0,10,19,10,10,0,0,17,0,0,0,0,0,0,0,0,0,0,0],"split_type":[0,0,0,0,0,0,0,0,0,0,0,0,0,0,0,0,0,0,0,0,0,0,0,0,0],"sum_hessian":[3.2125264E3,3.2004631E3,1.2063255E1,2.3704692E3,8.2999384E2,3.2075095E0,8.855745E0,1.596409E3,7.7406024E2,8.226097E2,7.3841887E0,1.0647725E0,2.1427372E0,6.8397512E0,2.015994E0,1.518636E3,7.777306E1,2.8848713E1,7.4521155E2,2.9641794E2,5.261917E2,5.9679193E0,1.4162691E0,5.3754306E0,1.4643205E0],"tree_param":{"num_deleted":"0","num_feature":"26","num_nodes":"25","size_leaf_vector":"1"}},{"base_weights":[-6.842379E-3,-9.2403665E-3,6.2221503E-1,4.2877197E-2,-3.3940166E-2,-2.563942E-2,8.237721E-1,3.8720068E-1,1.696926E-2,-6.1956383E-2,6.469704E-2,1.1168554E0,-1.345267E-1,-5.310254E-2,2.246388E-2,4.1091223E-3,-5.4130116E-3,-2.7431645E-3,-3.189594E-2,2.94158E-2,1.3818652E-3,6.4825654E-2,1.751908E-3,2.6998157E-2,-3.638497E-2],"categories":[],"categories_nodes":[],"categories_segments":[],"categories_sizes":[],"default_left":[0,0,0,0,0,0,0,0,0,0,0,0,0,0,0,0,0,0,0,0,0,0,0,0,0],"id":44,"left_children":[1,3,5,7,9,-1,11,13,15,17,19,21,23,-1,-1,-1,-1,-1,-1,-1,-1,-1,-1,-1,-1],"loss_changes":[4.835621E0,4.1087675E0,3.2073874E0,9.1493225E0,5.987669E0,0E0,3.161528E0,6.9345512E0,7.812805E0,6.8563128E0,9.287752E0,1.5712357E0,1.7546644E0,0E0,0E0,0E0,0E0,0E0,0E0,0E0,0E0,0E0,0E0,0E0,0E0],"parents":[2147483647,0,0,1,1,2,2,3,3,4,4,6,6,7,7,8,8,9,9,10,10,11,11,12,12],"right_children":[2,4,6,8,10,-1,12,14,16,18,20,22,24,-1,-1,-1,-1,-1,-1,-1,-1,-1,-1,-1,-1],"split_conditions":[1.259315E0,-1.7759595E0,6.583748E1,1.2764341E1,8.575811E-1,-2.563942E-2,2.5030457E4,2.170636E4,2.4692959E4,1.8098296E0,0E0,-4.3619387E-2,2.53323E-3,-5.310254E-2,2.246388E-2,4.1091223E-3,-5.4130116E-3,-2.7431645E-3,-3.189594E-2,2.94158E-2,1.3818652E-3,6.4825654E-2,1.751908E-3,2.6998157E-2,-3.638497E-2],"split_indices":[18,19,20,0,18,0,2,2,2,6,19,21,17,0,0,0,0,0,0,0,0,0,0,0,0],"split_type":[0,0,0,0,0,0,0,0,0,0,0,0,0,0,0,0,0,0,0,0,0,0,0,0,0],"sum_hessian":[3.200831E3,3.1896572E3,1.1173765E1,1.0253635E3,2.1642937E3,1.4521749E0,9.721591E0,7.077671E1,9.545868E2,1.6858334E3,4.7846033E2,7.3180137E0,2.4035769E0,2.2454586E0,6.853125E1,6.2793414E2,3.266526E2,1.6664065E3,1.9426872E1,3.0642073E1,4.4781824E2,6.105597E0,1.2124165E0,1.1666715E0,1.2369053E0],"tree_param":{"num_deleted":"0","num_feature":"26","num_nodes":"25","size_leaf_vector":"1"}},{"base_weights":[-9.600456E-3,-6.17205E-3,-4.518788E-1,-8.056331E-3,8.250664E-1,4.830859E-1,-6.675066E-1,4.8507327E-1,-1.0644745E-2,6.789035E-2,-2.1753026E-2,-1.9556507E-2,9.3712497E-1,-8.275427E-1,3.40357E-2,3.0760402E-2,-2.4563404E-2,9.56248E-3,-8.411795E-4,5.797557E-2,1.3533038E-2,-5.0089616E-2,1.6898852E-2],"categories":[],"categories_nodes":[],"categories_segments":[],"categories_sizes":[],"default_left":[0,0,0,0,0,0,0,0,0,0,0,0,0,0,0,0,0,0,0,0,0,0,0],"id":45,"left_children":[1,3,5,7,9,11,13,15,17,-1,-1,-1,19,21,-1,-1,-1,-1,-1,-1,-1,-1,-1],"loss_changes":[4.8626947E0,4.9954276E0,5.295679E0,4.0627666E0,5.4332595E0,2.431798E0,4.9789534E0,2.4139233E0,3.949308E0,0E0,0E0,0E0,2.3736739E-1,4.1455135E0,0E0,0E0,0E0,0E0,0E0,0E0,0E0,0E0,0E0],"parents":[2147483647,0,0,1,1,2,2,3,3,4,4,5,5,6,6,7,7,8,8,12,12,13,13],"right_children":[2,4,6,8,10,12,14,16,18,-1,-1,-1,20,22,-1,-1,-1,-1,-1,-1,-1,-1,-1],"split_conditions":[2.61922E4,2.6210307E4,3.8326138E1,2.1283338E4,-6.1989564E-1,2.9613916E1,2.3332087E1,9.872826E-1,-8.09017E-1,6.789035E-2,-2.1753026E-2,-1.9556507E-2,1.4678572E1,1.7557536E0,3.40357E-2,3.0760402E-2,-2.4563404E-2,9.56248E-3,-8.411795E-4,5.797557E-2,1.3533038E-2,-5.0089616E-2,1.6898852E-2],"split_indices":[5,3,20,4,6,20,0,6,21,0,0,0,0,6,0,0,0,0,0,0,0,0,0],"split_type":[0,0,0,0,0,0,0,0,0,0,0,0,0,0,0,0,0,0,0,0,0,0,0],"sum_hessian":[3.207767E3,3.1840989E3,2.36682E1,3.1778853E3,6.213439E0,4.2031074E0,1.9465094E1,1.5620165E1,3.1622651E3,4.3126674E0,1.9007714E0,1.4841154E0,2.718992E0,1.7744934E1,1.7201587E0,1.4109428E1,1.510736E0,9.3015724E1,3.0692495E3,1.4840102E0,1.2349818E0,1.5559246E1,2.1856887E0],"tree_param":{"num_deleted":"0","num_feature":"26","num_nodes":"23","size_leaf_vector":"1"}},{"base_weights":[2.4830313E-5,4.8438543E-1,-2.4580557E-3,6.4814675E-1,-2.2837346E-2,-2.7912024E-2,4.2562418E-2,1.125449E0,2.4978352E-1,9.450849E-1,-3.1378545E-2,6.502616E-2,-3.33013E-1,6.2210362E-2,1.76975E-2,3.7453473E-2,-1.378433E-3,6.1818946E-2,-2.111553E-2,-1.7233962E-3,4.0034547E-2,1.2988633E-3,1.0090883E-2,-2.9834324E-2,-4.357235E-3],"categories":[],"categories_nodes":[],"categories_segments":[],"categories_sizes":[],"default_left":[0,0,0,0,0,0,0,0,0,0,0,0,0,0,0,0,0,0,0,0,0,0,0,0,0],"id":46,"left_children":[1,3,5,7,-1,9,11,13,15,17,19,21,23,-1,-1,-1,-1,-1,-1,-1,-1,-1,-1,-1,-1],"loss_changes":[3.848819E0,2.8115792E0,3.6499727E0,2.4409394E0,0E0,6.8923626E0,9.727543E0,1.301899E-1,1.2792194E0,3.4120255E0,5.24175E0,5.7974534E0,4.167615E0,0E0,0E0,0E0,0E0,0E0,0E0,0E0,0E0,0E0,0E0,0E0,0E0],"parents":[2147483647,0,0,1,1,2,2,3,3,5,5,6,6,7,7,8,8,9,9,10,10,11,11,12,12],"right_children":[2,4,6,8,-1,10,12,14,16,18,20,22,24,-1,-1,-1,-1,-1,-1,-1,-1,-1,-1,-1,-1],"split_conditions":[2.1283338E4,1.6040224E-1,9.713421E-1,-6.803967E-5,-2.2837346E-2,-2.0361E1,9.628342E-3,1.6183145E-1,-2.1358614E-1,2.5170984E4,8.646263E-4,2.5485714E1,9.877007E-4,6.2210362E-2,1.76975E-2,3.7453473E-2,-1.378433E-3,6.1818946E-2,-2.111553E-2,-1.7233962E-3,4.0034547E-2,1.2988633E-3,1.0090883E-2,