{"learner":{"attributes":{"feature_schema":"{\"feature_names\":[\"atr_1t\",\"cvd_divergence\",\"ema_21\",\"ema_50\",\"ema_8\",\"last_price\",\"last_zscore\",\"mean_drift_pct\",\"micro_imbalance\",\"micro_slope\",\"rv_10\",\"struct_fvg_down_present\",\"struct_fvg_up_present\",\"struct_ob_bear_present\",\"struct_ob_bull_present\",\"struct_pivot_swipe_down\",\"struct_pivot_swipe_up\",\"ta_bb_bw\",\"ta_bb_pctb\",\"ta_macd_hist\",\"ta_rsi14\",\"tod_cos\",\"tod_sin\",\"vwap_reversion_flag\",\"wick_extreme_down\",\"wick_extreme_up\"]}","scikit_learn":"{\"_estimator_type\": \"classifier\"}"},"feature_names":[],"feature_types":[],"gradient_booster":{"model":{"cats":{"enc":[],"feature_segments":[],"sorted_idx":[]},"gbtree_model_param":{"num_parallel_tree":"1","num_trees":"300"},"iteration_indptr":[0,1,2,3,4,5,6,7,8,9,10,11,12,13,14,15,16,17,18,19,20,21,22,23,24,25,26,27,28,29,30,31,32,33,34,35,36,37,38,39,40,41,42,43,44,45,46,47,48,49,50,51,52,53,54,55,56,57,58,59,60,61,62,63,64,65,66,67,68,69,70,71,72,73,74,75,76,77,78,79,80,81,82,83,84,85,86,87,88,89,90,91,92,93,94,95,96,97,98,99,100,101,102,103,104,105,106,107,108,109,110,111,112,113,114,115,116,117,118,119,120,121,122,123,124,125,126,127,128,129,130,131,132,133,134,135,136,137,138,139,140,141,142,143,144,145,146,147,148,149,150,151,152,153,154,155,156,157,158,159,160,161,162,163,164,165,166,167,168,169,170,171,172,173,174,175,176,177,178,179,180,181,182,183,184,185,186,187,188,189,190,191,192,193,194,195,196,197,198,199,200,201,202,203,204,205,206,207,208,209,210,211,212,213,214,215,216,217,218,219,220,221,222,223,224,225,226,227,228,229,230,231,232,233,234,235,236,237,238,239,240,241,242,243,244,245,246,247,248,249,250,251,252,253,254,255,256,257,258,259,260,261,262,263,264,265,266,267,268,269,270,271,272,273,274,275,276,277,278,279,280,281,282,283,284,285,286,287,288,289,290,291,292,293,294,295,296,297,298,299,300],"tree_info":[0,0,0,0,0,0,0,0,0,0,0,0,0,0,0,0,0,0,0,0,0,0,0,0,0,0,0,0,0,0,0,0,0,0,0,0,0,0,0,0,0,0,0,0,0,0,0,0,0,0,0,0,0,0,0,0,0,0,0,0,0,0,0,0,0,0,0,0,0,0,0,0,0,0,0,0,0,0,0,0,0,0,0,0,0,0,0,0,0,0,0,0,0,0,0,0,0,0,0,0,0,0,0,0,0,0,0,0,0,0,0,0,0,0,0,0,0,0,0,0,0,0,0,0,0,0,0,0,0,0,0,0,0,0,0,0,0,0,0,0,0,0,0,0,0,0,0,0,0,0,0,0,0,0,0,0,0,0,0,0,0,0,0,0,0,0,0,0,0,0,0,0,0,0,0,0,0,0,0,0,0,0,0,0,0,0,0,0,0,0,0,0,0,0,0,0,0,0,0,0,0,0,0,0,0,0,0,0,0,0,0,0,0,0,0,0,0,0,0,0,0,0,0,0,0,0,0,0,0,0,0,0,0,0,0,0,0,0,0,0,0,0,0,0,0,0,0,0,0,0,0,0,0,0,0,0,0,0,0,0,0,0,0,0,0,0,0,0,0,0,0,0,0,0,0,0,0,0,0,0,0,0,0,0,0,0,0,0,0,0,0,0,0,0,0,0,0,0,0,0],"trees":[{"base_weights":[-8.020713E-3,-3.2610815E-2,2.4189092E-1,6.496957E-2,-1.019998E-1,2.8738025E-1,-2.4621625E-1,3.644056E-1,3.223518E-2,-1.7026384E-1,1.494332E-2,5.098395E-2,4.551587E-1,-5.794267E-1,1.1722281E0,2.335524E-2,-9.308766E-3,2.897125E-2,6.1831897E-4,-2.705636E-2,-6.791429E-3,8.988212E-3,-3.819919E-3,4.9326178E-2,-9.807065E-4,3.2275002E-2,1.1070013E-2,5.2842695E-2,-3.60848E-2,-7.3593766E-3,7.669741E-2],"categories":[],"categories_nodes":[],"categories_segments":[],"categories_sizes":[],"default_left":[0,0,0,0,0,0,0,0,0,0,0,0,0,0,0,0,0,0,0,0,0,0,0,0,0,0,0,0,0,0,0],"id":0,"left_children":[1,3,5,7,9,11,13,15,17,19,21,23,25,27,29,-1,-1,-1,-1,-1,-1,-1,-1,-1,-1,-1,-1,-1,-1,-1,-1],"loss_changes":[1.9790615E1,1.9856798E1,6.4763317E0,1.1936138E1,1.3683054E1,1.0461864E1,1.2557912E1,6.8737326E0,1.1951115E1,1.3746307E1,9.536932E0,7.3417E0,6.7311134E0,5.6562448E0,2.6653671E0,0E0,0E0,0E0,0E0,0E0,0E0,0E0,0E0,0E0,0E0,0E0,0E0,0E0,0E0,0E0,0E0],"parents":[2147483647,0,0,1,1,2,2,3,3,4,4,5,5,6,6,7,7,8,8,9,9,10,10,11,11,12,12,13,13,14,14],"right_children":[2,4,6,8,10,12,14,16,18,20,22,24,26,28,30,-1,-1,-1,-1,-1,-1,-1,-1,-1,-1,-1,-1,-1,-1,-1,-1],"split_conditions":[2.3940092E-4,-1.1561316E0,1.21123595E-2,2.6516913E-4,-2.3768589E-1,6.374695E-4,2.4399896E0,-4.3619387E-2,1.5395509E1,1.1873413E-3,-6.5403126E-2,8.7510496E-1,8.981719E0,6.0097384E-4,9.503805E-4,2.335524E-2,-9.308766E-3,2.897125E-2,6.1831897E-4,-2.705636E-2,-6.791429E-3,8.988212E-3,-3.819919E-3,4.9326178E-2,-9.807065E-4,3.2275002E-2,1.1070013E-2,5.2842695E-2,-3.60848E-2,-7.3593766E-3,7.669741E-2],"split_indices":[7,19,17,10,21,10,6,21,20,17,21,19,19,10,10,0,0,0,0,0,0,0,0,0,0,0,0,0,0,0,0],"split_type":[0,0,0,0,0,0,0,0,0,0,0,0,0,0,0,0,0,0,0,0,0,0,0,0,0,0,0,0,0,0,0],"sum_hessian":[3.2181357E3,2.930644E3,2.874918E2,1.2179408E3,1.7127031E3,2.6335916E2,2.4132612E1,1.19025894E2,1.0989149E3,1.0811436E3,6.315596E2,1.0986525E2,1.5349391E2,2.0020945E1,4.111667E0,1.0044216E2,1.8583736E1,3.7517403E1,1.0613976E3,9.060665E1,9.905369E2,2.2485446E2,4.0670514E2,6.798623E0,1.0306663E2,8.3633064E1,6.9860855E1,1.0872798E0,1.8933666E1,1.012295E0,3.0993724E0],"tree_param":{"num_deleted":"0","num_feature":"26","num_nodes":"31","size_leaf_vector":"1"}},{"base_weights":[9.846606E-3,-1.9948326E-2,2.3121554E-1,9.964036E-2,-8.853026E-2,4.0083423E-2,3.8754585E-1,-7.6908246E-2,1.80283E-1,-8.010037E-2,-9.686742E-1,1.209896E0,-1.7452552E-3,7.067603E-1,1.9374438E-1,2.3504747E-2,-6.6694403E-3,-1.0307789E-3,1.2759509E-2,-6.0254275E-3,4.6308516E-3,-5.845199E-2,1.7801834E-2,-9.170515E-3,7.681515E-2,-7.3631494E-3,1.4275255E-2,3.8276874E-3,4.2137157E-2,2.0072913E-2,-8.305168E-3],"categories":[],"categories_nodes":[],"categories_segments":[],"categories_sizes":[],"default_left":[0,0,0,0,0,0,0,0,0,0,0,0,0,0,0,0,0,0,0,0,0,0,0,0,0,0,0,0,0,0,0],"id":1,"left_children":[1,3,5,7,9,11,13,15,17,19,21,23,25,27,29,-1,-1,-1,-1,-1,-1,-1,-1,-1,-1,-1,-1,-1,-1,-1,-1],"loss_changes":[2.1197727E1,2.3243475E1,1.137616E1,1.4720765E1,1.3284598E1,8.450075E0,1.2830021E1,1.0091032E1,1.0680647E1,1.246873E1,4.927266E0,2.993043E0,7.0513372E0,6.6887703E0,9.918079E0,0E0,0E0,0E0,0E0,0E0,0E0,0E0,0E0,0E0,0E0,0E0,0E0,0E0,0E0,0E0,0E0],"parents":[2147483647,0,0,1,1,2,2,3,3,4,4,5,5,6,6,7,7,8,8,9,9,10,10,11,11,12,12,13,13,14,14],"right_children":[2,4,6,8,10,12,14,16,18,20,22,24,26,28,30,-1,-1,-1,-1,-1,-1,-1,-1,-1,-1,-1,-1,-1,-1,-1,-1],"split_conditions":[1.9885301E-4,-1.7438707E0,6.374695E-4,-5.6816754E0,2.61922E4,5.076142E1,6.551402E0,1.5395509E1,-6.37424E-1,2.5134291E4,1E0,1.5002821E-4,2.2717802E1,5.4054054E1,8.786816E-3,2.3504747E-2,-6.6694403E-3,-1.0307789E-3,1.2759509E-2,-6.0254275E-3,4.6308516E-3,-5.845199E-2,1.7801834E-2,-9.170515E-3,7.681515E-2,-7.3631494E-3,1.4275255E-2,3.8276874E-3,4.2137157E-2,2.0072913E-2,-8.305168E-3],"split_indices":[7,19,10,19,5,20,19,20,21,3,16,10,0,20,17,0,0,0,0,0,0,0,0,0,0,0,0,0,0,0,0],"split_type":[0,0,0,0,0,0,0,0,0,0,0,0,0,0,0,0,0,0,0,0,0,0,0,0,0,0,0,0,0,0,0],"sum_hessian":[3.212185E3,2.8319336E3,3.802514E2,1.0319805E3,1.799953E3,1.7164801E2,2.086034E2,3.2359332E2,7.083872E2,1.7839575E3,1.5995461E1,4.9616513E0,1.6668636E2,7.780399E1,1.3079941E2,2.9599998E1,2.9399332E2,1.9259052E2,5.157967E2,1.4459678E3,3.3798972E2,1.3996041E1,1.9994206E0,1.0248884E0,3.936763E0,1.1096175E2,5.5724613E1,1.4086E1,6.371799E1,8.285666E1,4.794275E1],"tree_param":{"num_deleted":"0","num_feature":"26","num_nodes":"31","size_leaf_vector":"1"}},{"base_weights":[-8.296724E-4,-2.8585743E-2,1.995903E-1,7.026197E-2,-8.640228E-2,-6.1316774E-3,3.8773608E-1,4.2184368E-1,4.006635E-2,-1.5469545E-1,4.5941688E-2,5.787194E-1,-6.617852E-2,3.200146E-1,9.876159E-1,2.493038E-2,-3.6295258E-2,2.5214178E-2,1.0605665E-3,-1.913889E-2,-6.0090427E-3,-1.5944865E-3,1.1211105E-2,4.168137E-2,-3.615991E-2,-1.3336367E-2,6.1166184E-3,2.13771E-2,-8.923153E-3,4.3838318E-3,6.2274575E-2],"categories":[],"categories_nodes":[],"categories_segments":[],"categories_sizes":[],"default_left":[0,0,0,0,0,0,0,0,0,0,0,0,0,0,0,0,0,0,0,0,0,0,0,0,0,0,0,0,0,0,0],"id":2,"left_children":[1,3,5,7,9,11,13,15,17,19,21,23,25,27,29,-1,-1,-1,-1,-1,-1,-1,-1,-1,-1,-1,-1,-1,-1,-1,-1],"loss_changes":[1.7940441E1,1.6195065E1,1.5186784E1,1.1087177E1,1.6165127E1,6.654027E0,8.008802E0,7.6413984E0,8.429928E0,9.23892E0,8.461519E0,6.4580774E0,6.5253735E0,1.002515E1,4.6036835E0,0E0,0E0,0E0,0E0,0E0,0E0,0E0,0E0,0E0,0E0,0E0,0E0,0E0,0E0,0E0,0E0],"parents":[2147483647,0,0,1,1,2,2,3,3,4,4,5,5,6,6,7,7,8,8,9,9,10,10,11,11,12,12,13,13,14,14],"right_children":[2,4,6,8,10,12,14,16,18,20,22,24,26,28,30,-1,-1,-1,-1,-1,-1,-1,-1,-1,-1,-1,-1,-1,-1,-1,-1],"split_conditions":[1.9445678E-4,-1.7438707E0,6.42685E-4,2.6516913E-4,9.713421E-1,5.880734E1,2.30817E0,9.99762E-1,1.5395509E1,1.2105197E-3,3.62612E-3,6.1482226E-4,7.5073746E1,1.0164337E-2,-7.7988446E-1,2.493038E-2,-3.6295258E-2,2.5214178E-2,1.0605665E-3,-1.913889E-2,-6.0090427E-3,-1.5944865E-3,1.1211105E-2,4.168137E-2,-3.615991E-2,-1.3336367E-2,6.1166184E-3,2.13771E-2,-8.923153E-3,4.3838318E-3,6.2274575E-2],"split_indices":[7,19,10,10,22,20,6,22,20,17,17,10,20,17,21,0,0,0,0,0,0,0,0,0,0,0,0,0,0,0,0],"split_type":[0,0,0,0,0,0,0,0,0,0,0,0,0,0,0,0,0,0,0,0,0,0,0,0,0,0,0,0,0,0,0],"sum_hessian":[3.2230076E3,2.8317036E3,3.9130396E2,1.0449535E3,1.78675E3,1.8738322E2,2.0392075E2,8.162184E1,9.633316E2,1.178462E3,6.08288E2,1.6643097E1,1.7074013E2,1.8461293E2,1.9307814E1,7.703514E1,4.5866985E0,3.659537E1,9.267362E2,1.5356567E2,1.0248964E3,4.240032E2,1.8428485E2,1.4218824E1,2.4242716E0,8.252758E1,8.821254E1,1.5197293E2,3.2640003E1,4.598807E0,1.4709006E1],"tree_param":{"num_deleted":"0","num_feature":"26","num_nodes":"31","size_leaf_vector":"1"}},{"base_weights":[3.983935E-3,-3.4979455E-2,1.1128192E-1,5.5687927E-2,-1.1406362E-1,6.1752874E-2,4.1710877E-1,8.026675E-2,-4.3999323E-1,-1.8449591E-1,2.3141887E-2,8.860181E-2,-3.516768E-1,6.6493386E-1,9.21811E-2,3.4655363E-3,4.037124E-2,-2.4892656E-2,4.313445E-2,2.3544576E-2,-1.0273584E-2,-8.938968E-3,6.3110553E-3,2.3283295E-3,2.1398969E-2,3.9969314E-2,-2.0465113E-2,4.10203E-2,-1.4158423E-2,-4.726262E-2,1.0621212E-2],"categories":[],"categories_nodes":[],"categories_segments":[],"categories_sizes":[],"default_left":[0,0,0,0,0,0,0,0,0,0,0,0,0,0,0,0,0,0,0,0,0,0,0,0,0,0,0,0,0,0,0],"id":3,"left_children":[1,3,5,7,9,11,13,15,17,19,21,23,25,27,29,-1,-1,-1,-1,-1,-1,-1,-1,-1,-1,-1,-1,-1,-1,-1,-1],"loss_changes":[1.347379E1,1.695981E1,1.2978923E1,1.3463644E1,1.2211332E1,8.245907E0,9.560617E0,8.31686E0,4.365901E0,1.1573191E1,8.95945E0,9.905172E0,3.3340354E0,1.0200687E1,6.7951455E0,0E0,0E0,0E0,0E0,0E0,0E0,0E0,0E0,0E0,0E0,0E0,0E0,0E0,0E0,0E0,0E0],"parents":[2147483647,0,0,1,1,2,2,3,3,4,4,5,5,6,6,7,7,8,8,9,9,10,10,11,11,12,12,13,13,14,14],"right_children":[2,4,6,8,10,12,14,16,18,20,22,24,26,28,30,-1,-1,-1,-1,-1,-1,-1,-1,-1,-1,-1,-1,-1,-1,-1,-1],"split_conditions":[2.3792856E1,-3.3377677E-1,8.652396E-1,6.9981226E-4,9.713421E-1,8.981719E0,1.0590708E1,1.4317042E0,-5.418083E-1,5.7357645E-1,5.5044425E-1,1.9885301E-4,2.4757143E1,2.4790191E4,2.5767857E1,3.4655363E-3,4.037124E-2,-2.4892656E-2,4.313445E-2,2.3544576E-2,-1.0273584E-2,-8.938968E-3,6.3110553E-3,2.3283295E-3,2.1398969E-2,3.9969314E-2,-2.0465113E-2,4.10203E-2,-1.4158423E-2,-4.726262E-2,1.0621212E-2],"split_indices":[0,19,18,10,22,19,19,6,19,22,18,7,0,3,0,0,0,0,0,0,0,0,0,0,0,0,0,0,0,0,0],"split_type":[0,0,0,0,0,0,0,0,0,0,0,0,0,0,0,0,0,0,0,0,0,0,0,0,0,0,0,0,0,0,0],"sum_hessian":[3.2209294E3,2.3633823E3,8.5754706E2,1.1011948E3,1.2621876E3,7.390576E2,1.184894E2,1.0499691E3,5.122566E1,8.338164E2,4.2837122E2,6.9472644E2,4.4331215E1,6.662644E1,5.1862957E1,1.0354633E3,1.45059185E1,4.963873E1,1.5869275E0,2.5193605E1,8.086228E2,1.4452591E2,2.838453E2,6.1917303E2,7.5553406E1,1.4998454E0,4.2831367E1,5.7355785E1,9.270656E0,4.6741514E0,4.718881E1],"tree_param":{"num_deleted":"0","num_feature":"26","num_nodes":"31","size_leaf_vector":"1"}},{"base_weights":[3.1637598E-3,-1.6474467E-2,2.4424969E-1,-1.0032029E-2,-7.221007E-1,4.1688386E-2,3.8307956E-1,-1.6428716E-2,7.0861113E-1,5.1286167E-1,-1.0253353E0,-8.915918E-1,1.2772846E-1,1.5149723E0,3.2084724E-1,-3.3182192E-3,3.8003523E-3,4.6289645E-2,-8.035869E-3,6.038148E-2,6.4050907E-4,-5.8821846E-2,1.0632632E-2,2.6274656E-3,-6.013256E-2,1.0397787E-2,-4.6113025E-2,8.251511E-2,1.9454548E-2,2.6637128E-2,4.2235395E-3],"categories":[],"categories_nodes":[],"categories_segments":[],"categories_sizes":[],"default_left":[0,0,0,0,0,0,0,0,0,0,0,0,0,0,0,0,0,0,0,0,0,0,0,0,0,0,0,0,0,0,0],"id":4,"left_children":[1,3,5,7,9,11,13,15,17,19,21,23,25,27,29,-1,-1,-1,-1,-1,-1,-1,-1,-1,-1,-1,-1,-1,-1,-1,-1],"loss_changes":[1.5313463E1,1.3589556E1,6.8350983E0,1.3641193E1,1.0654389E1,8.159392E0,9.687582E0,1.3574421E1,5.0917807E0,2.0685167E0,4.3745556E0,2.583767E0,7.993149E0,4.6379852E-1,6.8755903E0,0E0,0E0,0E0,0E0,0E0,0E0,0E0,0E0,0E0,0E0,0E0,0E0,0E0,0E0,0E0,0E0],"parents":[2147483647,0,0,1,1,2,2,3,3,4,4,5,5,6,6,7,7,8,8,9,9,10,10,11,11,12,12,13,13,14,14],"right_children":[2,4,6,8,10,12,14,16,18,20,22,24,26,28,30,-1,-1,-1,-1,-1,-1,-1,-1,-1,-1,-1,-1,-1,-1,-1,-1],"split_conditions":[2.6725922E-4,2.61922E4,2.33773E4,2.61278E4,3.542573E1,4.4368033E-4,2.3500848E4,9.713421E-1,1.21729674E-4,-5.645322E-3,1.7557536E0,4.433197E0,2.324147E4,7.7810005E1,8.981719E0,-3.3182192E-3,3.8003523E-3,4.6289645E-2,-8.035869E-3,6.038148E-2,6.4050907E-4,-5.8821846E-2,1.0632632E-2,2.6274656E-3,-6.013256E-2,1.0397787E-2,-4.6113025E-2,8.251511E-2,1.9454548E-2,2.6637128E-2,4.2235395E-3],"split_indices":[7,5,2,5,20,10,4,22,7,18,6,19,2,20,19,0,0,0,0,0,0,0,0,0,0,0,0,0,0,0,0],"split_type":[0,0,0,0,0,0,0,0,0,0,0,0,0,0,0,0,0,0,0,0,0,0,0,0,0,0,0,0,0,0,0],"sum_hessian":[3.2325913E3,2.989968E3,2.4262328E2,2.9639214E3,2.6046682E1,9.919377E1,1.434295E2,2.9387405E3,2.518077E1,4.9984694E0,2.1048214E1,7.5825906E0,9.161118E1,6.2583137E0,1.3717119E2,1.9081833E3,1.0305571E3,2.0095436E1,5.085335E0,1.4997363E0,3.498733E0,1.8802954E1,2.2452593E0,2.0850418E0,5.4975486E0,8.585327E1,5.75791E0,5.1709795E0,1.0873343E0,7.167008E1,6.5501114E1],"tree_param":{"num_deleted":"0","num_feature":"26","num_nodes":"31","size_leaf_vector":"1"}},{"base_weights":[1.7600238E-3,-2.0722581E-2,2.0858969E-1,-1.396378E-2,-7.9733944E-1,-1.5663642E-2,3.0093467E-1,-1.8209599E-1,8.346352E-3,4.3125458E-2,-9.077192E-1,-1.5701167E-1,5.4526925E-1,5.0338167E-1,7.3404945E-2,-1.1485161E-2,2.7522549E-2,3.0396727E-3,-5.630128E-3,-6.899323E-2,-1.3247437E-2,1.9527173E-2,-1.804964E-2,4.0096164E-2,-2.5687918E-2,2.1286767E-3,3.2175705E-2,-1.4695455E-2,1.29311355E-2],"categories":[],"categories_nodes":[],"categories_segments":[],"categories_sizes":[],"default_left":[0,0,0,0,0,0,0,0,0,0,0,0,0,0,0,0,0,0,0,0,0,0,0,0,0,0,0,0,0],"id":5,"left_children":[1,3,5,7,9,11,13,15,17,-1,19,21,23,25,27,-1,-1,-1,-1,-1,-1,-1,-1,-1,-1,-1,-1,-1,-1],"loss_changes":[1.5095379E1,1.5358274E1,6.5957727E0,1.0893898E1,5.408125E0,7.521494E0,1.0349756E1,1.1991571E1,1.6275158E1,0E0,6.965912E0,8.594316E0,5.6033382E0,7.6667137E0,7.3786144E0,0E0,0E0,0E0,0E0,0E0,0E0,0E0,0E0,0E0,0E0,0E0,0E0,0E0,0E0],"parents":[2147483647,0,0,1,1,2,2,3,3,4,4,5,5,6,6,7,7,8,8,10,10,11,11,12,12,13,13,14,14],"right_children":[2,4,6,8,10,12,14,16,18,-1,20,22,24,26,28,-1,-1,-1,-1,-1,-1,-1,-1,-1,-1,-1,-1,-1,-1],"split_conditions":[2.2452252E-4,2.61922E4,2.2039398E1,1.1873413E-3,-6.691409E-2,2.1814885E-2,8.981719E0,3.9642746E1,1.2860898E0,4.3125458E-2,2.6084625E-3,1.6860714E1,2.1235659E1,6.5207505E-1,8.652396E-1,-1.1485161E-2,2.7522549E-2,3.0396727E-3,-5.630128E-3,-6.899323E-2,-1.3247437E-2,1.9527173E-2,-1.804964E-2,4.0096164E-2,-2.5687918E-2,2.1286767E-3,3.2175705E-2,-1.4695455E-2,1.29311355E-2],"split_indices":[7,5,0,17,18,21,19,0,19,0,17,0,0,18,18,0,0,0,0,0,0,0,0,0,0,0,0,0,0],"split_type":[0,0,0,0,0,0,0,0,0,0,0,0,0,0,0,0,0,0,0,0,0,0,0,0,0,0,0,0,0],"sum_hessian":[3.2443398E3,2.9270647E3,3.1727524E2,2.9028196E3,2.4244902E1,9.2784645E1,2.2449059E2,3.3922342E2,2.5635962E3,1.0868747E0,2.3158028E1,7.468504E1,1.8099604E1,1.1815159E2,1.06339E2,3.191676E2,2.0055832E1,1.7885321E3,7.750642E2,1.2689928E1,1.0468099E1,2.002269E1,5.4662354E1,1.4764274E1,3.3353293E0,2.7855625E1,9.029597E1,3.5449867E1,7.088913E1],"tree_param":{"num_deleted":"0","num_feature":"26","num_nodes":"29","size_leaf_vector":"1"}},{"base_weights":[-5.806495E-3,2.6842134E-4,-7.2959715E-1,-5.3951344E-3,7.1738636E-1,4.837507E-2,-8.560718E-1,-2.728441E-2,1.7906485E-1,1.18759125E-1,1.0093073E0,-1.3800408E0,-2.812998E-1,-3.726943E-3,2.95361E-3,-1.6519933E-3,1.4475514E-2,3.7154686E-2,-3.4753073E-2,7.8593604E-2,2.2205165E-2,-3.691659E-3,-7.862357E-2,4.227673E-2,-2.4656162E-2],"categories":[],"categories_nodes":[],"categories_segments":[],"categories_sizes":[],"default_left":[0,0,0,0,0,0,0,0,0,0,0,0,0,0,0,0,0,0,0,0,0,0,0,0,0],"id":6,"left_children":[1,3,5,7,9,-1,11,13,15,17,19,21,23,-1,-1,-1,-1,-1,-1,-1,-1,-1,-1,-1,-1],"loss_changes":[1.4219067E1,1.3032451E1,6.605565E0,1.2859819E1,4.2740355E0,0E0,7.3155537E0,1.162173E1,7.9242353E0,5.2801137E0,4.6336193E0,3.1830215E0,3.628446E0,0E0,0E0,0E0,0E0,0E0,0E0,0E0,0E0,0E0,0E0,0E0,0E0],"parents":[2147483647,0,0,1,1,2,2,3,3,4,4,6,6,7,7,8,8,9,9,10,10,11,11,12,12],"right_children":[2,4,6,8,10,-1,12,14,16,18,20,22,24,-1,-1,-1,-1,-1,-1,-1,-1,-1,-1,-1,-1],"split_conditions":[2.61922E4,2.6131596E4,-5.645322E-3,2.1385857E-4,7.6604444E-1,4.837507E-2,2.6084625E-3,9.713421E-1,2.2925E1,6.593458E-1,2.5361702E-3,1.6957927E-2,1.2042857E1,-3.726943E-3,2.95361E-3,-1.6519933E-3,1.4475514E-2,3.7154686E-2,-3.4753073E-2,7.8593604E-2,2.2205165E-2,-3.691659E-3,-7.862357E-2,4.227673E-2,-2.4656162E-2],"split_indices":[5,4,18,7,22,0,17,22,0,22,17,18,0,0,0,0,0,0,0,0,0,0,0,0,0],"split_type":[0,0,0,0,0,0,0,0,0,0,0,0,0,0,0,0,0,0,0,0,0,0,0,0,0],"sum_hessian":[3.2327905E3,3.2068743E3,2.5916294E1,3.1827305E3,2.4143656E1,1.3362386E0,2.4580055E1,2.845872E3,3.3685843E2,8.375424E0,1.5768232E1,1.2125387E1,1.2454667E1,1.8394562E3,1.00641595E3,1.1558475E2,2.2127368E2,4.7886486E0,3.5867755E0,7.009947E0,8.7582855E0,1.7346148E0,1.0390773E1,1.49738E0,1.0957287E1],"tree_param":{"num_deleted":"0","num_feature":"26","num_nodes":"25","size_leaf_vector":"1"}},{"base_weights":[9.661714E-3,-2.558084E-2,1.0601629E-1,7.493411E-2,-8.0958575E-2,3.0734222E-2,3.2324043E-1,3.7787518E-1,2.4393143E-2,-3.1134479E-2,-2.408687E-1,3.3965534E-1,-1.0495012E-2,4.3106288E-1,-4.6927042E-2,2.47145E-2,-1.2231345E-2,-1.7153045E-2,3.0905383E-3,-9.824169E-4,-5.3444695E-2,-4.3710243E-2,-9.958601E-3,4.760912E-2,8.065845E-3,-5.96316E-3,5.4765004E-3,-1.3983364E-2,2.7894506E-2,-4.4108152E-2,6.9308216E-3],"categories":[],"categories_nodes":[],"categories_segments":[],"categories_sizes":[],"default_left":[0,0,0,0,0,0,0,0,0,0,0,0,0,0,0,0,0,0,0,0,0,0,0,0,0,0,0,0,0,0,0],"id":7,"left_children":[1,3,5,7,9,11,13,15,17,19,21,23,25,27,29,-1,-1,-1,-1,-1,-1,-1,-1,-1,-1,-1,-1,-1,-1,-1,-1],"loss_changes":[1.0956071E1,1.3156726E1,1.4119537E1,1.2848428E1,1.2133069E1,8.190086E0,8.891478E0,8.817234E0,9.931223E0,1.3841135E1,9.381342E0,8.117045E0,7.4288216E0,1.56806755E1,8.032073E0,0E0,0E0,0E0,0E0,0E0,0E0,0E0,0E0,0E0,0E0,0E0,0E0,0E0,0E0,0E0,0E0],"parents":[2147483647,0,0,1,1,2,2,3,3,4,4,5,5,6,6,7,7,8,8,9,9,10,10,11,11,12,12,13,13,14,14],"right_children":[2,4,6,8,10,12,14,16,18,20,22,24,26,28,30,-1,-1,-1,-1,-1,-1,-1,-1,-1,-1,-1,-1,-1,-1,-1,-1],"split_conditions":[2.3792856E1,-1.1561316E0,7.039775E-1,2.6516913E-4,3.2345358E-1,-1.5150701E0,7.880346E1,-4.3619387E-2,2.9723046E-4,2.619814E4,1.0882125E-3,6.336026E-4,-4.3619387E-2,-7.2236395E-1,7.5953286E-3,2.47145E-2,-1.2231345E-2,-1.7153045E-2,3.0905383E-3,-9.824169E-4,-5.3444695E-2,-4.3710243E-2,-9.958601E-3,4.760912E-2,8.065845E-3,-5.96316E-3,5.4765004E-3,-1.3983364E-2,2.7894506E-2,-4.4108152E-2,6.9308216E-3],"split_indices":[0,19,18,10,6,6,20,21,10,4,17,10,21,21,17,0,0,0,0,0,0,0,0,0,0,0,0,0,0,0,0],"split_type":[0,0,0,0,0,0,0,0,0,0,0,0,0,0,0,0,0,0,0,0,0,0,0,0,0,0,0,0,0,0,0],"sum_hessian":[3.2245784E3,2.3615535E3,8.630249E2,8.387689E2,1.5227847E3,6.4175665E2,2.2126828E2,1.19001396E2,7.197675E2,1.1619454E3,3.608392E2,7.471279E1,5.670438E2,1.7122835E2,5.0039932E1,1.0042649E2,1.857491E1,6.576489E1,6.540026E2,1.1502334E3,1.1712094E1,2.1055708E1,3.397835E2,1.5869092E1,5.8843697E1,2.974748E2,2.6956906E2,2.5745792E1,1.4548256E2,8.413142E0,4.1626793E1],"tree_param":{"num_deleted":"0","num_feature":"26","num_nodes":"31","size_leaf_vector":"1"}},{"base_weights":[1.7996365E-3,-1.9794073E-2,1.5622358E-1,6.0462527E-2,-6.661457E-2,-4.667217E-2,2.6241595E-1,4.8595536E-1,2.866253E-2,-6.2173497E-2,-6.0334153E-2,4.439466E-1,-1.4906394E-1,4.9433565E-1,1.11351006E-1,-1.9916045E-2,3.0965913E-2,4.8404243E-3,-5.504809E-3,-3.8926896E-2,-2.841549E-3,-5.226339E-3,3.949328E-2,-1.9778436E-2,5.81274E-3,2.8176889E-2,-1.8973535E-2,8.091309E-4,3.695441E-2],"categories":[],"categories_nodes":[],"categories_segments":[],"categories_sizes":[],"default_left":[0,0,0,0,0,0,0,0,0,0,0,0,0,0,0,0,0,0,0,0,0,0,0,0,0,0,0,0,0],"id":8,"left_children":[1,3,5,7,9,11,13,15,17,19,-1,21,23,25,27,-1,-1,-1,-1,-1,-1,-1,-1,-1,-1,-1,-1,-1,-1],"loss_changes":[1.0743512E1,1.0625652E1,8.528337E0,1.4084827E1,8.966095E0,6.9305506E0,9.040289E0,8.784393E0,9.188391E0,6.767403E0,0E0,4.6066074E0,7.4887323E0,6.3883133E0,9.456847E0,0E0,0E0,0E0,0E0,0E0,0E0,0E0,0E0,0E0,0E0,0E0,0E0,0E0,0E0],"parents":[2147483647,0,0,1,1,2,2,3,3,4,4,5,5,6,6,7,7,8,8,9,9,11,11,12,12,13,13,14,14],"right_children":[2,4,6,8,10,12,14,16,18,20,-1,22,24,26,28,-1,-1,-1,-1,-1,-1,-1,-1,-1,-1,-1,-1,-1,-1],"split_conditions":[1.9445678E-4,-1.7438707E0,2.2039398E1,1.2692857E1,2.624066E4,7.935756E-1,6.551402E0,-1.0819759E0,2.4711518E4,-1.7010189E0,-6.0334153E-2,3.0406765E-3,7.5858864E1,2.50085E4,2.30817E0,-1.9916045E-2,3.0965913E-2,4.8404243E-3,-5.504809E-3,-3.8926896E-2,-2.841549E-3,-5.226339E-3,3.949328E-2,-1.9778436E-2,5.81274E-3,2.8176889E-2,-1.8973535E-2,8.091309E-4,3.695441E-2],"split_indices":[7,19,0,0,3,18,19,6,2,19,0,17,20,5,6,0,0,0,0,0,0,0,0,0,0,0,0,0,0],"split_type":[0,0,0,0,0,0,0,0,0,0,0,0,0,0,0,0,0,0,0,0,0,0,0,0,0,0,0,0,0],"sum_hessian":[3.2199158E3,2.8256638E3,3.942519E2,1.040985E3,1.7846788E3,1.3564435E2,2.586075E2,7.1396614E1,9.695884E2,1.7788042E3,5.874697E0,2.2844976E1,1.1279938E2,1.0110918E2,1.5749835E2,9.096252E0,6.2300365E1,6.504483E2,3.1914008E2,1.2096459E1,1.7667078E3,9.105515E0,1.3739461E1,5.8218388E1,5.458099E1,9.401836E1,7.090816E0,1.3765489E2,1.9843456E1],"tree_param":{"num_deleted":"0","num_feature":"26","num_nodes":"29","size_leaf_vector":"1"}},{"base_weights":[-2.0542396E-3,-3.357641E-2,8.9896984E-2,-2.5264397E-1,-9.225995E-3,4.3532427E-2,3.7517115E-1,-4.1580102E-1,9.1805555E-2,4.417469E-2,-1.1254412E-1,3.312946E-1,5.428718E-4,6.312644E-1,2.0657401E-1,-1.206404E-2,-3.807322E-2,-2.0675745E-2,1.1658209E-2,3.473555E-3,-1.2176808E-2,-3.4701426E-2,-4.396902E-3,-6.2478747E-2,1.917377E-2,1.6053468E-3,-1.7801424E-2,3.958119E-2,7.9746265E-3,5.0067123E-2,3.2251389E-3],"categories":[],"categories_nodes":[],"categories_segments":[],"categories_sizes":[],"default_left":[0,0,0,0,0,0,0,0,0,0,0,0,0,0,0,0,0,0,0,0,0,0,0,0,0,0,0,0,0,0,0],"id":9,"left_children":[1,3,5,7,9,11,13,15,17,19,21,23,25,27,29,-1,-1,-1,-1,-1,-1,-1,-1,-1,-1,-1,-1,-1,-1,-1,-1],"loss_changes":[9.325408E0,1.2778356E1,1.0847641E1,1.350565E1,1.190718E1,8.75427E0,4.8219624E0,9.636808E0,5.6569552E0,1.0372965E1,1.0460448E1,8.066562E0,6.9522247E0,3.2817802E0,7.9129906E0,0E0,0E0,0E0,0E0,0E0,0E0,0E0,0E0,0E0,0E0,0E0,0E0,0E0,0E0,0E0,0E0],"parents":[2147483647,0,0,1,1,2,2,3,3,4,4,5,5,6,6,7,7,8,8,9,9,10,10,11,11,12,12,13,13,14,14],"right_children":[2,4,6,8,10,12,14,16,18,20,22,24,26,28,30,-1,-1,-1,-1,-1,-1,-1,-1,-1,-1,-1,-1,-1,-1,-1,-1],"split_conditions":[2.4203543E1,1.1873413E-3,8.652396E-1,2.5118184E4,1.2860898E0,5.6134246E-4,9.3846303E-1,2.471481E4,-5.5523804E-5,9.9904823E-1,1.4045978E0,2.1813705E4,8.230574E0,7.7810005E1,2.2176879E4,-1.206404E-2,-3.807322E-2,-2.0675745E-2,1.1658209E-2,3.473555E-3,-1.2176808E-2,-3.4701426E-2,-4.396902E-3,-6.2478747E-2,1.917377E-2,1.6053468E-3,-1.7801424E-2,3.958119E-2,7.9746265E-3,5.0067123E-2,3.2251389E-3],"split_indices":[0,17,18,3,19,10,18,4,7,22,19,4,19,20,4,0,0,0,0,0,0,0,0,0,0,0,0,0,0,0,0],"split_type":[0,0,0,0,0,0,0,0,0,0,0,0,0,0,0,0,0,0,0,0,0,0,0,0,0,0,0,0,0,0,0],"sum_hessian":[3.2152786E3,2.394906E3,8.203725E2,2.3863751E2,2.1562686E3,7.066723E2,1.1370024E2,1.6179308E2,7.684444E1,1.4219146E3,7.343539E2,9.097829E1,6.15694E2,4.4048252E1,6.965199E1,1.0864026E2,5.315281E1,1.63767E1,6.046774E1,1.3076964E3,1.142181E2,2.8708828E1,7.056451E2,2.1737993E0,8.880448E1,5.664603E2,4.9233692E1,3.2368076E1,1.1680174E1,9.645485E0,6.0006504E1],"tree_param":{"num_deleted":"0","num_feature":"26","num_nodes":"31","size_leaf_vector":"1"}},{"base_weights":[-5.054158E-3,-3.2967903E-2,1.2727362E-1,-1.4701946E-1,1.3909374E-2,-1.7922033E-1,1.624671E-1,-2.561016E-1,-4.9675208E-2,6.84842E-2,-7.161421E-2,-6.1722364E-2,-9.985482E-2,2.5820902E-1,-1.3652081E-3,-5.465178E-3,-2.7040709E-2,3.3736636E-3,-1.0085909E-2,3.965032E-3,-4.893529E-2,-1.0164289E-2,6.1492636E-3,1.1139381E-2,-2.0890867E-2,7.199903E-3,2.2985218E-2,1.6335359E-2,-1.0503934E-2],"categories":[],"categories_nodes":[],"categories_segments":[],"categories_sizes":[],"default_left":[0,0,0,0,0,0,0,0,0,0,0,0,0,0,0,0,0,0,0,0,0,0,0,0,0,0,0,0,0],"id":10,"left_children":[1,3,5,7,9,11,13,15,17,19,21,-1,23,25,27,-1,-1,-1,-1,-1,-1,-1,-1,-1,-1,-1,-1,-1,-1],"loss_changes":[1.1929372E1,1.4260242E1,6.097624E0,8.237049E0,8.830755E0,4.7695365E0,7.9243326E0,1.52434635E1,7.3482647E0,1.3158367E1,1.8911835E1,0E0,5.778911E0,7.271494E0,1.2895326E1,0E0,0E0,0E0,0E0,0E0,0E0,0E0,0E0,0E0,0E0,0E0,0E0,0E0,0E0],"parents":[2147483647,0,0,1,1,2,2,3,3,4,4,5,5,6,6,7,7,8,8,9,9,10,10,12,12,13,13,14,14],"right_children":[2,4,6,8,10,12,14,16,18,20,22,-1,24,26,28,-1,-1,-1,-1,-1,-1,-1,-1,-1,-1,-1,-1,-1,-1],"split_conditions":[5.586949E-3,-5.9130967E-1,2.1160715E1,1.6985714E1,1.8646456E1,2.9947178E-4,8.786816E-3,5.371753E-1,5.767655E-4,2.62223E4,2.4071428E1,-6.1722364E-2,5.1931845E-4,-1.8738131E-1,-5E-1,-5.465178E-3,-2.7040709E-2,3.3736636E-3,-1.0085909E-2,3.965032E-3,-4.893529E-2,-1.0164289E-2,6.1492636E-3,1.1139381E-2,-2.0890867E-2,7.199903E-3,2.2985218E-2,1.6335359E-2,-1.0503934E-2],"split_indices":[17,21,0,0,0,10,17,19,10,5,0,0,10,21,21,0,0,0,0,0,0,0,0,0,0,0,0,0,0],"split_type":[0,0,0,0,0,0,0,0,0,0,0,0,0,0,0,0,0,0,0,0,0,0,0,0,0,0,0,0,0],"sum_hessian":[3.2274622E3,2.665865E3,5.615972E2,7.759228E2,1.8899423E3,5.7422478E1,5.0417477E2,3.6513193E2,4.1079086E2,1.1538438E3,7.3609845E2,2.9986832E0,5.4423794E1,3.1785028E2,1.8632448E2,2.4182872E2,1.2330319E2,2.3233438E2,1.7845647E2,1.1429624E3,1.0881394E1,4.390083E2,2.9709018E2,2.7161673E1,2.7262123E1,2.0395807E2,1.1389223E2,7.2227005E1,1.1409747E2],"tree_param":{"num_deleted":"0","num_feature":"26","num_nodes":"29","size_leaf_vector":"1"}},{"base_weights":[-1.6295617E-3,3.2473088E-3,-6.200889E-1,7.120294E-4,1.1535225E0,4.8400426E-1,-8.242347E-1,-2.9349834E-2,8.8462315E-2,7.044061E-2,1.0649442E-2,-2.585066E-2,4.729992E-2,-6.770315E-2,-2.9991838E-1,-1.0818888E-2,-3.9706333E-4,2.3245614E-3,1.7833522E-2,2.1571836E-2,-3.71315E-2],"categories":[],"categories_nodes":[],"categories_segments":[],"categories_sizes":[],"default_left":[0,0,0,0,0,0,0,0,0,0,0,0,0,0,0,0,0,0,0,0,0],"id":11,"left_children":[1,3,5,7,9,11,13,15,17,-1,-1,-1,-1,-1,19,-1,-1,-1,-1,-1,-1],"loss_changes":[9.685261E0,9.291425E0,6.061639E0,8.392134E0,1.3823423E0,2.5935097E0,5.586796E0,9.486043E0,9.121494E0,0E0,0E0,0E0,0E0,0E0,4.2469907E0,0E0,0E0,0E0,0E0,0E0,0E0],"parents":[2147483647,0,0,1,1,2,2,3,3,4,4,5,5,6,6,7,7,8,8,14,14],"right_children":[2,4,6,8,10,12,14,16,18,-1,-1,-1,-1,-1,20,-1,-1,-1,-1,-1,-1],"split_conditions":[2.61922E4,2.6210307E4,5.044731E-2,2.4203543E1,6.071569E-4,3.298126E-4,2.6084625E-3,1.1873413E-3,8.652396E-1,7.044061E-2,1.0649442E-2,-2.585066E-2,4.729992E-2,-6.770315E-2,4.8514897E-1,-1.0818888E-2,-3.9706333E-4,2.3245614E-3,1.7833522E-2,2.1571836E-2,-3.71315E-2],"split_indices":[5,3,18,0,10,10,17,17,18,0,0,0,0,0,18,0,0,0,0,0,0],"split_type":[0,0,0,0,0,0,0,0,0,0,0,0,0,0,0,0,0,0,0,0,0],"sum_hessian":[3.2094705E3,3.1853472E3,2.4123356E1,3.1793403E3,6.006849E0,3.5504405E0,2.0572914E1,2.3685708E3,8.107694E2,4.332885E0,1.6739639E0,1.083562E0,2.4668787E0,9.445543E0,1.1127371E1,2.4234113E2,2.1262297E3,7.0207684E2,1.0869259E2,4.2054605E0,6.921911E0],"tree_param":{"num_deleted":"0","num_feature":"26","num_nodes":"21","size_leaf_vector":"1"}},{"base_weights":[-6.8769515E-3,-2.8423807E-2,1.4843681E-1,5.6668136E-2,-8.221006E-2,2.7332202E-1,2.231271E-2,3.797187E-1,2.7594058E-2,-1.3510928E-1,2.1177765E-2,-8.008036E-2,3.93634E-1,-2.414403E-1,1.7034231E-1,2.2962987E-2,-3.9828714E-2,2.315464E-3,-1.7154908E-2,1.6137704E-2,-7.720317E-3,-2.4848778E-3,9.317236E-3,4.360391E-2,-9.396252E-3,2.4571644E-2,2.4746095E-3,-3.1022488E-3,-3.5444092E-2,3.7018543E-3,2.9008288E-2],"categories":[],"categories_nodes":[],"categories_segments":[],"categories_sizes":[],"default_left":[0,0,0,0,0,0,0,0,0,0,0,0,0,0,0,0,0,0,0,0,0,0,0,0,0,0,0,0,0,0,0],"id":12,"left_children":[1,3,5,7,9,11,13,15,17,19,21,23,25,27,29,-1,-1,-1,-1,-1,-1,-1,-1,-1,-1,-1,-1,-1,-1,-1,-1],"loss_changes":[1.0758832E1,1.2924838E1,6.163274E0,1.02639475E1,9.464891E0,8.39568E0,7.692143E0,8.8092985E0,6.985845E0,1.016309E1,6.874424E0,5.37953E0,4.9207E0,5.898048E0,4.9341097E0,0E0,0E0,0E0,0E0,0E0,0E0,0E0,0E0,0E0,0E0,0E0,0E0,0E0,0E0,0E0,0E0],"parents":[2147483647,0,0,1,1,2,2,3,3,4,4,5,5,6,6,7,7,8,8,9,9,10,10,11,11,12,12,13,13,14,14],"right_children":[2,4,6,8,10,12,14,16,18,20,22,24,26,28,30,-1,-1,-1,-1,-1,-1,-1,-1,-1,-1,-1,-1,-1,-1,-1,-1],"split_conditions":[1.9445678E-4,-1.5698752E0,6.551402E0,2.6516913E-4,9.713421E-1,4.413044E-4,8.652396E-1,9.99762E-1,2.2835086E-1,-1.5150701E0,3.62612E-3,5.7133995E1,1.6719888E0,9.632438E-3,2.30817E0,2.2962987E-2,-3.9828714E-2,2.315464E-3,-1.7154908E-2,1.6137704E-2,-7.720317E-3,-2.4848778E-3,9.317236E-3,4.360391E-2,-9.396252E-3,2.4571644E-2,2.4746095E-3,-3.1022488E-3,-3.5444092E-2,3.7018543E-3,2.9008288E-2],"split_indices":[7,19,19,10,22,10,18,22,21,6,17,20,6,17,6,0,0,0,0,0,0,0,0,0,0,0,0,0,0,0,0],"split_type":[0,0,0,0,0,0,0,0,0,0,0,0,0,0,0,0,0,0,0,0,0,0,0,0,0,0,0,0,0,0,0],"sum_hessian":[3.2126675E3,2.821987E3,3.9068048E2,1.0929088E3,1.7290781E3,1.9571794E2,1.9496254E2,8.924304E1,1.00366583E3,1.1436259E3,5.854523E2,4.9792545E1,1.459254E2,6.985923E1,1.2510331E2,8.416159E1,5.0814466E0,9.562619E2,4.7403934E1,4.561395E1,1.0980118E3,4.101504E2,1.7530185E2,4.3449187E0,4.5447628E1,1.1329968E2,3.2625717E1,5.130288E1,1.8556353E1,1.0225489E2,2.2848423E1],"tree_param":{"num_deleted":"0","num_feature":"26","num_nodes":"31","size_leaf_vector":"1"}},{"base_weights":[1.2820612E-3,-9.9030465E-2,3.8493775E-2,-2.626818E-1,4.103208E-3,-1.6368666E-1,6.1583254E-2,2.8410804E-1,-3.102594E-1,-1.9980328E-2,5.1061827E-1,4.266312E-1,-2.2815427E-1,1.844345E-1,2.198471E-2,-5.420085E-3,5.2292623E-2,-6.2829754E-3,-2.4329878E-2,4.705728E-3,-6.690794E-3,3.5193108E-2,-1.2149016E-2,4.103264E-2,3.8733196E-3,9.187219E-5,-1.634983E-2,1.0914858E-2,-2.2730505E-2,-1.6944105E-3,6.8400674E-3],"categories":[],"categories_nodes":[],"categories_segments":[],"categories_sizes":[],"default_left":[0,0,0,0,0,0,0,0,0,0,0,0,0,0,0,0,0,0,0,0,0,0,0,0,0,0,0,0,0,0,0],"id":13,"left_children":[1,3,5,7,9,11,13,15,17,19,21,23,25,27,29,-1,-1,-1,-1,-1,-1,-1,-1,-1,-1,-1,-1,-1,-1,-1,-1],"loss_changes":[1.2094716E1,1.4798397E1,1.1042873E1,8.905632E0,6.5826664E0,9.326464E0,1.0318227E1,8.381463E0,1.0104389E1,6.705239E0,3.737864E0,3.2692938E0,4.985626E0,1.128887E1,1.03059025E1,0E0,0E0,0E0,0E0,0E0,0E0,0E0,0E0,0E0,0E0,0E0,0E0,0E0,0E0,0E0,0E0],"parents":[2147483647,0,0,1,1,2,2,3,3,4,4,5,5,6,6,7,7,8,8,9,9,10,10,11,11,12,12,13,13,14,14],"right_children":[2,4,6,8,10,12,14,16,18,20,22,24,26,28,30,-1,-1,-1,-1,-1,-1,-1,-1,-1,-1,-1,-1,-1,-1,-1,-1],"split_conditions":[-6.087614E-1,1.6985714E1,-5.6816754E0,2.214983E4,2.30817E0,1.5395509E1,-1.7438707E0,3.1171718E-3,-3.0956838E-1,5.8918726E-4,2.510318E4,-1.3052619E-1,3.5527765E-3,6.033566E-5,3.62612E-3,-5.420085E-3,5.2292623E-2,-6.2829754E-3,-2.4329878E-2,4.705728E-3,-6.690794E-3,3.5193108E-2,-1.2149016E-2,4.103264E-2,3.8733196E-3,9.187219E-5,-1.634983E-2,1.0914858E-2,-2.2730505E-2,-1.6944105E-3,6.8400674E-3],"split_indices":[21,0,19,4,6,20,19,17,19,10,3,21,17,7,17,0,0,0,0,0,0,0,0,0,0,0,0,0,0,0,0],"split_type":[0,0,0,0,0,0,0,0,0,0,0,0,0,0,0,0,0,0,0,0,0,0,0,0,0,0,0,0,0,0,0],"sum_hessian":[3.238097E3,8.7572424E2,2.3623726E3,3.379392E2,5.3778503E2,2.4151187E2,2.1208608E3,2.6653212E1,3.1128598E2,5.142923E2,2.349277E1,2.322521E1,2.1828665E2,5.160866E2,1.6047742E3,1.8155687E1,8.497525E0,1.5291711E2,1.5836888E2,2.569401E2,2.573522E2,1.8750591E1,4.74218E0,1.0277286E1,1.2947924E1,6.590853E1,1.5237813E2,4.9074088E2,2.5345728E1,1.0799471E3,5.24827E2],"tree_param":{"num_deleted":"0","num_feature":"26","num_nodes":"31","size_leaf_vector":"1"}},{"base_weights":[-6.5255375E-3,-1.2138386E-2,4.5189545E-1,-9.638649E-2,2.1055242E-2,-1.7610516E-1,8.1941414E-1,-2.5569506E-2,-2.4839096E-1,-1.5857841E-1,4.1347634E-2,7.409539E-1,-6.078648E-1,-1.5592459E-2,9.32533E-1,-1.8359436E-2,9.2989806E-4,-1.9927975E-2,-4.505347E-3,2.1142889E-2,-1.099149E-2,8.395581E-3,2.2414226E-5,6.1237987E-2,-5.885839E-3,5.184064E-2,-4.729726E-2,2.1336058E-2,6.4792015E-2],"categories":[],"categories_nodes":[],"categories_segments":[],"categories_sizes":[],"default_left":[0,0,0,0,0,0,0,0,0,0,0,0,0,0,0,0,0,0,0,0,0,0,0,0,0,0,0,0,0],"id":14,"left_children":[1,3,5,7,9,11,13,15,17,19,21,23,25,-1,27,-1,-1,-1,-1,-1,-1,-1,-1,-1,-1,-1,-1,-1,-1],"loss_changes":[8.293827E0,8.903923E0,9.143103E0,9.680445E0,8.333436E0,6.4755096E0,3.4608612E0,9.286197E0,6.759386E0,8.357722E0,1.0628471E1,2.3549337E0,7.038895E0,0E0,3.631569E0,0E0,0E0,0E0,0E0,0E0,0E0,0E0,0E0,0E0,0E0,0E0,0E0,0E0,0E0],"parents":[2147483647,0,0,1,1,2,2,3,3,4,4,5,5,6,6,7,7,8,8,9,9,10,10,11,11,12,12,14,14],"right_children":[2,4,6,8,10,12,14,16,18,20,22,24,26,-1,28,-1,-1,-1,-1,-1,-1,-1,-1,-1,-1,-1,-1,-1,-1],"split_conditions":[2.4399896E0,-5.9130967E-1,4.979805E-4,5.612752E1,-5.820866E0,-7.933533E-1,-8.1915206E-1,1.3135715E1,1.8203571E1,1.5395509E1,-1.7833318E0,1.4917857E1,2.1820162E4,-1.5592459E-2,2.3748016E4,-1.8359436E-2,9.2989806E-4,-1.9927975E-2,-4.505347E-3,2.1142889E-2,-1.099149E-2,8.395581E-3,2.2414226E-5,6.1237987E-2,-5.885839E-3,5.184064E-2,-4.729726E-2,2.1336058E-2,6.4792015E-2],"split_indices":[6,21,10,20,19,21,21,0,0,20,19,0,2,0,2,0,0,0,0,0,0,0,0,0,0,0,0,0,0],"split_type":[0,0,0,0,0,0,0,0,0,0,0,0,0,0,0,0,0,0,0,0,0,0,0,0,0,0,0,0,0],"sum_hessian":[3.2202156E3,3.1822263E3,3.798926E1,8.988836E2,2.2833428E3,1.421688E1,2.3772383E1,6.1399786E2,2.8488574E2,2.3106645E2,2.0522764E3,4.3216186E0,9.895261E0,2.001294E0,2.177109E1,6.945732E1,5.445405E2,1.4541162E2,1.3947412E2,2.1459166E1,2.0960728E2,5.0046637E2,1.55181E3,2.491484E0,1.8301349E0,1.3348385E0,8.560422E0,1.0009702E1,1.1761387E1],"tree_param":{"num_deleted":"0","num_feature":"26","num_nodes":"29","size_leaf_vector":"1"}},{"base_weights":[1.0262592E-2,1.5163943E-2,-5.954882E-1,1.0188017E-2,6.266226E-1,3.1939584E-1,-9.254571E-1,-6.8137705E-2,4.226233E-2,7.763781E-1,-2.7841685E-2,6.253365E-2,-3.6265802E-1,3.571566E-2,-1.0774119E0,-2.2565572E-2,-2.1380386E-3,1.0198704E-3,9.851354E-3,1.3018319E-2,5.3929437E-2,1.4208804E-2,-3.8241904E-2,-6.203999E-2,2.2411803E-2],"categories":[],"categories_nodes":[],"categories_segments":[],"categories_sizes":[],"default_left":[0,0,0,0,0,0,0,0,0,0,0,0,0,0,0,0,0,0,0,0,0,0,0,0,0],"id":15,"left_children":[1,3,5,7,9,11,13,15,17,19,-1,-1,21,-1,23,-1,-1,-1,-1,-1,-1,-1,-1,-1,-1],"loss_changes":[9.639305E0,9.786298E0,8.162494E0,8.025952E0,5.033885E0,5.31328E0,5.605648E0,9.006407E0,7.665221E0,3.3784323E0,0E0,0E0,1.5679145E0,0E0,5.08325E0,0E0,0E0,0E0,0E0,0E0,0E0,0E0,0E0,0E0,0E0],"parents":[2147483647,0,0,1,1,2,2,3,3,4,4,5,5,6,6,7,7,8,8,9,9,12,12,14,14],"right_children":[2,4,6,8,10,12,14,16,18,20,-1,-1,22,-1,24,-1,-1,-1,-1,-1,-1,-1,-1,-1,-1],"split_conditions":[2.61922E4,2.61278E4,4.0308746E1,-5.9130967E-1,-4.3619387E-2,-1.9509032E-1,1.1592857E1,1.2105197E-3,1.9885301E-4,-3.28514E-6,-2.7841685E-2,6.253365E-2,1.4917857E1,3.571566E-2,2.3339285E1,-2.2565572E-2,-2.1380386E-3,1.0198704E-3,9.851354E-3,1.3018319E-2,5.3929437E-2,1.4208804E-2,-3.8241904E-2,-6.203999E-2,2.2411803E-2],"split_indices":[5,5,20,21,21,21,0,17,7,7,0,0,0,0,0,0,0,0,0,0,0,0,0,0,0],"split_type":[0,0,0,0,0,0,0,0,0,0,0,0,0,0,0,0,0,0,0,0,0,0,0,0,0],"sum_hessian":[3.2426116E3,3.2175522E3,2.5059427E1,3.1925881E3,2.4963974E1,6.65091E0,1.8408518E1,9.2720996E2,2.2653782E3,2.2465185E1,2.4987886E0,2.459297E0,4.191613E0,1.2473478E0,1.716117E1,5.6550667E1,8.706593E2,1.9859397E3,2.7943863E2,8.985082E0,1.34801035E1,1.7195067E0,2.4721062E0,1.566974E1,1.4914299E0],"tree_param":{"num_deleted":"0","num_feature":"26","num_nodes":"25","size_leaf_vector":"1"}},{"base_weights":[-1.7799865E-3,4.1326332E-1,-7.2883745E-3,8.219117E-2,9.799123E-1,-1.04006715E-2,7.267268E-1,-1.1881669E-1,6.972879E-2,2.8368795E-1,1.1409843E0,-9.058354E-2,1.9256381E-2,1.1804808E0,2.5900388E-1,2.097859E-2,-3.9857168E-2,4.666944E-2,-3.538547E-2,8.05146E-2,2.5443822E-2,-1.4684873E-2,-1.1628711E-3,-1.126764E-2,2.2360443E-3,-1.240936E-2,7.7957995E-2,-1.7578455E-2,3.3405058E-2],"categories":[],"categories_nodes":[],"categories_segments":[],"categories_sizes":[],"default_left":[0,0,0,0,0,0,0,0,0,0,0,0,0,0,0,0,0,0,0,0,0,0,0,0,0,0,0,0,0],"id":16,"left_children":[1,3,5,7,9,11,13,15,-1,17,19,21,23,25,27,-1,-1,-1,-1,-1,-1,-1,-1,-1,-1,-1,-1,-1,-1],"loss_changes":[7.377271E0,7.848498E0,7.281916E0,7.4913483E0,1.4140224E0,7.5442495E0,2.5506034E0,9.4655905E0,0E0,3.3930626E0,2.815527E0,1.1706648E1,1.4437541E1,3.930708E0,2.2102747E0,0E0,0E0,0E0,0E0,0E0,0E0,0E0,0E0,0E0,0E0,0E0,0E0,0E0,0E0],"parents":[2147483647,0,0,1,1,2,2,3,3,4,4,5,5,6,6,7,7,9,9,10,10,11,11,12,12,13,13,14,14],"right_children":[2,4,6,8,10,12,14,16,-1,18,20,22,24,26,28,-1,-1,-1,-1,-1,-1,-1,-1,-1,-1,-1,-1,-1,-1],"split_conditions":[1.5395509E1,2.991063E-2,1.259315E0,1.0715217E-3,1.9442858E1,-6.087614E-1,-5E-1,-1.3052619E-1,6.972879E-2,1.7089342E1,5.6134246E-4,3.3930986E-4,-5.6816754E0,-7.933533E-1,-3.007058E-1,2.097859E-2,-3.9857168E-2,4.666944E-2,-3.538547E-2,8.05146E-2,2.5443822E-2,-1.4684873E-2,-1.1628711E-3,-1.126764E-2,2.2360443E-3,-1.240936E-2,7.7957995E-2,-1.7578455E-2,3.3405058E-2],"split_indices":[20,18,18,10,0,21,21,21,0,0,10,10,19,21,21,0,0,0,0,0,0,0,0,0,0,0,0,0,0],"split_type":[0,0,0,0,0,0,0,0,0,0,0,0,0,0,0,0,0,0,0,0,0,0,0,0,0,0,0,0,0],"sum_hessian":[3.2245254E3,4.1265278E1,3.1832603E3,2.6769747E1,1.449553E1,3.1708015E3,1.2458684E1,2.4002876E1,2.7668707E0,3.2422678E0,1.1253262E1,8.5556964E2,2.315232E3,5.5502787E0,6.9084053E0,1.3594428E1,1.0408449E1,1.9940212E0,1.2482468E0,5.5701876E0,5.6830745E0,2.1215727E2,6.4341235E2,2.175567E2,2.097675E3,1.2351061E0,4.315172E0,2.8281083E0,4.080297E0],"tree_param":{"num_deleted":"0","num_feature":"26","num_nodes":"29","size_leaf_vector":"1"}},{"base_weights":[-6.425649E-4,4.7566313E-1,-7.0393477E-3,7.992184E-1,1.3391769E-1,-2.2754015E-2,1.3699241E-1,4.6585962E-1,7.7634476E-2,-5.636652E-1,5.229087E-1,2.867329E-1,-3.2005E-2,2.3371905E-1,-4.1979045E-2,3.4368467E-2,-1.0537933E-2,-5.003785E-2,4.6067885E-3,-2.3192411E-2,4.5363598E-2,-2.776284E-2,2.3456104E-2,-4.11507E-2,-1.0000744E-3,2.168793E-3,2.2751546E-2,4.1302856E-2,-5.069787E-3],"categories":[],"categories_nodes":[],"categories_segments":[],"categories_sizes":[],"default_left":[0,0,0,0,0,0,0,0,0,0,0,0,0,0,0,0,0,0,0,0,0,0,0,0,0,0,0,0,0],"id":17,"left_children":[1,3,5,7,9,11,13,15,-1,17,19,21,23,25,27,-1,-1,-1,-1,-1,-1,-1,-1,-1,-1,-1,-1,-1,-1],"loss_changes":[9.795694E0,4.604061E0,7.1834416E0,4.7232E0,6.2433033E0,8.200767E0,5.4146485E0,2.6121066E0,0E0,2.4797313E0,5.9554186E0,1.30284815E1,2.6369743E1,8.524454E0,5.777E0,0E0,0E0,0E0,0E0,0E0,0E0,0E0,0E0,0E0,0E0,0E0,0E0,0E0,0E0],"parents":[2147483647,0,0,1,1,2,2,3,3,4,4,5,5,6,6,7,7,9,9,10,10,11,11,12,12,13,13,14,14],"right_children":[2,4,6,8,10,12,14,16,-1,18,20,22,24,26,28,-1,-1,-1,-1,-1,-1,-1,-1,-1,-1,-1,-1,-1,-1],"split_conditions":[1.5395509E1,5.6134246E-4,2.2452252E-4,6.288737E-3,6.703509E-4,-8.09017E-1,8.981719E0,1.3824466E1,7.7634476E-2,1.6957927E-2,-5.7357645E-1,1.4135715E1,-7.933533E-1,6.557294E-4,4.78366E-4,3.4368467E-2,-1.0537933E-2,-5.003785E-2,4.6067885E-3,-2.3192411E-2,4.5363598E-2,-2.776284E-2,2.3456104E-2,-4.11507E-2,-1.0000744E-3,2.168793E-3,2.2751546E-2,4.1302856E-2,-5.069787E-3],"split_indices":[20,10,7,17,10,21,19,20,0,18,21,0,21,10,10,0,0,0,0,0,0,0,0,0,0,0,0,0,0],"split_type":[0,0,0,0,0,0,0,0,0,0,0,0,0,0,0,0,0,0,0,0,0,0,0,0,0,0,0,0,0],"sum_hessian":[3.212952E3,4.1605938E1,3.171346E3,2.068413E1,2.0921808E1,2.8601318E3,3.112143E2,1.5461689E1,5.2224417E0,7.3292027E0,1.3592606E1,8.214133E1,2.7779905E3,2.0182849E2,1.0938582E2,1.1636326E1,3.8253632E0,4.082324E0,3.2468786E0,3.752416E0,9.840189E0,1.4261152E1,6.788018E1,4.0515728E1,2.7374746E3,1.0914897E2,9.267952E1,6.181126E0,1.0320469E2],"tree_param":{"num_deleted":"0","num_feature":"26","num_nodes":"29","size_leaf_vector":"1"}},{"base_weights":[-3.0563197E-3,-1.5176006E-1,1.582938E-2,-2.5941178E-1,8.191974E-2,2.0665655E-2,-6.01841E-1,-3.6032364E-1,1.9024734E-1,2.8361943E-1,-2.859983E-1,5.134899E-1,1.5031336E-2,3.209702E-1,-9.5018584E-1,-1.6569996E-2,-6.751994E-2,5.1161863E-2,4.376239E-3,7.881955E-3,4.6224527E-2,-3.1980373E-2,7.2236145E-3,-1.172294E-2,3.923061E-2,-2.3059784E-2,1.0153628E-3,-1.8396163E-2,4.1024912E-2,-5.8311414E-2,4.0270295E-3],"categories":[],"categories_nodes":[],"categories_segments":[],"categories_sizes":[],"default_left":[0,0,0,0,0,0,0,0,0,0,0,0,0,0,0,0,0,0,0,0,0,0,0,0,0,0,0,0,0,0,0],"id":18,"left_children":[1,3,5,7,9,11,13,15,17,19,21,23,25,27,29,-1,-1,-1,-1,-1,-1,-1,-1,-1,-1,-1,-1,-1,-1,-1,-1],"loss_changes":[9.074081E0,9.180799E0,8.577152E0,1.1390472E1,8.65934E0,7.8943167E0,7.4760046E0,5.397993E0,3.879615E0,5.922924E0,6.3987975E0,6.70096E0,7.0813227E0,2.662799E0,3.756404E0,0E0,0E0,0E0,0E0,0E0,0E0,0E0,0E0,0E0,0E0,0E0,0E0,0E0,0E0,0E0,0E0],"parents":[2147483647,0,0,1,1,2,2,3,3,4,4,5,5,6,6,7,7,8,8,9,9,10,10,11,11,12,12,13,13,14,14],"right_children":[2,4,6,8,10,12,14,16,18,20,22,24,26,28,30,-1,-1,-1,-1,-1,-1,-1,-1,-1,-1,-1,-1,-1,-1,-1,-1],"split_conditions":[1.1873413E-3,7.9067695E-1,2.619814E4,9.8078525E-1,6.559031E1,1.5395509E1,3.8116226E1,6.585052E1,9.467857E0,2.5341479E4,5.467158E-4,-2.4859648E0,-2.643998E0,2.7753971E1,2.8520469E-2,-1.6569996E-2,-6.751994E-2,5.1161863E-2,4.376239E-3,7.881955E-3,4.6224527E-2,-3.1980373E-2,7.2236145E-3,-1.172294E-2,3.923061E-2,-2.3059784E-2,1.0153628E-3,-1.8396163E-2,4.1024912E-2,-5.8311414E-2,4.0270295E-3],"split_indices":[17,19,4,22,20,20,20,20,0,2,10,6,6,20,6,0,0,0,0,0,0,0,0,0,0,0,0,0,0,0,0],"split_type":[0,0,0,0,0,0,0,0,0,0,0,0,0,0,0,0,0,0,0,0,0,0,0,0,0,0,0,0,0,0,0],"sum_hessian":[3.2292246E3,3.6310934E2,2.8661152E3,2.4851378E2,1.1459556E2,2.8448074E3,2.130791E1,2.0312698E2,4.53868E1,7.416566E1,4.0429905E1,3.1137388E1,2.81367E3,5.860709E0,1.5447203E1,1.9865817E2,4.46881E0,3.9988072E0,4.138799E1,6.3022816E1,1.114284E1,2.1929846E1,1.8500057E1,8.320035E0,2.2817354E1,2.9883053E1,2.7837869E3,2.5741653E0,3.286544E0,1.2661799E1,2.7854028E0],"tree_param":{"num_deleted":"0","num_feature":"26","num_nodes":"31","size_leaf_vector":"1"}},{"base_weights":[9.284026E-3,1.3335634E-2,-4.788134E-1,8.87412E-3,5.360737E-1,3.1489056E-1,-7.602005E-1,1.9405464E-2,-1.8175513E-1,-5.258891E-2,7.9892266E-1,-2.5938767E-1,6.804708E-1,-1.0066597E0,3.135446E-1,-1.0508484E-3,4.402398E-3,-2.3075229E-2,2.2424033E-3,3.972477E-2,-3.9045893E-2,1.5975935E-2,6.649028E-2,3.704125E-2,-5.2813906E-2,4.8147555E-2,8.295847E-3,5.37768E-3,-5.691095E-2,5.8583755E-2,-1.8935991E-2],"categories":[],"categories_nodes":[],"categories_segments":[],"categories_sizes":[],"default_left":[0,0,0,0,0,0,0,0,0,0,0,0,0,0,0,0,0,0,0,0,0,0,0,0,0,0,0,0,0,0,0],"id":19,"left_children":[1,3,5,7,9,11,13,15,17,19,21,23,25,27,29,-1,-1,-1,-1,-1,-1,-1,-1,-1,-1,-1,-1,-1,-1,-1,-1],"loss_changes":[6.3620095E0,7.4311347E0,6.154482E0,6.352285E0,4.214316E0,1.7802951E0,5.5675335E0,8.319651E0,1.0522033E1,6.3346725E0,4.3351965E0,3.7279916E0,5.5880046E-1,2.523264E0,3.0976E0,0E0,0E0,0E0,0E0,0E0,0E0,0E0,0E0,0E0,0E0,0E0,0E0,0E0,0E0,0E0,0E0],"parents":[2147483647,0,0,1,1,2,2,3,3,4,4,5,5,6,6,7,7,8,8,9,9,10,10,11,11,12,12,13,13,14,14],"right_children":[2,4,6,8,10,12,14,16,18,20,22,24,26,28,30,-1,-1,-1,-1,-1,-1,-1,-1,-1,-1,-1,-1,-1,-1,-1,-1],"split_conditions":[2.61922E4,2.6131596E4,1.761486E-1,2.1643962E-1,-6.798465E-5,3.298126E-4,1.7557536E0,-2.6891983E-1,2.5353516E1,4.350047E-2,3.6214822E-4,2.628063E-4,1.5760715E1,-1.0085906E0,7.727723E1,-1.0508484E-3,4.402398E-3,-2.3075229E-2,2.2424033E-3,3.972477E-2,-3.9045893E-2,1.5975935E-2,6.649028E-2,3.704125E-2,-5.2813906E-2,4.8147555E-2,8.295847E-3,5.37768E-3,-5.691095E-2,5.8583755E-2,-1.8935991E-2],"split_indices":[5,4,18,21,7,10,6,21,0,18,10,10,0,6,20,0,0,0,0,0,0,0,0,0,0,0,0,0,0,0,0],"split_type":[0,0,0,0,0,0,0,0,0,0,0,0,0,0,0,0,0,0,0,0,0,0,0,0,0,0,0,0,0,0,0],"sum_hessian":[3.21284E3,3.187355E3,2.5484974E1,3.16139E3,2.5965153E1,6.6391015E0,1.8845873E1,2.9967332E3,1.6465681E2,8.261985E0,1.7703169E1,2.6954238E0,3.9436777E0,1.53784895E1,3.4673834E0,1.8864989E3,1.1102343E3,7.32234E1,9.143342E1,3.7775965E0,4.484388E0,1.0144357E1,7.5588126E0,1.226431E0,1.4689928E0,1.9834E0,1.9602778E0,1.6433085E0,1.3735181E1,1.2389976E0,2.228386E0],"tree_param":{"num_deleted":"0","num_feature":"26","num_nodes":"31","size_leaf_vector":"1"}},{"base_weights":[-5.3376365E-3,2.4785343E-1,-1.50172375E-2,-1.2946737E-1,3.4723607E-1,-4.2858258E-1,-6.2140077E-3,1.8944515E-1,-9.569291E-1,6.6517256E-2,6.350097E-1,-4.876516E-1,6.191383E-2,3.3535793E-1,-1.9303959E-2,5.5075057E-2,-5.925842E-4,-6.2390573E-2,1.2275187E-2,1.2527925E-2,-2.605325E-2,2.2046981E-2,6.117327E-2,-1.8347118E-2,-6.294975E-2,1.8821394E-2,-3.363592E-2,-1.7446434E-2,-5.825703E-4],"categories":[],"categories_nodes":[],"categories_segments":[],"categories_sizes":[],"default_left":[0,0,0,0,0,0,0,0,0,0,0,0,0,0,0,0,0,0,0,0,0,0,0,0,0,0,0,0,0],"id":20,"left_children":[1,3,5,7,9,11,13,15,17,19,21,23,-1,25,27,-1,-1,-1,-1,-1,-1,-1,-1,-1,-1,-1,-1,-1,-1],"loss_changes":[7.9055E0,4.4991026E0,1.1306833E1,6.9081936E0,7.574705E0,6.977188E0,1.3610727E1,3.544435E0,2.8445296E0,5.4127617E0,4.7642994E0,5.425496E0,0E0,4.904869E0,7.390086E0,0E0,0E0,0E0,0E0,0E0,0E0,0E0,0E0,0E0,0E0,0E0,0E0,0E0,0E0],"parents":[2147483647,0,0,1,1,2,2,3,3,4,4,5,5,6,6,7,7,8,8,9,9,10,10,11,11,13,13,14,14],"right_children":[2,4,6,8,10,12,14,16,18,20,22,24,-1,26,28,-1,-1,-1,-1,-1,-1,-1,-1,-1,-1,-1,-1,-1,-1],"split_conditions":[2.1689273E4,3.420803E1,2.18169E4,1.9763085E-1,5.2779645E-4,1.8098763E0,2.2027527E4,-5.6827243E-4,3.285273E1,7.891085E-1,5.23141E-1,7.210341E-1,6.191383E-2,8.6534706E1,2.2091957E4,5.5075057E-2,-5.925842E-4,-6.2390573E-2,1.2275187E-2,1.2527925E-2,-2.605325E-2,2.2046981E-2,6.117327E-2,-1.8347118E-2,-6.294975E-2,1.8821394E-2,-3.363592E-2,-1.7446434E-2,-5.825703E-4],"split_indices":[3,20,5,18,10,6,3,7,20,18,6,18,0,20,4,0,0,0,0,0,0,0,0,0,0,0,0,0,0],"split_type":[0,0,0,0,0,0,0,0,0,0,0,0,0,0,0,0,0,0,0,0,0,0,0,0,0,0,0,0,0],"sum_hessian":[3.2231777E3,1.1777997E2,3.1053977E3,2.4491535E1,9.328843E1,6.3730473E1,3.0416672E3,1.823473E1,6.2568054E0,4.7846264E1,4.5442165E1,6.223256E1,1.4979107E0,1.11353966E2,2.9303132E3,2.4883301E0,1.57464E1,5.007657E0,1.2491485E0,3.6871143E1,1.0975123E1,3.5487774E1,9.954392E0,5.5087513E1,7.145048E0,1.07596954E2,3.7570112E0,6.547463E1,2.8648386E3],"tree_param":{"num_deleted":"0","num_feature":"26","num_nodes":"29","size_leaf_vector":"1"}},{"base_weights":[2.7809327E-3,4.7360033E-1,-3.4275628E-3,7.413295E-1,1.1268902E-1,-2.8466376E-2,8.715435E-2,1.0171922E-1,1.1130402E0,6.903078E-1,-3.7145722E-1,-1.237743E-1,1.1018347E-2,8.9836574E-1,6.8630695E-2,-3.6916547E-2,3.470106E-2,6.1208602E-2,-5.472584E-3,1.1960451E-2,5.7336923E-2,-5.058694E-2,2.3243472E-2,-2.4191706E-2,-4.7070547E-3,3.8585942E-3,-5.771391E-3,-2.9780483E-2,6.741457E-2,-6.6861557E-4,8.302819E-3],"categories":[],"categories_nodes":[],"categories_segments":[],"categories_sizes":[],"default_left":[0,0,0,0,0,0,0,0,0,0,0,0,0,0,0,0,0,0,0,0,0,0,0,0,0,0,0,0,0,0,0],"id":21,"left_children":[1,3,5,7,9,11,13,15,17,19,21,23,25,27,29,-1,-1,-1,-1,-1,-1,-1,-1,-1,-1,-1,-1,-1,-1,-1,-1],"loss_changes":[9.444881E0,3.9799032E0,7.236542E0,5.5842266E0,5.5947204E0,9.407728E0,1.0321289E1,5.442548E0,2.17939E0,1.5898933E0,6.3793707E0,7.767643E0,1.4800363E1,1.11163225E1,5.407936E0,0E0,0E0,0E0,0E0,0E0,0E0,0E0,0E0,0E0,0E0,0E0,0E0,0E0,0E0,0E0,0E0],"parents":[2147483647,0,0,1,1,2,2,3,3,4,4,5,5,6,6,7,7,8,8,9,9,10,10,11,11,12,12,13,13,14,14],"right_children":[2,4,6,8,10,12,14,16,18,20,22,24,26,28,30,-1,-1,-1,-1,-1,-1,-1,-1,-1,-1,-1,-1,-1,-1,-1,-1],"split_conditions":[1.5395509E1,-1.3052619E-1,2.5489286E1,-2.4859648E0,-1.01007595E1,-5.9130967E-1,4.5504706E-4,2.1721428E1,1.21123595E-2,1.0347291E-3,-4.7930818E0,1.2105197E-3,1.8646456E1,2.3534268E4,5.0441826E1,-3.6916547E-2,3.470106E-2,6.1208602E-2,-5.472584E-3,1.1960451E-2,5.7336923E-2,-5.058694E-2,2.3243472E-2,-2.4191706E-2,-4.7070547E-3,3.8585942E-3,-5.771391E-3,-2.9780483E-2,6.741457E-2,-6.6861557E-4,8.302819E-3],"split_indices":[20,21,0,6,19,21,10,0,17,10,19,17,0,2,20,0,0,0,0,0,0,0,0,0,0,0,0,0,0,0,0],"split_type":[0,0,0,0,0,0,0,0,0,0,0,0,0,0,0,0,0,0,0,0,0,0,0,0,0,0,0,0,0,0,0],"sum_hessian":[3.2295852E3,4.10531E1,3.188532E3,2.2964014E1,1.8089085E1,2.498561E3,6.8997095E2,8.908547E0,1.4055468E1,8.054136E0,1.0034948E1,7.312766E2,1.7672845E3,1.4343065E1,6.7562787E2,3.5818856E0,5.3266616E0,1.2882956E1,1.1725112E0,4.817248E0,3.2368886E0,5.5648355E0,4.4701123E0,5.444252E1,6.7683405E2,1.160519E3,6.0676544E2,3.2448297E0,1.1098235E1,3.67319E2,3.083089E2],"tree_param":{"num_deleted":"0","num_feature":"26","num_nodes":"31","size_leaf_vector":"1"}},{"base_weights":[5.668375E-3,2.5895485E-3,6.9340324E-1,2.5044397E-1,-5.486492E-3,8.428818E-1,-2.9452682E-2,-3.2378754E-1,3.87195E-1,-6.967029E-1,4.7537694E-3,9.717625E-1,-3.4241662E-3,1.8799568E-2,-4.0945593E-2,2.3097215E-2,-3.6923427E-2,-7.792591E-4,-4.5816027E-2,3.384019E-2,9.95553E-5,7.831947E-3,6.1623942E-2],"categories":[],"categories_nodes":[],"categories_segments":[],"categories_sizes":[],"default_left":[0,0,0,0,0,0,0,0,0,0,0,0,0,0,0,0,0,0,0,0,0,0,0],"id":22,"left_children":[1,3,5,7,9,11,-1,13,15,17,19,21,-1,-1,-1,-1,-1,-1,-1,-1,-1,-1,-1],"loss_changes":[6.8133225E0,6.4172854E0,3.2456589E0,8.069554E0,2.1981907E1,1.6234789E0,0E0,7.2384343E0,7.2544985E0,6.7674274E0,5.6814017E0,2.2888908E0,0E0,0E0,0E0,0E0,0E0,0E0,0E0,0E0,0E0,0E0,0E0],"parents":[2147483647,0,0,1,1,2,2,3,3,4,4,5,5,7,7,8,8,9,9,10,10,11,11],"right_children":[2,4,6,8,10,12,-1,14,16,18,20,22,-1,-1,-1,-1,-1,-1,-1,-1,-1,-1,-1],"split_conditions":[1.259315E0,5.8778524E-1,8.5079895E1,1.4135715E1,-7.933533E-1,2.5430598E4,-2.9452682E-2,1.249069E-3,2.58846E4,2.24768E4,2.1315049E4,2.2920367E4,-3.4241662E-3,1.8799568E-2,-4.0945593E-2,2.3097215E-2,-3.6923427E-2,-7.792591E-4,-4.5816027E-2,3.384019E-2,9.95553E-5,7.831947E-3,6.1623942E-2],"split_indices":[18,22,20,0,21,4,0,17,5,5,2,2,0,0,0,0,0,0,0,0,0,0,0],"split_type":[0,0,0,0,0,0,0,0,0,0,0,0,0,0,0,0,0,0,0,0,0,0,0],"sum_hessian":[3.2176008E3,3.2042598E3,1.3340949E1,1.00165344E2,3.1040945E3,1.2255279E1,1.0856706E0,1.9002825E1,8.116252E1,4.43367E1,3.0597578E3,1.0678857E1,1.5764217E0,7.973779E0,1.1029046E1,7.666147E1,4.5010543E0,1.1071312E1,3.326539E1,1.1527702E1,3.04823E3,2.9758224E0,7.703034E0],"tree_param":{"num_deleted":"0","num_feature":"26","num_nodes":"23","size_leaf_vector":"1"}},{"base_weights":[7.878455E-3,1.1774328E-2,-4.642605E-1,6.5651904E-3,6.5342855E-1,4.379434E-1,-6.801092E-1,-2.7256044E-2,6.0170047E-2,-3.2889538E-2,9.8471314E-1,-1.1521696E-1,4.922312E-2,-8.452945E-1,2.0568733E-1,-2.5603748E-3,8.383826E-3,4.034756E-3,-1.4600585E-2,-2.5940826E-2,4.828432E-2,5.9978217E-2,-1.4269709E-2,3.172527E-2,-3.7276626E-2,1.537542E-2,-4.971723E-2,5.68865E-2,-2.8270945E-2],"categories":[],"categories_nodes":[],"categories_segments":[],"categories_sizes":[],"default_left":[0,0,0,0,0,0,0,0,0,0,0,0,0,0,0,0,0,0,0,0,0,0,0,0,0,0,0,0,0],"id":23,"left_children":[1,3,5,7,9,11,13,15,17,19,21,23,-1,25,27,-1,-1,-1,-1,-1,-1,-1,-1,-1,-1,-1,-1,-1,-1],"loss_changes":[5.9374957E0,1.0690177E1,5.442496E0,5.757531E0,5.8883867E0,1.8391831E0,3.3504267E0,9.100427E0,8.903896E0,5.0392084E0,5.091404E0,2.2367609E0,0E0,3.4833593E0,3.6736636E0,0E0,0E0,0E0,0E0,0E0,0E0,0E0,0E0,0E0,0E0,0E0,0E0,0E0,0E0],"parents":[2147483647,0,0,1,1,2,2,3,3,4,4,5,5,6,6,7,7,8,8,9,9,10,10,11,11,13,13,14,14],"right_children":[2,4,6,8,10,12,14,16,18,20,22,24,-1,26,28,-1,-1,-1,-1,-1,-1,-1,-1,-1,-1,-1,-1,-1,-1],"split_conditions":[2.61922E4,2.6131596E4,3.542573E1,9.659258E-1,7.6604444E-1,2.9613916E1,1.7557536E0,6.559195E-3,9.632438E-3,2.3565853E-3,1E0,-1.8738131E-1,4.922312E-2,-1.0085906E0,7.727723E1,-2.5603748E-3,8.383826E-3,4.034756E-3,-1.4600585E-2,-2.5940826E-2,4.828432E-2,5.9978217E-2,-1.4269709E-2,3.172527E-2,-3.7276626E-2,1.537542E-2,-4.971723E-2,5.68865E-2,-2.8270945E-2],"split_indices":[5,4,20,22,22,20,6,17,17,17,15,21,0,6,20,0,0,0,0,0,0,0,0,0,0,0,0,0,0],"split_type":[0,0,0,0,0,0,0,0,0,0,0,0,0,0,0,0,0,0,0,0,0,0,0,0,0,0,0,0,0],"sum_hessian":[3.2239932E3,3.1985752E3,2.5418098E1,3.1738193E3,2.4755764E1,4.7085156E0,2.0709583E1,1.9463124E3,1.227507E3,8.352571E0,1.6403194E1,2.7322469E0,1.9762691E0,1.7493145E1,3.216437E0,1.7339932E3,2.123192E2,1.1606362E3,6.687075E1,5.9416757E0,2.4108946E0,1.4077403E1,2.3257906E0,1.2448845E0,1.4873623E0,1.881085E0,1.5612061E1,1.2409902E0,1.9754469E0],"tree_param":{"num_deleted":"0","num_feature":"26","num_nodes":"29","size_leaf_vector":"1"}},{"base_weights":[1.4959739E-2,9.943137E-3,4.3068492E-1,1.4193753E-2,-5.1198196E-1,-2.2150327E-1,6.589335E-1,1.0014679E-2,5.379413E-1,3.7647974E-1,-7.16584E-1,6.0025996E-1,-7.4682426E-1,8.889818E-1,3.0107257E-1,3.6959236E-3,-1.0628462E-3,-9.364188E-3,4.0400386E-2,-5.846442E-3,4.550982E-2,3.4071967E-2,-4.1893303E-2,4.5900885E-2,-7.941965E-3,2.1741541E-2,-5.7483405E-2,4.8931E-2,-1.058631E-3,4.03167E-2,-2.4210712E-2],"categories":[],"categories_nodes":[],"categories_segments":[],"categories_sizes":[],"default_left":[0,0,0,0,0,0,0,0,0,0,0,0,0,0,0,0,0,0,0,0,0,0,0,0,0,0,0,0,0,0,0],"id":24,"left_children":[1,3,5,7,9,11,13,15,17,19,21,23,25,27,29,-1,-1,-1,-1,-1,-1,-1,-1,-1,-1,-1,-1,-1,-1,-1,-1],"loss_changes":[6.699731E0,7.055975E0,5.8479404E0,6.8948336E0,4.940409E0,5.0581045E0,2.0889568E0,6.2536964E0,5.0353823E0,1.5455773E0,4.170394E0,1.2840139E0,3.812954E0,1.4005003E0,5.4347377E0,0E0,0E0,0E0,0E0,0E0,0E0,0E0,0E0,0E0,0E0,0E0,0E0,0E0,0E0,0E0,0E0],"parents":[2147483647,0,0,1,1,2,2,3,3,4,4,5,5,6,6,7,7,8,8,9,9,10,10,11,11,12,12,13,13,14,14],"right_children":[2,4,6,8,10,12,14,16,18,20,22,24,26,28,30,-1,-1,-1,-1,-1,-1,-1,-1,-1,-1,-1,-1,-1,-1,-1,-1],"split_conditions":[2.4399896E0,2.61922E4,4.3323796E-4,2.6131596E4,3.542573E1,-7.569951E-1,1.0645139E0,-1.7438707E0,-9.5831776E-5,9.9405634E-1,1.1592857E1,2.4516379E4,2.210864E4,2.52005E4,5.2553033E-3,3.6959236E-3,-1.0628462E-3,-9.364188E-3,4.0400386E-2,-5.846442E-3,4.550982E-2,3.4071967E-2,-4.1893303E-2,4.5900885E-2,-7.941965E-3,2.1741541E-2,-5.7483405E-2,4.8931E-2,-1.058631E-3,4.03167E-2,-2.4210712E-2],"split_indices":[6,5,10,4,20,21,18,19,7,22,0,2,2,2,17,0,0,0,0,0,0,0,0,0,0,0,0,0,0,0,0],"split_type":[0,0,0,0,0,0,0,0,0,0,0,0,0,0,0,0,0,0,0,0,0,0,0,0,0,0,0,0,0,0,0],"sum_hessian":[3.2135408E3,3.1762366E3,3.7304073E1,3.151543E3,2.4693707E1,9.678547E0,2.7625528E1,3.1276062E3,2.3936598E1,4.4649777E0,2.022873E1,3.7187023E0,5.959845E0,1.5912282E1,1.1713245E1,1.0271837E3,2.1004226E3,6.578228E0,1.735837E1,2.7258806E0,1.7390971E0,1.2461118E0,1.8982616E1,2.4738157E0,1.2448865E0,1.4950466E0,4.4647985E0,1.441716E1,1.4951227E0,7.111094E0,4.6021514E0],"tree_param":{"num_deleted":"0","num_feature":"26","num_nodes":"31","size_leaf_vector":"1"}},{"base_weights":[1.4019938E-2,4.3572086E-1,8.467323E-3,1.6874808E-1,8.6794466E-1,1.6009843E-1,-6.709146E-3,5.555909E-1,-2.8165802E-1,1.5564577E-1,1.0490321E0,2.2542557E-2,3.6677876E-1,-2.5790911E-3,-4.905353E-1,-5.0443006E-3,5.4642525E-2,1.4470281E-2,-4.3858007E-2,5.134924E-2,-4.5931008E-2,5.8997255E-2,-5.8726124E-3,1.06007755E-2,-1.6034579E-2,3.6684647E-2,1.1377717E-2,-3.5672996E-4,2.5378248E-2,2.6427671E-2,-3.7168454E-2],"categories":[],"categories_nodes":[],"categories_segments":[],"categories_sizes":[],"default_left":[0,0,0,0,0,0,0,0,0,0,0,0,0,0,0,0,0,0,0,0,0,0,0,0,0,0,0,0,0,0,0],"id":25,"left_children":[1,3,5,7,9,11,13,15,17,19,21,23,25,27,29,-1,-1,-1,-1,-1,-1,-1,-1,-1,-1,-1,-1,-1,-1,-1,-1],"loss_changes":[7.5546894E0,4.692015E0,7.3351173E0,4.889061E0,1.8707418E0,8.23649E0,5.7896333E0,5.3825173E0,4.747344E0,5.034473E0,2.031929E0,1.1460764E1,5.7494335E0,6.683843E0,6.711633E0,0E0,0E0,0E0,0E0,0E0,0E0,0E0,0E0,0E0,0E0,0E0,0E0,0E0,0E0,0E0,0E0],"parents":[2147483647,0,0,1,1,2,2,3,3,4,4,5,5,6,6,7,7,8,8,9,9,10,10,11,11,12,12,13,13,14,14],"right_children":[2,4,6,8,10,12,14,16,18,20,22,24,26,28,30,-1,-1,-1,-1,-1,-1,-1,-1,-1,-1,-1,-1,-1,-1,-1,-1],"split_conditions":[1.5395509E1,2.991063E-2,2.2025225E4,2.423942E4,2.2496016E4,2.1813705E4,2.61922E4,7.431448E-1,8.7155744E-2,2.2176748E4,8.0756744E-4,2.1689273E4,1.839643E1,2.6131596E4,3.542573E1,-5.0443006E-3,5.4642525E-2,1.4470281E-2,-4.3858007E-2,5.134924E-2,-4.5931008E-2,5.8997255E-2,-5.8726124E-3,1.06007755E-2,-1.6034579E-2,3.6684647E-2,1.1377717E-2,-3.5672996E-4,2.5378248E-2,2.6427671E-2,-3.7168454E-2],"split_indices":[20,18,4,3,2,4,5,22,21,2,10,3,0,4,20,0,0,0,0,0,0,0,0,0,0,0,0,0,0,0,0],"split_type":[0,0,0,0,0,0,0,0,0,0,0,0,0,0,0,0,0,0,0,0,0,0,0,0,0,0,0,0,0,0,0],"sum_hessian":[3.2269482E3,4.093081E1,3.1860173E3,2.6161798E1,1.4769009E1,2.890011E2,2.897016E3,1.3948359E1,1.221344E1,3.370562E0,1.1398446E1,1.741829E2,1.14818184E2,2.8734927E3,2.3523485E1,6.643227E0,7.305132E0,6.497041E0,5.716399E0,1.8853575E0,1.4852047E0,1.0237918E1,1.1605278E0,1.12475945E2,6.1706955E1,3.040872E1,8.440946E1,2.8490374E3,2.4455452E1,4.459244E0,1.9064241E1],"tree_param":{"num_deleted":"0","num_feature":"26","num_nodes":"31","size_leaf_vector":"1"}},{"base_weights":[-1.3951302E-3,-2.685867E-2,7.91652E-2,-2.5426954E-1,-1.0439498E-2,2.9755214E-2,3.7439838E-1,-4.1486907E-1,2.0602173E-1,3.2480408E-2,-9.745247E-2,8.2224715E-1,9.619142E-3,6.96194E-1,1.5680356E-1,-1.0377948E-2,-3.3605944E-2,6.104384E-2,2.344388E-3,8.187472E-3,-2.5700072E-3,-1.1732809E-2,2.3730242E-4,-3.9245266E-2,5.7227135E-2,8.219451E-3,-2.19018E-3,3.8265746E-2,-3.166247E-2,-1.0190792E-2,2.637123E-2],"categories":[],"categories_nodes":[],"categories_segments":[],"categories_sizes":[],"default_left":[0,0,0,0,0,0,0,0,0,0,0,0,0,0,0,0,0,0,0,0,0,0,0,0,0,0,0,0,0,0,0],"id":26,"left_children":[1,3,5,7,9,11,13,15,17,19,21,23,25,27,29,-1,-1,-1,-1,-1,-1,-1,-1,-1,-1,-1,-1,-1,-1,-1,-1],"loss_changes":[6.5977287E0,9.122227E0,1.125699E1,1.2247128E1,8.519058E0,1.0568775E1,7.639144E0,6.382616E0,6.9231176E0,1.6830862E1,1.0566408E1,9.399187E0,5.359925E0,4.55999E0,9.103372E0,0E0,0E0,0E0,0E0,0E0,0E0,0E0,0E0,0E0,0E0,0E0,0E0,0E0,0E0,0E0,0E0],"parents":[2147483647,0,0,1,1,2,2,3,3,4,4,5,5,6,6,7,7,8,8,9,9,10,10,11,11,12,12,13,13,14,14],"right_children":[2,4,6,8,10,12,14,16,18,20,22,24,26,28,30,-1,-1,-1,-1,-1,-1,-1,-1,-1,-1,-1,-1,-1,-1,-1,-1],"split_conditions":[2.4757143E1,9.825784E-4,8.6176336E-1,2.52292E4,1.8646456E1,4.4368033E-4,6.3623637E-3,2.462215E4,9.467857E0,4.2685363E-1,4.5630726E1,2.2385111E4,2.7264341E1,7.827314E1,9.316983E-4,-1.0377948E-2,-3.3605944E-2,6.104384E-2,2.344388E-3,8.187472E-3,-2.5700072E-3,-1.1732809E-2,2.3730242E-4,-3.9245266E-2,5.7227135E-2,8.219451E-3,-2.19018E-3,3.8265746E-2,-3.166247E-2,-1.0190792E-2,2.637123E-2],"split_indices":[0,17,18,5,0,10,17,5,0,18,20,2,0,20,10,0,0,0,0,0,0,0,0,0,0,0,0,0,0,0,0],"split_type":[0,0,0,0,0,0,0,0,0,0,0,0,0,0,0,0,0,0,0,0,0,0,0,0,0,0,0,0,0,0,0],"sum_hessian":[3.2142478E3,2.4427947E3,7.7145294E2,1.6351888E2,2.279276E3,6.617961E2,1.0965687E2,1.2129627E2,4.222261E1,1.5267968E3,7.524791E2,1.5411557E1,6.463845E2,4.3349243E1,6.6307625E1,6.816828E1,5.3127987E1,4.8188767E0,3.7403736E1,5.948824E2,9.3191437E2,3.2067285E2,4.3180627E2,2.3345883E0,1.3076969E1,1.6533087E2,4.8105365E2,4.1610165E1,1.7390757E0,3.383539E1,3.2472237E1],"tree_param":{"num_deleted":"0","num_feature":"26","num_nodes":"31","size_leaf_vector":"1"}},{"base_weights":[-5.4682285E-4,-4.0029222E-1,4.2122137E-3,4.263705E-2,-7.541813E-1,8.11932E-3,-4.8578608E-1,1.1704415E0,-4.3471688E-1,-1.0795946E0,2.2943604E-1,1.4696556E-1,-5.4436037E-3,-7.3565865E-1,3.4236962E-1,7.5648956E-2,-6.4367214E-3,-2.6604745E-3,-6.1614342E-2,-6.173835E-2,-1.865746E-2,5.3997695E-2,-1.0631384E-2,-5.083663E-3,1.4631215E-2,1.9768242E-2,-5.5188563E-4,-4.5558523E-2,2.1799177E-2,4.330502E-2,-1.5539887E-2],"categories":[],"categories_nodes":[],"categories_segments":[],"categories_sizes":[],"default_left":[0,0,0,0,0,0,0,0,0,0,0,0,0,0,0,0,0,0,0,0,0,0,0,0,0,0,0,0,0,0,0],"id":27,"left_children":[1,3,5,7,9,11,13,15,17,19,21,23,25,27,29,-1,-1,-1,-1,-1,-1,-1,-1,-1,-1,-1,-1,-1,-1,-1,-1],"loss_changes":[6.146428E0,5.9903884E0,6.1168222E0,1.0106989E1,7.0280304E0,5.9679785E0,5.4820933E0,2.674759E0,3.9678576E0,1.3033123E0,2.5196114E0,1.0243479E1,6.4790297E0,4.455324E0,2.5066848E0,0E0,0E0,0E0,0E0,0E0,0E0,0E0,0E0,0E0,0E0,0E0,0E0,0E0,0E0,0E0,0E0],"parents":[2147483647,0,0,1,1,2,2,3,3,4,4,5,5,6,6,7,7,8,8,9,9,10,10,11,11,12,12,13,13,14,14],"right_children":[2,4,6,8,10,12,14,16,18,20,22,24,26,28,30,-1,-1,-1,-1,-1,-1,-1,-1,-1,-1,-1,-1,-1,-1,-1,-1],"split_conditions":[-2.643998E0,6.1482226E-4,8.779577E1,1.8932835E1,2.8885826E1,2.2027527E4,2.8885826E1,-6.37424E-1,2.54575E4,0E0,7.5789285E-4,4.5991035E1,1.7036125E1,1.3052619E-1,7.176935E-4,7.5648956E-2,-6.4367214E-3,-2.6604745E-3,-6.1614342E-2,-6.173835E-2,-1.865746E-2,5.3997695E-2,-1.0631384E-2,-5.083663E-3,1.4631215E-2,1.9768242E-2,-5.5188563E-4,-4.5558523E-2,2.1799177E-2,4.330502E-2,-1.5539887E-2],"split_indices":[6,10,20,20,0,3,0,21,5,18,10,20,20,21,10,0,0,0,0,0,0,0,0,0,0,0,0,0,0,0,0],"split_type":[0,0,0,0,0,0,0,0,0,0,0,0,0,0,0,0,0,0,0,0,0,0,0,0,0,0,0,0,0,0,0],"sum_hessian":[3.22899E3,3.701158E1,3.1919783E3,1.6828485E1,2.0183094E1,3.1677034E3,2.4274927E1,4.5727925E0,1.2255693E1,1.5092438E1,5.090656E0,2.810193E2,2.886684E3,1.8734125E1,5.540802E0,3.4884639E0,1.0843287E0,9.011751E0,3.2439418E0,1.1761203E1,3.3312347E0,1.2475065E0,3.8431492E0,1.0392379E2,1.7709549E2,3.877597E1,2.8479082E3,1.6486729E1,2.2473965E0,2.8941655E0,2.6466362E0],"tree_param":{"num_deleted":"0","num_feature":"26","num_nodes":"31","size_leaf_vector":"1"}},{"base_weights":[-8.3323475E-3,3.4118095E-1,-1.3011624E-2,3.0133603E-2,8.4667623E-1,-6.999267E-2,2.2602214E-2,4.695972E-1,-3.6060423E-1,1.1124688E0,1.357845E-1,-1.28649995E-2,-2.8366065E-1,2.1093974E-1,3.3781135E-3,-8.134838E-3,3.8711138E-2,2.0519432E-3,-3.764618E-2,1.993414E-2,6.678247E-2,3.2732975E-2,-2.3229282E-2,4.7169556E-3,-4.9869395E-3,-8.516154E-3,-2.6419822E-2,1.2166797E-2,-4.680262E-2,-3.627728E-2,5.7360774E-4],"categories":[],"categories_nodes":[],"categories_segments":[],"categories_sizes":[],"default_left":[0,0,0,0,0,0,0,0,0,0,0,0,0,0,0,0,0,0,0,0,0,0,0,0,0,0,0,0,0,0,0],"id":28,"left_children":[1,3,5,7,9,11,13,15,17,19,21,23,25,27,29,-1,-1,-1,-1,-1,-1,-1,-1,-1,-1,-1,-1,-1,-1,-1,-1],"loss_changes":[5.2529087E0,6.646383E0,6.429876E0,4.8581777E0,2.8961868E0,1.4871155E1,7.0598817E0,2.6850202E0,2.3976226E0,1.3153191E0,2.0261688E0,8.974118E0,7.0395393E0,6.938548E0,1.0454202E1,0E0,0E0,0E0,0E0,0E0,0E0,0E0,0E0,0E0,0E0,0E0,0E0,0E0,0E0,0E0,0E0],"parents":[2147483647,0,0,1,1,2,2,3,3,4,4,5,5,6,6,7,7,8,8,9,9,10,10,11,11,12,12,13,13,14,14],"right_children":[2,4,6,8,10,12,14,16,18,20,22,24,26,28,30,-1,-1,-1,-1,-1,-1,-1,-1,-1,-1,-1,-1,-1,-1,-1,-1],"split_conditions":[1.5395509E1,2.991063E-2,4.5630726E1,2.3534268E4,1.123431E-2,4.202794E1,2.2027527E4,6.2592345E-1,0E0,1.9082144E1,9.8836154E-1,1.8921429E1,4.335934E-1,8.6534706E1,2.2057959E4,-8.134838E-3,3.8711138E-2,2.0519432E-3,-3.764618E-2,1.993414E-2,6.678247E-2,3.2732975E-2,-2.3229282E-2,4.7169556E-3,-4.9869395E-3,-8.516154E-3,-2.6419822E-2,1.2166797E-2,-4.680262E-2,-3.627728E-2,5.7360774E-4],"split_indices":[20,18,20,2,17,20,3,22,18,0,22,0,19,20,2,0,0,0,0,0,0,0,0,0,0,0,0,0,0,0,0],"split_type":[0,0,0,0,0,0,0,0,0,0,0,0,0,0,0,0,0,0,0,0,0,0,0,0,0,0,0,0,0,0,0],"sum_hessian":[3.2081516E3,4.143319E1,3.1667183E3,2.6305925E1,1.5127263E1,1.2176118E3,1.9491066E3,1.2286007E1,1.40199175E1,1.05994005E1,4.527862E0,9.615782E2,2.5603363E2,1.7960017E2,1.7695065E3,4.1460986E0,8.139909E0,7.370078E0,6.64984E0,3.1884193E0,7.410981E0,2.3802683E0,2.1475937E0,4.3038632E2,5.3119183E2,1.7615288E2,7.9880745E1,1.7543301E2,4.167164E0,1.8459538E1,1.7510469E3],"tree_param":{"num_deleted":"0","num_feature":"26","num_nodes":"31","size_leaf_vector":"1"}},{"base_weights":[1.0421484E-3,6.59485E-2,-3.0328598E-2,1.0751555E-1,-1.0391685E-1,-8.154079E-2,5.269072E-2,1.3123564E-1,-2.3239604E-1,-3.0520293E-1,6.8783514E-2,-9.607515E-2,3.9593756E-1,2.077118E-1,-4.750448E-3,2.8669983E-2,5.219865E-3,4.992977E-2,-1.50630595E-2,-3.1157522E-2,-7.0041055E-3,6.9631636E-3,-4.3289974E-2,9.246004E-3,-6.0505383E-3,-2.9282505E-4,3.8161967E-2,1.321928E-3,1.8372377E-2,-7.854606E-3,4.193478E-3],"categories":[],"categories_nodes":[],"categories_segments":[],"categories_sizes":[],"default_left":[0,0,0,0,0,0,0,0,0,0,0,0,0,0,0,0,0,0,0,0,0,0,0,0,0,0,0,0,0,0,0],"id":29,"left_children":[1,3,5,7,9,11,13,15,17,19,21,23,25,27,29,-1,-1,-1,-1,-1,-1,-1,-1,-1,-1,-1,-1,-1,-1,-1,-1],"loss_changes":[6.5507674E0,7.412914E0,9.225794E0,6.8248663E0,7.202819E0,9.350195E0,7.3749413E0,9.295536E0,4.991325E0,4.931034E0,7.498659E0,9.152262E0,5.883165E0,6.47375E0,8.183664E0,0E0,0E0,0E0,0E0,0E0,0E0,0E0,0E0,0E0,0E0,0E0,0E0,0E0,0E0,0E0,0E0],"parents":[2147483647,0,0,1,1,2,2,3,3,4,4,5,5,6,6,7,7,8,8,9,9,10,10,11,11,12,12,13,13,14,14],"right_children":[2,4,6,8,10,12,14,16,18,20,22,24,26,28,30,-1,-1,-1,-1,-1,-1,-1,-1,-1,-1,-1,-1,-1,-1,-1,-1],"split_conditions":[-1.7438707E0,2.504095E4,-2.3768589E-1,2.1643962E-1,-1.261139E-4,4.4840807E-4,-1.0886688E-1,1.3851293E-3,-7.332021E-4,2.530095E4,9.99762E-1,-1.2351203E0,2.358638E4,2.41875E4,2.0553719E-3,2.8669983E-2,5.219865E-3,4.992977E-2,-1.50630595E-2,-3.1157522E-2,-7.0041055E-3,6.9631636E-3,-4.3289974E-2,9.246004E-3,-6.0505383E-3,-2.9282505E-4,3.8161967E-2,1.321928E-3,1.8372377E-2,-7.854606E-3,4.193478E-3],"split_indices":[19,5,21,21,7,7,21,17,7,5,22,6,2,5,17,0,0,0,0,0,0,0,0,0,0,0,0,0,0,0,0],"split_type":[0,0,0,0,0,0,0,0,0,0,0,0,0,0,0,0,0,0,0,0,0,0,0,0,0,0,0,0,0,0,0],"sum_hessian":[3.215233E3,1.0472863E3,2.1679468E3,8.4168744E2,2.0559882E2,1.3408396E3,8.27107E2,7.873571E2,5.4330345E1,9.4587616E1,1.110112E2,1.3020056E3,3.883404E1,2.2290887E2,6.041981E2,4.389063E1,7.434665E2,2.1631138E0,5.2167233E1,3.1383465E1,6.320415E1,1.0401788E2,6.993317E0,1.0560009E2,1.1964055E3,1.901617E1,1.9817871E1,1.04961136E2,1.1794774E2,2.2192561E2,3.8227252E2],"tree_param":{"num_deleted":"0","num_feature":"26","num_nodes":"31","size_leaf_vector":"1"}},{"base_weights":[-6.441219E-3,-2.035781E-2,1.8801418E-1,-1.7126534E-2,-8.660982E-1,5.3273743E-1,2.7968833E-2,-8.1815824E-2,1.4698184E-2,-1.1091462E0,6.2312046E-3,7.259881E-1,9.925867E-4,-4.3895614E-1,1.5743804E-1,-7.952576E-3,9.2083664E-4,1.793533E-2,5.427247E-5,-6.068764E-3,-6.5734975E-2,-6.8052174E-3,4.1708972E-2,-3.4832824E-2,2.0785062E-2,2.2592917E-2,-3.4996122E-2,1.5487469E-2,-1.1027387E-2],"categories":[],"categories_nodes":[],"categories_segments":[],"categories_sizes":[],"default_left":[0,0,0,0,0,0,0,0,0,0,0,0,0,0,0,0,0,0,0,0,0,0,0,0,0,0,0,0,0],"id":30,"left_children":[1,3,5,7,9,11,13,15,17,19,-1,21,23,25,27,-1,-1,-1,-1,-1,-1,-1,-1,-1,-1,-1,-1,-1,-1],"loss_changes":[8.664369E0,8.149393E0,1.1782814E1,6.1302605E0,2.8713398E0,6.9608E0,8.961189E0,7.6038322E0,9.348021E0,1.7115345E0,0E0,4.747816E0,5.803828E0,7.8008933E0,6.740653E0,0E0,0E0,0E0,0E0,0E0,0E0,0E0,0E0,0E0,0E0,0E0,0E0,0E0,0E0],"parents":[2147483647,0,0,1,1,2,2,3,3,4,4,5,5,6,6,7,7,8,8,9,9,11,11,12,12,13,13,14,14],"right_children":[2,4,6,8,10,12,14,16,18,20,-1,22,24,26,28,-1,-1,-1,-1,-1,-1,-1,-1,-1,-1,-1,-1,-1,-1],"split_conditions":[9.91046E-2,2.62223E4,1.5367857E1,2.0553719E-3,8.767787E-5,9.1655946E-1,-6.4278764E-1,3.566135E-4,1.2917857E1,-4.1966605E0,6.2312046E-3,-3.5759075E0,-4.0274668E-1,-7.7988446E-1,2.464165E4,-7.952576E-3,9.2083664E-4,1.793533E-2,5.427247E-5,-6.068764E-3,-6.5734975E-2,-6.8052174E-3,4.1708972E-2,-3.4832824E-2,2.0785062E-2,2.2592917E-2,-3.4996122E-2,1.5487469E-2,-1.1027387E-2],"split_indices":[25,5,0,17,7,19,21,10,0,19,0,19,21,21,5,0,0,0,0,0,0,0,0,0,0,0,0,0,0],"split_type":[0,0,0,0,0,0,0,0,0,0,0,0,0,0,0,0,0,0,0,0,0,0,0,0,0,0,0,0,0],"sum_hessian":[3.1993113E3,2.9864734E3,2.1283766E2,2.976123E3,1.0350463E1,6.67454E1,1.4609225E2,9.808347E2,1.9952883E3,8.215476E0,2.134987E0,4.8686207E1,1.8059195E1,3.1195745E1,1.14896515E2,5.536357E2,4.27199E2,7.498504E1,1.9203033E3,1.6891024E0,6.5263734E0,5.399982E0,4.3286224E1,6.4793515E0,1.15798435E1,6.9024816E0,2.4293264E1,8.202474E1,3.287177E1],"tree_param":{"num_deleted":"0","num_feature":"26","num_nodes":"29","size_leaf_vector":"1"}},{"base_weights":[-1.0043287E-3,8.389346E-3,-1.7966688E-1,4.5790143E-2,-5.9708588E-2,-4.4587216E-1,1.2803529E-1,-1.3169715E-1,7.384418E-2,-1.4546427E-1,9.7565025E-2,-3.1945622E-1,-1.0450838E0,5.4796475E-1,-1.3705918E-1,-9.997162E-3,9.906902E-3,2.5518332E-2,3.1985685E-3,-1.1963677E-2,-9.419624E-4,6.307131E-2,4.267709E-3,-1.9237058E-2,5.4660518E-2,-5.8731485E-2,9.718552E-3,1.9094266E-3,4.1331228E-2,-6.83429E-4,-5.771519E-2],"categories":[],"categories_nodes":[],"categories_segments":[],"categories_sizes":[],"default_left":[0,0,0,0,0,0,0,0,0,0,0,0,0,0,0,0,0,0,0,0,0,0,0,0,0,0,0,0,0,0,0],"id":31,"left_children":[1,3,5,7,9,11,13,15,17,19,21,23,25,27,29,-1,-1,-1,-1,-1,-1,-1,-1,-1,-1,-1,-1,-1,-1,-1,-1],"loss_changes":[5.423411E0,7.8222265E0,1.3279108E1,9.880177E0,1.4699714E1,6.238779E0,8.49653E0,6.138098E0,7.3472824E0,8.370408E0,5.361207E0,7.16153E0,2.584793E0,4.155554E0,5.905481E0,0E0,0E0,0E0,0E0,0E0,0E0,0E0,0E0,0E0,0E0,0E0,0E0,0E0,0E0,0E0,0E0],"parents":[2147483647,0,0,1,1,2,2,3,3,4,4,5,5,6,6,7,7,8,8,9,9,10,10,11,11,12,12,13,13,14,14],"right_children":[2,4,6,8,10,12,14,16,18,20,22,24,26,28,30,-1,-1,-1,-1,-1,-1,-1,-1,-1,-1,-1,-1,-1,-1,-1,-1],"split_conditions":[9.99762E-1,1.2860898E0,5.649159E-1,1.1873413E-3,2.310357E1,2.5287875E4,2.353943E4,9.8078525E-1,1.0607142E1,2.4683145E4,-1.5150701E0,1.21729674E-4,4.7870567E-3,2.2155346E4,9.452171E0,-9.997162E-3,9.906902E-3,2.5518332E-2,3.1985685E-3,-1.1963677E-2,-9.419624E-4,6.307131E-2,4.267709E-3,-1.9237058E-2,5.4660518E-2,-5.8731485E-2,9.718552E-3,1.9094266E-3,4.1331228E-2,-6.83429E-4,-5.771519E-2],"split_indices":[22,19,19,17,0,3,4,22,0,3,6,7,17,3,19,0,0,0,0,0,0,0,0,0,0,0,0,0,0,0,0],"split_type":[0,0,0,0,0,0,0,0,0,0,0,0,0,0,0,0,0,0,0,0,0,0,0,0,0,0,0,0,0,0,0],"sum_hessian":[3.229597E3,3.0691794E3,1.6041751E2,1.9813232E3,1.0878562E3,8.576756E1,7.464995E1,2.6992365E2,1.7113995E3,7.0404224E2,3.8381403E2,7.209151E1,1.3676051E1,2.8475527E1,4.617442E1,2.2397487E2,4.594877E1,3.6729393E1,1.6746702E3,4.03915E2,3.001272E2,2.9228477E0,3.8089117E2,6.960255E1,2.4889612E0,1.2429265E1,1.2467867E0,1.0466079E1,1.8009447E1,4.208321E1,4.091208E0],"tree_param":{"num_deleted":"0","num_feature":"26","num_nodes":"31","size_leaf_vector":"1"}},{"base_weights":[-3.2125453E-3,2.3220047E-1,-1.0808142E-2,-2.5908896E-1,3.497572E-1,-6.2797797E-1,-1.6512983E-3,4.63428E-1,-7.855398E-1,5.3422165E-1,-1.23917975E-1,4.2541412E-1,-7.2074074E-1,3.760236E-1,-6.1442014E-3,1.1860144E-3,6.111778E-2,1.8031323E-2,-6.808885E-2,1.360123E-2,4.450295E-2,5.5527836E-2,-1.522571E-2,4.6419945E-2,-1.3686257E-2,-3.9827958E-2,3.4239625E-3,1.6056085E-3,3.9497178E-2,-2.972949E-3,1.4187673E-3],"categories":[],"categories_nodes":[],"categories_segments":[],"categories_sizes":[],"default_left":[0,0,0,0,0,0,0,0,0,0,0,0,0,0,0,0,0,0,0,0,0,0,0,0,0,0,0,0,0,0,0],"id":32,"left_children":[1,3,5,7,9,11,13,15,17,19,21,23,25,27,29,-1,-1,-1,-1,-1,-1,-1,-1,-1,-1,-1,-1,-1,-1,-1,-1],"loss_changes":[5.7708297E0,5.91666E0,1.7665401E1,7.9911194E0,7.2157116E0,4.772236E0,5.230951E0,3.0013723E0,8.397378E0,5.269909E0,5.632061E0,1.7759292E0,2.5900211E0,5.1337147E0,5.607785E0,0E0,0E0,0E0,0E0,0E0,0E0,0E0,0E0,0E0,0E0,0E0,0E0,0E0,0E0,0E0,0E0],"parents":[2147483647,0,0,1,1,2,2,3,3,4,4,5,5,6,6,7,7,8,8,9,9,10,10,11,11,12,12,13,13,14,14],"right_children":[2,4,6,8,10,12,14,16,18,20,22,24,26,28,30,-1,-1,-1,-1,-1,-1,-1,-1,-1,-1,-1,-1,-1,-1,-1,-1],"split_conditions":[5.8778524E-1,1.4135715E1,-7.933533E-1,2.3555826E4,9.578408E-5,-2.2055538E0,1.5395509E1,2.2934924E4,1.249069E-3,3.7306872E-1,1.5257143E1,6.465534E-4,7.552981E1,2.991063E-2,4.5991035E1,1.1860144E-3,6.111778E-2,1.8031323E-2,-6.808885E-2,1.360123E-2,4.450295E-2,5.5527836E-2,-1.522571E-2,4.6419945E-2,-1.3686257E-2,-3.9827958E-2,3.4239625E-3,1.6056085E-3,3.9497178E-2,-2.972949E-3,1.4187673E-3],"split_indices":[22,0,21,2,7,6,20,3,17,18,0,10,20,18,20,0,0,0,0,0,0,0,0,0,0,0,0,0,0,0,0],"split_type":[0,0,0,0,0,0,0,0,0,0,0,0,0,0,0,0,0,0,0,0,0,0,0,0,0,0,0,0,0,0,0],"sum_hessian":[3.224945E3,9.98762E1,3.1250688E3,1.9051752E1,8.082445E1,4.470023E1,3.0803687E3,8.08094E0,1.0970812E1,5.8078842E1,2.2745605E1,3.3275292E0,4.13727E1,3.5241768E1,3.045127E3,5.769475E0,2.311465E0,3.7955108E0,7.1753016E0,3.4455173E1,2.3623667E1,2.2456896E0,2.0499914E1,1.7445344E0,1.5829947E0,3.7738003E1,3.6346962E0,1.9837265E1,1.5404501E1,1.1964736E3,1.8486533E3],"tree_param":{"num_deleted":"0","num_feature":"26","num_nodes":"31","size_leaf_vector":"1"}},{"base_weights":[-7.0505994E-3,-9.868661E-3,6.608806E-1,-2.9047424E-1,-4.1159512E-3,8.1424016E-1,-2.858072E-2,-1.6492893E-1,-1.1543624E0,1.8338507E-1,-1.2838665E-2,-1.3544326E-2,9.587197E-1,-1.4017604E-2,5.1660042E-2,-7.188268E-2,2.3026348E-3,1.1953384E-2,-4.1472334E-2,-3.3961402E-3,9.4469654E-4,5.9220653E-2,5.039999E-4],"categories":[],"categories_nodes":[],"categories_segments":[],"categories_sizes":[],"default_left":[0,0,0,0,0,0,0,0,0,0,0,0,0,0,0,0,0,0,0,0,0,0,0],"id":33,"left_children":[1,3,5,7,9,11,-1,13,15,17,19,-1,21,-1,-1,-1,-1,-1,-1,-1,-1,-1,-1],"loss_changes":[6.0606804E0,5.1706486E0,3.0224285E0,6.7887273E0,5.138755E0,2.2105742E0,0E0,8.22081E0,2.786169E0,8.07535E0,5.248428E0,0E0,2.3863544E0,0E0,0E0,0E0,0E0,0E0,0E0,0E0,0E0,0E0,0E0],"parents":[2147483647,0,0,1,1,2,2,3,3,4,4,5,5,7,7,8,8,9,9,10,10,12,12],"right_children":[2,4,6,8,10,12,-1,14,16,18,20,-1,22,-1,-1,-1,-1,-1,-1,-1,-1,-1,-1],"split_conditions":[1.259315E0,-2.3066611E0,8.5079895E1,3.2556934E1,-2.455665E-2,6.585052E1,-2.858072E-2,3.0308975E1,-2.4397166E0,1.2471316E-3,4.6182434E1,-1.3544326E-2,2.5031299E4,-1.4017604E-2,5.1660042E-2,-7.188268E-2,2.3026348E-3,1.1953384E-2,-4.1472334E-2,-3.3961402E-3,9.4469654E-4,5.9220653E-2,5.039999E-4],"split_indices":[18,6,20,20,18,20,0,20,19,24,20,0,2,0,0,0,0,0,0,0,0,0,0],"split_type":[0,0,0,0,0,0,0,0,0,0,0,0,0,0,0,0,0,0,0,0,0,0,0],"sum_hessian":[3.2154116E3,3.2028835E3,1.2528024E1,6.334909E1,3.1395344E3,1.1443468E1,1.0845559E0,5.635078E1,6.998311E0,1.386713E2,3.000863E3,1.2418122E0,1.0201655E1,5.209788E1,4.252898E0,5.5021944E0,1.4961166E0,1.3216899E2,6.5023127E0,1.096436E3,1.9044271E3,8.040242E0,2.1614137E0],"tree_param":{"num_deleted":"0","num_feature":"26","num_nodes":"23","size_leaf_vector":"1"}},{"base_weights":[3.877175E-6,-2.0298934E-2,9.3870655E-2,-9.019226E-2,8.283272E-3,-9.460835E-1,1.0279891E-1,-9.834263E-2,8.305052E-1,2.5619066E-1,-4.9694786E-3,-8.165333E-3,-6.588169E-2,1.441941E-1,-1.0999026E-1,-1.9113567E-2,-3.7790218E-3,7.0923656E-2,1.1887527E-2,1.695434E-2,-4.9311355E-2,-4.4177163E-2,-4.6965215E-5,5.8139325E-3,3.2935403E-2,8.795358E-3,-1.9732563E-2],"categories":[],"categories_nodes":[],"categories_segments":[],"categories_sizes":[],"default_left":[0,0,0,0,0,0,0,0,0,0,0,0,0,0,0,0,0,0,0,0,0,0,0,0,0,0,0],"id":34,"left_children":[1,3,5,7,9,11,13,15,17,19,21,-1,-1,23,25,-1,-1,-1,-1,-1,-1,-1,-1,-1,-1,-1,-1],"loss_changes":[6.154606E0,5.305011E0,5.429605E0,5.865335E0,6.1957917E0,1.2351084E0,5.0394263E0,4.914353E0,2.056713E0,1.0190388E1,6.339833E0,0E0,0E0,6.786952E0,7.6743727E0,0E0,0E0,0E0,0E0,0E0,0E0,0E0,0E0,0E0,0E0,0E0,0E0],"parents":[2147483647,0,0,1,1,2,2,3,3,4,4,5,5,6,6,7,7,8,8,9,9,10,10,13,13,14,14],"right_children":[2,4,6,8,10,12,14,16,18,20,22,-1,-1,24,26,-1,-1,-1,-1,-1,-1,-1,-1,-1,-1,-1,-1],"split_conditions":[5.526867E-3,-5.9130967E-1,2.9947178E-4,1.0875534E-3,2.6110363E1,2.7960763E-4,8.981719E0,1.2105197E-3,-1.2351203E0,9.99762E-1,-2.0366008E0,-8.165333E-3,-6.588169E-2,4.0016748E-4,-3.2143947E-1,-1.9113567E-2,-3.7790218E-3,7.0923656E-2,1.1887527E-2,1.695434E-2,-4.9311355E-2,-4.4177163E-2,-4.6965215E-5,5.8139325E-3,3.2935403E-2,8.795358E-3,-1.9732563E-2],"split_indices":[17,21,10,10,20,10,19,17,6,22,6,0,0,7,21,0,0,0,0,0,0,0,0,0,0,0,0],"split_type":[0,0,0,0,0,0,0,0,0,0,0,0,0,0,0,0,0,0,0,0,0,0,0,0,0,0,0],"sum_hessian":[3.227477E3,2.6541782E3,5.732988E2,7.697411E2,1.8844371E3,3.986529E0,5.6931226E2,7.638722E2,5.868905E0,9.469683E1,1.7897402E3,1.7465183E0,2.240011E0,4.768668E2,9.244547E1,5.552136E1,7.083508E2,2.247016E0,3.6218894E0,8.94553E1,5.241527E0,7.175871E0,1.7825643E3,4.5348837E2,2.3378443E1,4.6313175E1,4.6132298E1],"tree_param":{"num_deleted":"0","num_feature":"26","num_nodes":"27","size_leaf_vector":"1"}},{"base_weights":[6.335465E-3,4.8786205E-1,2.216013E-3,1.227842E0,2.089478E-1,2.0790574E-1,-4.2164577E-3,1.1265969E-2,7.173778E-2,4.9351075E-1,-3.1460044E-1,1.5444021E-1,6.7840144E-2,-6.3225406E-1,5.2871513E-3,-3.1243397E-3,6.0353525E-2,4.3748632E-2,-4.0429633E-2,1.4160688E-2,-1.1246442E-2,3.9113607E-2,-3.5848875E-2,-5.827738E-3,9.4972533E-4],"categories":[],"categories_nodes":[],"categories_segments":[],"categories_sizes":[],"default_left":[0,0,0,0,0,0,0,0,0,0,0,0,0,0,0,0,0,0,0,0,0,0,0,0,0],"id":35,"left_children":[1,3,5,7,9,11,13,-1,-1,15,17,19,-1,21,23,-1,-1,-1,-1,-1,-1,-1,-1,-1,-1],"loss_changes":[6.358143E0,5.354982E0,4.2078757E0,1.1780691E0,3.2766197E0,5.7144985E0,1.8411943E1,0E0,0E0,5.615026E0,5.4017477E0,4.620748E0,0E0,6.0717354E0,5.07815E0,0E0,0E0,0E0,0E0,0E0,0E0,0E0,0E0,0E0,0E0],"parents":[2147483647,0,0,1,1,2,2,3,3,4,4,5,5,6,6,9,9,10,10,11,11,13,13,14,14],"right_children":[2,4,6,8,10,12,14,-1,-1,16,18,20,-1,22,24,-1,-1,-1,-1,-1,-1,-1,-1,-1,-1],"split_conditions":[2.15226E4,-6.755902E-1,5.8778524E-1,1.9442858E1,2.6747894E0,1.2023506E-3,-7.933533E-1,1.1265969E-2,7.173778E-2,3.91572E1,2.107599E-3,9.885725E-5,6.7840144E-2,-1.04049236E-1,-5.6816754E0,-3.1243397E-3,6.0353525E-2,4.3748632E-2,-4.0429633E-2,1.4160688E-2,-1.1246442E-2,3.9113607E-2,-3.5848875E-2,-5.827738E-3,9.4972533E-4],"split_indices":[3,21,22,0,19,10,21,0,0,20,17,7,0,18,19,0,0,0,0,0,0,0,0,0,0],"split_type":[0,0,0,0,0,0,0,0,0,0,0,0,0,0,0,0,0,0,0,0,0,0,0,0,0],"sum_hessian":[3.204859E3,2.6188868E1,3.17867E3,6.237665E0,1.9951202E1,9.544135E1,3.0832288E3,1.42454E0,4.813125E0,1.2962887E1,6.988315E0,9.2281334E1,3.1600158E0,4.4983833E1,3.0382449E3,7.798677E0,5.16421E0,1.8242196E0,5.164096E0,6.908462E1,2.3196716E1,2.0767965E0,4.290704E1,3.0648233E2,2.7317625E3],"tree_param":{"num_deleted":"0","num_feature":"26","num_nodes":"25","size_leaf_vector":"1"}},{"base_weights":[4.0659757E-4,3.4149602E-1,-4.1026026E-3,-1.934026E-1,4.9627796E-1,-1.4485654E-2,1.23307504E-1,4.5916456E-1,-6.863175E-1,9.676405E-1,1.0598928E-1,-2.5803301E-2,1.4374678E-1,6.6409275E-2,5.395378E-1,-1.2589015E-2,4.619731E-2,1.0472215E-2,-4.784115E-2,1.2959632E-2,5.605913E-2,-1.0214872E-2,3.1164667E-2,-2.2897653E-2,-1.0998461E-3,2.4925927E-2,-2.3423068E-3,7.5411596E-3,-1.6954154E-2,1.14759235E-2,4.6384197E-2],"categories":[],"categories_nodes":[],"categories_segments":[],"categories_sizes":[],"default_left":[0,0,0,0,0,0,0,0,0,0,0,0,0,0,0,0,0,0,0,0,0,0,0,0,0,0,0,0,0,0,0],"id":36,"left_children":[1,3,5,7,9,11,13,15,17,19,21,23,25,27,29,-1,-1,-1,-1,-1,-1,-1,-1,-1,-1,-1,-1,-1,-1,-1,-1],"loss_changes":[4.9288588E0,3.5577483E0,4.18602E0,3.564982E0,5.914854E0,5.242702E0,5.611047E0,1.8672076E0,1.6922009E0,1.307622E0,3.1797063E0,4.482292E0,1.3237782E1,7.270221E0,3.2206707E0,0E0,0E0,0E0,0E0,0E0,0E0,0E0,0E0,0E0,0E0,0E0,0E0,0E0,0E0,0E0,0E0],"parents":[2147483647,0,0,1,1,2,2,3,3,4,4,5,5,6,6,7,7,8,8,9,9,10,10,11,11,12,12,13,13,14,14],"right_children":[2,4,6,8,10,12,14,16,18,20,22,24,26,28,30,-1,-1,-1,-1,-1,-1,-1,-1,-1,-1,-1,-1,-1,-1,-1,-1],"split_conditions":[1.5395509E1,-2.4859648E0,2.6725922E-4,5.059567E-4,-1.3052619E-1,9.91046E-2,2.30817E0,4.070655E-4,2.2566822E4,3.3770478E-4,6.42685E-4,1.3708937E-4,1.565E1,1.0164337E-2,2.8692661E1,-1.2589015E-2,4.619731E-2,1.0472215E-2,-4.784115E-2,1.2959632E-2,5.605913E-2,-1.0214872E-2,3.1164667E-2,-2.2897653E-2,-1.0998461E-3,2.4925927E-2,-2.3423068E-3,7.5411596E-3,-1.6954154E-2,1.14759235E-2,4.6384197E-2],"split_indices":[20,6,7,10,21,25,6,10,3,10,10,10,0,17,0,0,0,0,0,0,0,0,0,0,0,0,0,0,0,0,0],"split_type":[0,0,0,0,0,0,0,0,0,0,0,0,0,0,0,0,0,0,0,0,0,0,0,0,0,0,0,0,0,0,0],"sum_hessian":[3.202724E3,4.0812485E1,3.1619116E3,9.103366E0,3.170912E1,2.9244734E3,2.3743825E2,3.9467533E0,5.156613E0,1.3692731E1,1.8016388E1,2.7300427E3,1.9443063E2,2.0990413E2,2.7534119E1,1.7413741E0,2.205379E0,1.2483875E0,3.9082255E0,2.9178357E0,1.0774895E1,1.163976E1,6.376629E0,2.2794579E1,2.7072483E3,6.738459E1,1.2704604E2,1.7425618E2,3.564796E1,1.6192331E1,1.1341786E1],"tree_param":{"num_deleted":"0","num_feature":"26","num_nodes":"31","size_leaf_vector":"1"}},{"base_weights":[1.2901108E-3,-6.2563434E-2,2.7418429E-2,-9.1157E-2,2.3773313E-1,8.515697E-2,-2.3793511E-2,-5.662685E-2,-2.9908144E-1,4.2489204E-1,-1.6732183E-1,5.3237956E-2,3.56722E-1,-1.6612427E-1,5.1197365E-2,-3.6790918E-3,3.8035776E-2,2.0707376E-2,-1.9533662E-2,-2.9457187E-2,2.424441E-2,-3.1268172E-2,2.4570914E-2,3.8356562E-3,-1.8501472E-2,-5.332485E-3,2.6720751E-2,-1.4314477E-2,-5.284256E-4,3.286456E-4,1.2723865E-2],"categories":[],"categories_nodes":[],"categories_segments":[],"categories_sizes":[],"default_left":[0,0,0,0,0,0,0,0,0,0,0,0,0,0,0,0,0,0,0,0,0,0,0,0,0,0,0,0,0,0,0],"id":37,"left_children":[1,3,5,7,9,11,13,15,17,19,21,23,25,27,29,-1,-1,-1,-1,-1,-1,-1,-1,-1,-1,-1,-1,-1,-1,-1,-1],"loss_changes":[5.3704424E0,8.047532E0,6.7562304E0,6.1156564E0,6.252591E0,9.289748E0,1.2937397E1,1.0224255E1,8.093367E0,3.69584E0,8.299149E0,9.588428E0,9.342509E0,7.814499E0,7.201695E0,0E0,0E0,0E0,0E0,0E0,0E0,0E0,0E0,0E0,0E0,0E0,0E0,0E0,0E0,0E0,0E0],"parents":[2147483647,0,0,1,1,2,2,3,3,4,4,5,5,6,6,7,7,8,8,9,9,10,10,11,11,12,12,13,13,14,14],"right_children":[2,4,6,8,10,12,14,16,18,20,22,24,26,28,30,-1,-1,-1,-1,-1,-1,-1,-1,-1,-1,-1,-1,-1,-1,-1,-1],"split_conditions":[-5.9130967E-1,7.735751E-3,1.787857E1,6.640051E1,7.193417E0,3.62612E-3,2.1721428E1,6.534774E1,-1.5911525E-1,-3.2158222E0,2.30817E0,4.1672854E0,1.5310715E1,5.086988E-4,7.840494E-1,-3.6790918E-3,3.8035776E-2,2.0707376E-2,-1.9533662E-2,-2.9457187E-2,2.424441E-2,-3.1268172E-2,2.4570914E-2,3.8356562E-3,-1.8501472E-2,-5.332485E-3,2.6720751E-2,-1.4314477E-2,-5.284256E-4,3.286456E-4,1.2723865E-2],"split_indices":[21,17,0,20,19,17,0,20,19,6,6,19,0,10,18,0,0,0,0,0,0,0,0,0,0,0,0,0,0,0,0],"split_type":[0,0,0,0,0,0,0,0,0,0,0,0,0,0,0,0,0,0,0,0,0,0,0,0,0,0,0,0,0,0,0],"sum_hessian":[3.2169172E3,9.3370154E2,2.2832158E3,8.531618E2,8.053972E1,1.072909E3,1.2103066E3,7.3274646E2,1.20415344E2,5.505304E1,2.5486675E1,9.611358E2,1.11773254E2,4.1721948E2,7.9308716E2,7.187467E2,1.399974E1,1.3302962E1,1.0711238E2,2.582628E0,5.2470413E1,1.5063348E1,1.04233265E1,9.114064E2,4.9729465E1,3.1092602E1,8.068066E1,2.3491194E2,1.8230754E2,6.5117267E2,1.419145E2],"tree_param":{"num_deleted":"0","num_feature":"26","num_nodes":"31","size_leaf_vector":"1"}},{"base_weights":[-1.3181776E-3,1.1482001E-3,-5.8048445E-1,-3.2063858E-3,3.4343952E-1,-8.3304256E-1,1.3876957E-1,6.0799196E-3,-2.2659573E-1,-3.532371E-1,6.1289096E-1,-1.0597277E0,2.4436949E-2,4.066628E-2,-1.8905649E-2,-6.717748E-5,2.2289898E-2,-1.5827185E-2,3.1106232E-2,3.807456E-2,-3.8538348E-2,5.6511875E-2,1.7059889E-2,-1.0600183E-2,-5.8689363E-2],"categories":[],"categories_nodes":[],"categories_segments":[],"categories_sizes":[],"default_left":[0,0,0,0,0,0,0,0,0,0,0,0,0,0,0,0,0,0,0,0,0,0,0,0,0],"id":38,"left_children":[1,3,5,7,9,11,13,15,17,19,21,23,-1,-1,-1,-1,-1,-1,-1,-1,-1,-1,-1,-1,-1],"loss_changes":[4.5874944E0,4.76851E0,2.5894141E0,6.5551453E0,7.760677E0,3.580709E0,1.8403988E0,9.904761E0,9.82465E0,6.098975E0,3.7391596E0,6.2535E-1,0E0,0E0,0E0,0E0,0E0,0E0,0E0,0E0,0E0,0E0,0E0,0E0,0E0],"parents":[2147483647,0,0,1,1,2,2,3,3,4,4,5,5,6,6,7,7,8,8,9,9,10,10,11,11],"right_children":[2,4,6,8,10,12,14,16,18,20,22,24,-1,-1,-1,-1,-1,-1,-1,-1,-1,-1,-1,-1,-1],"split_conditions":[2.62223E4,2.4399896E0,3.0406765E-3,1.6719888E0,4.3323796E-4,1.7678572E1,3.2891023E-3,1.5142715E0,2.5346982E4,2.245415E4,4.483124E-3,7.405318E-3,2.4436949E-2,4.066628E-2,-1.8905649E-2,-6.717748E-5,2.2289898E-2,-1.5827185E-2,3.1106232E-2,3.807456E-2,-3.8538348E-2,5.6511875E-2,1.7059889E-2,-1.0600183E-2,-5.8689363E-2],"split_indices":[5,6,17,6,10,0,17,6,3,5,17,18,0,0,0,0,0,0,0,0,0,0,0,0,0],"split_type":[0,0,0,0,0,0,0,0,0,0,0,0,0,0,0,0,0,0,0,0,0,0,0,0,0],"sum_hessian":[3.2100686E3,3.1974504E3,1.2618314E1,3.158262E3,3.918837E1,9.221931E0,3.3963826E0,3.0331467E3,1.25115265E2,1.0842846E1,2.8345524E1,8.041137E0,1.1807947E0,1.2246438E0,2.1717386E0,2.9837705E3,4.9376087E1,1.1369303E2,1.1422228E1,2.7301214E0,8.112725E0,8.672241E0,1.9673283E1,1.2926314E0,6.7485056E0],"tree_param":{"num_deleted":"0","num_feature":"26","num_nodes":"25","size_leaf_vector":"1"}},{"base_weights":[-5.5904267E-3,-1.0009359E-2,3.6229154E-1,-6.491787E-3,-5.0293165E-1,-1.9274734E-1,5.425115E-1,-7.262058E-2,1.9493235E-2,-1.03158906E-1,-9.451586E-1,7.3252887E-1,-6.357532E-1,1.083024E0,2.805918E-1,6.8491003E-3,-5.4864893E-3,-7.3814155E-3,1.9427164E-3,7.1681985E-3,-4.5567688E-2,-5.519631E-2,4.88069E-4,6.1945766E-2,-7.904263E-3,3.1287547E-2,-4.942769E-2,6.1910886E-2,1.8641086E-3,-3.9755356E-2,2.3102332E-2],"categories":[],"categories_nodes":[],"categories_segments":[],"categories_sizes":[],"default_left":[0,0,0,0,0,0,0,0,0,0,0,0,0,0,0,0,0,0,0,0,0,0,0,0,0,0,0,0,0,0,0],"id":39,"left_children":[1,3,5,7,9,11,13,15,17,19,21,23,25,27,29,-1,-1,-1,-1,-1,-1,-1,-1,-1,-1,-1,-1,-1,-1,-1,-1],"loss_changes":[5.23279E0,5.5095735E0,3.9263139E0,5.4279027E0,3.8829865E0,4.606809E0,3.81635E0,6.9458547E0,7.3438444E0,2.7103539E0,1.6129227E0,1.8805676E0,3.8973832E0,1.4388103E0,4.4573483E0,0E0,0E0,0E0,0E0,0E0,0E0,0E0,0E0,0E0,0E0,0E0,0E0,0E0,0E0,0E0,0E0],"parents":[2147483647,0,0,1,1,2,2,3,3,4,4,5,5,6,6,7,7,8,8,9,9,10,10,11,11,12,12,13,13,14,14],"right_children":[2,4,6,8,10,12,14,16,18,20,22,24,26,28,30,-1,-1,-1,-1,-1,-1,-1,-1,-1,-1,-1,-1,-1,-1,-1,-1],"split_conditions":[2.4399896E0,8.779577E1,4.2477605E-4,-5.9130967E-1,1E0,2.245415E4,7.2091835E1,3.2556934E1,-5.6816754E0,1.4768902E0,2.542035E4,1.2210714E1,-7.933533E-1,8.230574E0,2.2023988E4,6.8491003E-3,-5.4864893E-3,-7.3814155E-3,1.9427164E-3,7.1681985E-3,-4.5567688E-2,-5.519631E-2,4.88069E-4,6.1945766E-2,-7.904263E-3,3.1287547E-2,-4.942769E-2,6.1910886E-2,1.8641086E-3,-3.9755356E-2,2.3102332E-2],"split_indices":[6,20,10,21,12,5,20,20,19,6,5,0,21,19,2,0,0,0,0,0,0,0,0,0,0,0,0,0,0,0,0],"split_type":[0,0,0,0,0,0,0,0,0,0,0,0,0,0,0,0,0,0,0,0,0,0,0,0,0,0,0,0,0,0,0],"sum_hessian":[3.2156702E3,3.1784639E3,3.720634E1,3.1569485E3,2.1515314E1,9.102643E0,2.8103695E1,8.9005914E2,2.2668894E3,1.1947792E1,9.567522E0,2.735548E0,6.3670955E0,8.149982E0,1.9953712E1,1.3347362E2,7.565855E2,2.3466626E2,2.032223E3,9.785533E0,2.1622593E0,8.0697775E0,1.4977441E0,1.4946425E0,1.2409055E0,1.2224241E0,5.1446714E0,6.93651E0,1.2134721E0,2.3919475E0,1.7561766E1],"tree_param":{"num_deleted":"0","num_feature":"26","num_nodes":"31","size_leaf_vector":"1"}},{"base_weights":[-7.1084495E-3,-1.1290674E-2,3.2945952E-1,-7.6731786E-2,1.4575571E-2,-1.594401E-1,6.2918E-1,-4.521195E-3,-1.9512436E-1,-1.4302948E-1,3.2846045E-2,8.7823254E-1,-5.4496324E-1,-1.9861544E-2,7.354968E-1,-2.382473E-3,1.5808104E-2,-1.764636E-2,-1.9892543E-3,1.7905844E-3,-1.3513911E-2,2.2854568E-2,1.1529543E-3,7.1119085E-2,-2.0114299E-2,1.952276E-2,-4.6797622E-2,1.7738683E-2,4.933637E-2],"categories":[],"categories_nodes":[],"categories_segments":[],"categories_sizes":[],"default_left":[0,0,0,0,0,0,0,0,0,0,0,0,0,0,0,0,0,0,0,0,0,0,0,0,0,0,0,0,0],"id":40,"left_children":[1,3,5,7,9,11,13,15,17,19,21,23,25,-1,27,-1,-1,-1,-1,-1,-1,-1,-1,-1,-1,-1,-1,-1,-1],"loss_changes":[4.52706E0,5.3755445E0,5.8846197E0,7.6900344E0,6.559707E0,6.7994733E0,2.9847107E0,7.757548E0,8.33986E0,5.395619E0,8.462828E0,3.821346E0,4.804537E0,0E0,1.8220196E0,0E0,0E0,0E0,0E0,0E0,0E0,0E0,0E0,0E0,0E0,0E0,0E0,0E0,0E0],"parents":[2147483647,0,0,1,1,2,2,3,3,4,4,5,5,6,6,7,7,8,8,9,9,10,10,11,11,12,12,14,14],"right_children":[2,4,6,8,10,12,14,16,18,20,22,24,26,-1,28,-1,-1,-1,-1,-1,-1,-1,-1,-1,-1,-1,-1,-1,-1],"split_conditions":[2.4399896E0,-5.9130967E-1,4.979805E-4,5.371753E-1,-5.6816754E0,2.245415E4,-8.1915206E-1,6.026323E-3,1.935E1,2.3691674E4,2.3989138E1,1.4917857E1,-7.933533E-1,-1.9861544E-2,2.3748016E4,-2.382473E-3,1.5808104E-2,-1.764636E-2,-1.9892543E-3,1.7905844E-3,-1.3513911E-2,2.2854568E-2,1.1529543E-3,7.1119085E-2,-2.0114299E-2,1.952276E-2,-4.6797622E-2,1.7738683E-2,4.933637E-2],"split_indices":[6,21,10,19,19,5,21,17,0,4,20,0,21,0,2,0,0,0,0,0,0,0,0,0,0,0,0,0,0],"split_type":[0,0,0,0,0,0,0,0,0,0,0,0,0,0,0,0,0,0,0,0,0,0,0,0,0,0,0,0,0],"sum_hessian":[3.2125059E3,3.1740315E3,3.8474354E1,8.986068E2,2.2754248E3,1.48003235E1,2.3674032E1,5.588117E2,3.3979507E2,2.3566856E2,2.0397562E3,3.662994E0,1.1137329E1,1.9651978E0,2.1708834E1,4.933175E2,6.549421E1,1.6792993E2,1.7186514E2,9.827166E1,1.3739691E2,4.4963737E1,1.9947925E3,2.492875E0,1.1701189E0,3.283387E0,7.8539424E0,9.589195E0,1.2119639E1],"tree_param":{"num_deleted":"0","num_feature":"26","num_nodes":"29","size_leaf_vector":"1"}},{"base_weights":[5.0441674E-3,-1.0406234E-2,1.2001188E-1,-2.1668421E-2,1.4502561E-1,-5.566103E-3,2.3215324E-1,-1.5725371E-1,-6.2981066E-3,2.3085307E-1,-4.103286E-1,6.775405E-2,-6.0108554E-1,3.5854098E-1,-1.5263884E-1,-1.19530475E-2,1.1932568E-2,-2.9101148E-2,-8.846903E-5,2.7326195E-2,2.455781E-3,-4.457895E-2,1.0858167E-2,-1.3514735E-2,9.380518E-3,-9.371916E-3,-6.093509E-2,1.2109726E-2,2.89304E-2,4.0103043E-3,-4.500994E-2],"categories":[],"categories_nodes":[],"categories_segments":[],"categories_sizes":[],"default_left":[0,0,0,0,0,0,0,0,0,0,0,0,0,0,0,0,0,0,0,0,0,0,0,0,0,0,0,0,0,0,0],"id":41,"left_children":[1,3,5,7,9,11,13,15,17,19,21,23,25,27,29,-1,-1,-1,-1,-1,-1,-1,-1,-1,-1,-1,-1,-1,-1,-1,-1],"loss_changes":[5.7097383E0,4.9638915E0,5.363922E0,5.5076294E0,9.226986E0,7.927032E0,9.839007E0,8.7726345E0,6.191846E0,9.530153E0,8.047077E0,6.6029344E0,4.855749E0,3.7450714E0,8.8527775E0,0E0,0E0,0E0,0E0,0E0,0E0,0E0,0E0,0E0,0E0,0E0,0E0,0E0,0E0,0E0,0E0],"parents":[2147483647,0,0,1,1,2,2,3,3,4,4,5,5,6,6,7,7,8,8,9,9,10,10,11,11,12,12,13,13,14,14],"right_children":[2,4,6,8,10,12,14,16,18,20,22,24,26,28,30,-1,-1,-1,-1,-1,-1,-1,-1,-1,-1,-1,-1,-1,-1,-1,-1],"split_conditions":[1.9445678E-4,1.5047929E-1,6.374695E-4,1.0882125E-3,9.346847E-5,6.0371653E-4,9.363928E-3,2.52292E4,1.5002821E-4,1.565E1,-2.6891983E-1,2.2666553E4,2.4575428E4,2.419915E4,9.9405634E-1,-1.19530475E-2,1.1932568E-2,-2.9101148E-2,-8.846903E-5,2.7326195E-2,2.455781E-3,-4.457895E-2,1.0858167E-2,-1.3514735E-2,9.380518E-3,-9.371916E-3,-6.093509E-2,1.2109726E-2,2.89304E-2,4.0103043E-3,-4.500994E-2],"split_indices":[7,25,10,17,7,10,17,5,10,0,21,2,3,5,22,0,0,0,0,0,0,0,0,0,0,0,0,0,0,0,0],"split_type":[0,0,0,0,0,0,0,0,0,0,0,0,0,0,0,0,0,0,0,0,0,0,0,0,0,0,0,0,0,0,0],"sum_hessian":[3.2127014E3,2.8329001E3,3.7980127E2,2.6423062E3,1.9059404E2,1.796152E2,2.0018607E2,2.6809995E2,2.374206E3,1.6558755E2,2.5006487E1,1.6071434E2,1.890087E1,1.50742E2,4.9444077E1,2.2251671E2,4.5583233E1,1.7534807E1,2.3566714E3,5.9767147E1,1.05820404E2,1.3914216E1,1.109227E1,4.173832E1,1.1897601E2,1.2100244E1,6.800626E0,9.998292E1,5.075908E1,3.8381863E1,1.1062213E1],"tree_param":{"num_deleted":"0","num_feature":"26","num_nodes":"31","size_leaf_vector":"1"}},{"base_weights":[-5.840614E-3,-3.1861922E-1,-1.8944809E-3,8.4113024E-2,-5.920708E-1,3.050201E-1,-7.364867E-3,4.6756157E-1,-5.9272896E-2,-8.3170265E-1,2.15251E-1,6.13242E-1,-4.70021E-2,-5.025084E-3,-6.384779E-1,4.6085756E-2,-2.4582496E-2,-6.893743E-2,-2.7598485E-2,-2.5341084E-2,6.328385E-2,4.1864354E-2,-6.057568E-3,1.8507818E-2,-1.773959E-2,4.527767E-2,-3.3496218E-4,4.0930208E-2,-5.3639766E-2],"categories":[],"categories_nodes":[],"categories_segments":[],"categories_sizes":[],"default_left":[0,0,0,0,0,0,0,0,0,0,0,0,0,0,0,0,0,0,0,0,0,0,0,0,0,0,0,0,0],"id":42,"left_children":[1,3,5,7,9,11,13,15,-1,17,19,21,23,25,27,-1,-1,-1,-1,-1,-1,-1,-1,-1,-1,-1,-1,-1,-1],"loss_changes":[3.9489872E0,4.4398036E0,5.309528E0,8.828329E0,4.7962418E0,6.037557E0,4.5843678E0,6.452142E0,0E0,2.0867128E0,5.3873725E0,4.9713936E0,3.5700147E0,4.726143E0,8.135121E0,0E0,0E0,0E0,0E0,0E0,0E0,0E0,0E0,0E0,0E0,0E0,0E0,0E0,0E0],"parents":[2147483647,0,0,1,1,2,2,3,3,4,4,5,5,6,6,7,7,9,9,10,10,11,11,12,12,13,13,14,14],"right_children":[2,4,6,8,10,12,14,16,-1,18,20,22,24,26,28,-1,-1,-1,-1,-1,-1,-1,-1,-1,-1,-1,-1,-1,-1],"split_conditions":[-2.643998E0,5.560288E-4,1.7871803E1,2.54575E4,2.8885826E1,-1.04528464E-1,2.0320613E-2,-4.0135474E0,-5.9272896E-2,4.483124E-3,-1.1932663E1,1.24134205E-1,-1.01007595E1,-2.0361E1,2.1992178E4,4.6085756E-2,-2.4582496E-2,-6.893743E-2,-2.7598485E-2,-2.5341084E-2,6.328385E-2,4.1864354E-2,-6.057568E-3,1.8507818E-2,-1.773959E-2,4.527767E-2,-3.3496218E-4,4.0930208E-2,-5.3639766E-2],"split_indices":[6,10,20,5,0,21,17,19,0,17,19,18,19,19,2,0,0,0,0,0,0,0,0,0,0,0,0,0,0],"split_type":[0,0,0,0,0,0,0,0,0,0,0,0,0,0,0,0,0,0,0,0,0,0,0,0,0,0,0,0,0],"sum_hessian":[3.1989512E3,3.8862812E1,3.1600884E3,1.5996295E1,2.2866518E1,5.437955E1,3.1057087E3,1.2770836E1,3.225459E0,1.760943E1,5.2570868E0,2.8597893E1,2.5781658E1,3.0952415E3,1.0467309E1,8.69374E0,4.077096E0,4.6287127E0,1.2980718E1,3.422166E0,1.8349205E0,2.1805477E1,6.7924156E0,1.0860034E1,1.4921623E1,4.689544E0,3.0905518E3,2.2004066E0,8.266903E0],"tree_param":{"num_deleted":"0","num_feature":"26","num_nodes":"29","size_leaf_vector":"1"}},{"base_weights":[-2.446124E-3,2.2126442E-4,-6.5814E-1,-2.2806967E-2,6.331298E-2,2.3599735E-1,-9.767135E-1,2.2755396E-2,-1.1706262E-1,7.294353E-2,-8.620995E-1,-2.381083E-2,3.1426117E-2,-1.0844003E0,-1.8687695E-2,1.9222072E-3,-1.4868543E-2,-3.17051E-2,-4.806212E-3,9.337289E-3,1.4725029E-4,-6.249137E-2,3.4923118E-2,-6.1752796E-2,-1.2821215E-2],"categories":[],"categories_nodes":[],"categories_segments":[],"categories_sizes":[],"default_left":[0,0,0,0,0,0,0,0,0,0,0,0,0,0,0,0,0,0,0,0,0,0,0,0,0],"id":43,"left_children":[1,3,5,7,9,11,13,15,17,19,21,-1,-1,23,-1,-1,-1,-1,-1,-1,-1,-1,-1,-1,-1],"loss_changes":[5.6128106E0,4.6464605E0,3.9341412E0,1.00644E1,7.6842394E0,1.4793427E0,2.2979927E-1,7.9481916E0,8.206312E0,6.7488027E0,6.249497E0,0E0,0E0,6.529045E-1,0E0,0E0,0E0,0E0,0E0,0E0,0E0,0E0,0E0,0E0,0E0],"parents":[2147483647,0,0,1,1,2,2,3,3,4,4,5,5,6,6,7,7,8,8,9,9,10,10,13,13],"right_children":[2,4,6,8,10,12,14,16,18,20,22,-1,-1,24,-1,-1,-1,-1,-1,-1,-1,-1,-1,-1,-1],"split_conditions":[2.62223E4,2.3792856E1,5.044731E-2,1.2860898E0,2.58846E4,3.298126E-4,1.56E1,6.9031713E-4,1.4045978E0,7.228769E-4,9.1736915E-4,-2.381083E-2,3.1426117E-2,3.1786656E-3,-1.8687695E-2,1.9222072E-3,-1.4868543E-2,-3.17051E-2,-4.806212E-3,9.337289E-3,1.4725029E-4,-6.249137E-2,3.4923118E-2,-6.1752796E-2,-1.2821215E-2],"split_indices":[5,0,18,19,5,10,0,10,19,10,10,0,0,17,0,0,0,0,0,0,0,0,0,0,0],"split_type":[0,0,0,0,0,0,0,0,0,0,0,0,0,0,0,0,0,0,0,0,0,0,0,0,0],"sum_hessian":[3.2080886E3,3.1960864E3,1.2002143E1,2.3419297E3,8.541568E2,3.2209988E0,8.781144E0,1.5792788E3,7.62651E2,8.46271E2,7.885766E0,1.0686969E0,2.152302E0,6.773036E0,2.0081081E0,1.5063362E3,7.294261E1,2.8543036E1,7.341079E2,3.216579E2,5.246131E2,6.475916E0,1.4098502E0,5.314391E0,1.4586447E0],"tree_param":{"num_deleted":"0","num_feature":"26","num_nodes":"25","size_leaf_vector":"1"}},{"base_weights":[-6.912445E-3,-9.3962895E-3,6.4197487E-1,4.2278778E-2,-3.4302507E-2,-2.4083165E-2,8.4025735E-1,3.6392838E-1,1.7563947E-2,-6.098784E-2,5.90609E-2,1.1320361E0,-1.2544753E-1,1.3533833E-2,6.926622E-2,3.9867233E-3,-5.1061083E-3,-2.6969186E-3,-3.15514E-2,2.9260332E-2,1.0876184E-3,6.573778E-2,1.5333652E-3,2.66945E-2,-3.5547312E-2],"categories":[],"categories_nodes":[],"categories_segments":[],"categories_sizes":[],"default_left":[0,0,0,0,0,0,0,0,0,0,0,0,0,0,0,0,0,0,0,0,0,0,0,0,0],"id":44,"left_children":[1,3,5,7,9,-1,11,13,15,17,19,21,23,-1,-1,-1,-1,-1,-1,-1,-1,-1,-1,-1,-1],"loss_changes":[5.158873E0,4.1017647E0,3.124123E0,8.233885E0,5.360922E0,0E0,3.168035E0,6.665124E0,7.1786995E0,6.6880946E0,9.379934E0,1.639472E0,1.6890616E0,0E0,0E0,0E0,0E0,0E0,0E0,0E0,0E0,0E0,0E0,0E0,0E0],"parents":[2147483647,0,0,1,1,2,2,3,3,4,4,6,6,7,7,8,8,9,9,10,10,11,11,12,12],"right_children":[2,4,6,8,10,-1,12,14,16,18,20,22,24,-1,-1,-1,-1,-1,-1,-1,-1,-1,-1,-1,-1],"split_conditions":[1.259315E0,-1.7438707E0,6.585052E1,1.2771484E1,8.5773206E-1,-2.4083165E-2,2.5031299E4,2.2459924E-3,2.4693312E4,1.8098763E0,0E0,-4.3619387E-2,2.5217955E-3,1.3533833E-2,6.926622E-2,3.9867233E-3,-5.1061083E-3,-2.6969186E-3,-3.15514E-2,2.9260332E-2,1.0876184E-3,6.573778E-2,1.5333652E-3,2.66945E-2,-3.5547312E-2],"split_indices":[18,19,20,0,18,0,2,17,2,6,19,21,17,0,0,0,0,0,0,0,0,0,0,0,0],"split_type":[0,0,0,0,0,0,0,0,0,0,0,0,0,0,0,0,0,0,0,0,0,0,0,0,0],"sum_hessian":[3.1960776E3,3.1848718E3,1.1205694E1,1.0355759E3,2.149296E3,1.4664363E0,9.739258E0,7.291417E1,9.626618E2,1.671804E3,4.7749188E2,7.3471484E0,2.3921099E0,6.797333E1,4.9408417E0,6.337806E2,3.288812E2,1.6524633E3,1.9340767E1,3.0644232E1,4.4684766E2,6.135507E0,1.2116413E0,1.1665679E0,1.225542E0],"tree_param":{"num_deleted":"0","num_feature":"26","num_nodes":"25","size_leaf_vector":"1"}},{"base_weights":[-9.73293E-3,-6.3129836E-3,-4.5225483E-1,-9.695046E-3,4.140334E-1,2.8509083E-1,-6.953723E-1,2.022844E-1,-1.6570456E-2,5.6237257E-1,-6.4914936E-1,7.5502E-1,-3.616371E-2,-8.700236E-1,3.2841094E-2,-1.3971016E-2,1.5737742E-2,-2.763553E-2,-4.1353E-4,8.970215E-3,5.5765666E-2,-7.441857E-3,-4.0275346E-2,1.3007613E-2,4.894088E-2,-5.330148E-2,1.586815E-2],"categories":[],"categories_nodes":[],"categories_segments":[],"categories_sizes":[],"default_left":[0,0,0,0,0,0,0,0,0,0,0,0,0,0,0,0,0,0,0,0,0,0,0,0,0,0,0],"id":45,"left_children":[1,3,5,7,9,11,13,15,17,19,21,23,-1,25,-1,-1,-1,-1,-1,-1,-1,-1,-1,-1,-1,-1,-1],"loss_changes":[4.846217E0,4.5255766E0,4.600575E0,4.603229E0,4.3723335E0,3.7677238E0,5.0017223E0,5.463799E0,1.3602717E1,4.63512E0,1.5979433E-1,3.1314754E-1,0E0,4.3049974E0,0E0,0E0,0E0,0E0,0E0,0E0,0E0,0E0,0E0,0E0,0E0,0E0,0E0],"parents":[2147483647,0,0,1,1,2,2,3,3,4,4,5,5,6,6,7,7,8,8,9,9,10,10,11,11,13,13],"right_children":[2,4,6,8,10,12,14,16,18,20,22,24,-1,26,-1,-1,-1,-1,-1,-1,-1,-1,-1,-1,-1,-1,-1],"split_conditions":[2.61922E4,2.61278E4,4.0308746E1,5.8778524E-1,1.5312697E-4,1.6407087E1,2.3339285E1,1.4135715E1,-7.933533E-1,4.2412015E-5,1.4417857E1,-1.4778784E-4,-3.616371E-2,1.7557536E0,3.2841094E-2,-1.3971016E-2,1.5737742E-2,-2.763553E-2,-4.1353E-4,8.970215E-3,5.5765666E-2,-7.441857E-3,-4.0275346E-2,1.3007613E-2,4.894088E-2,-5.330148E-2,1.586815E-2],"split_indices":[5,5,20,22,7,0,0,0,21,7,0,7,0,6,0,0,0,0,0,0,0,0,0,0,0,0,0],"split_type":[0,0,0,0,0,0,0,0,0,0,0,0,0,0,0,0,0,0,0,0,0,0,0,0,0,0,0],"sum_hessian":[3.2030894E3,3.179531E3,2.3558134E1,3.1551223E3,2.4408844E1,5.798709E0,1.7759424E1,9.822654E1,3.0568958E3,2.183359E1,2.5752542E0,4.126756E0,1.6719525E0,1.6043772E1,1.7156525E0,1.831216E1,7.9914375E1,4.5601696E1,3.011294E3,1.3681914E1,8.151675E0,1.0779473E0,1.497307E0,1.9585023E0,2.1682541E0,1.38583355E1,2.185437E0],"tree_param":{"num_deleted":"0","num_feature":"26","num_nodes":"27","size_leaf_vector":"1"}},{"base_weights":[-2.1482634E-4,-9.805235E-3,1.3363752E-1,-3.6549678E-1,-5.26006E-3,4.2862847E-1,-7.023048E-2,6.481634E-2,-6.6141164E-1,1.08231485E-1,-2.1516467E-2,2.0661885E-1,6.960366E-1,8.6412236E-2,-4.3425056E-1,2.0396559E-2,-5.50881E-2,-4.3671902E-2,3.657172E-2,7.426992E-3,-3.3251576E-2,1.3689217E-2,-1.6193427E-3,1.935998E-2,-3.945295E-2,6.933771E-2,2.0785615E-2,-3.06145E-2,7.212996E-3,-4.7893073E-2,-7.887444E-3],"categories":[],"categories_nodes":[],"categories_segments":[],"categories_sizes":[],"default_left":[0,0,0,0,0,0,0,0,0,0,0,0,0,0,0,0,0,0,0,0,0,0,0,0,0,0,0,0,0,0,0],"id":46,"left_children":[1,3,5,7,9,11,13,15,17,19,21,23,25,27,29,-1,-1,-1,-1,-1,-1,-1,-1,-1,-1,-1,-1,-1,-1,-1,-1],"loss_changes":[4.1025977E0,4.81938E0,1.2880373E1,4.8323197E0,5.4368763E0,5.0486317E0,7.2913036E0,6.948521E0,7.246934E0,1.1607233E1,8.2823515E0,9.153553E0,7.0238457E0,3.7168474E0,5.4139357E0,0E0,0E0,0E0,0E0,0E0,0E0,0E0,0E0,0E0,0E0,0E0,0E0,0E0,0E0,0E0,0E0],"parents":[2147483647,0,0,1,1,2,2,3,3,4,4,5,5,6,6,7,7,8,8,9,9,10,10,11,11,12,12,13,13,14,14],"right_children":[2,4,6,8,10,12,14,16,18,20,22,24,26,28,30,-1,-1,-1,-1,-1,-1,-1,-1,-1,-1,-1,-1,-1,-1,-1,-1],"split_conditions":[9.91046E-2,-2.643998E0,2.4190855E-3,5.560288E-4,3.2024944E1,3.3487147E-4,9.578408E-5,2.54575E4,3.1825E1,9.99762E-1,2.1689273E4,1.3729292E0,1.5310715E1,2.175515E4,1.6826263E-4,2.0396559E-2,-5.50881E-2,-4.3671902E-2,3.657172E-2,7.426992E-3,-3.3251576E-2,1.3689217E-2,-1.6193427E-3,1.935998E-2,-3.945295E-2,6.933771E-2,2.0785615E-2,-3.06145E-2,7.212996E-3,-4.7893073E-2,-7.887444E-3],"split_indices":[25,6,17,10,20,10,7,5,0,22,3,19,0,5,7,0,0,0,0,0,0,0,0,0,0,0,0,0,0,0,0],"split_type":[0,0,0,0,0,